tree
version=v3
num_class=1
num_tree_per_iteration=1
label_index=0
max_feature_idx=1279
objective=binary sigmoid:1
feature_names=esm0 esm1 esm2 esm3 esm4 esm5 esm6 esm7 esm8 esm9 esm10 esm11 esm12 esm13 esm14 esm15 esm16 esm17 esm18 esm19 esm20 esm21 esm22 esm23 esm24 esm25 esm26 esm27 esm28 esm29 esm30 esm31 esm32 esm33 esm34 esm35 esm36 esm37 esm38 esm39 esm40 esm41 esm42 esm43 esm44 esm45 esm46 esm47 esm48 esm49 esm50 esm51 esm52 esm53 esm54 esm55 esm56 esm57 esm58 esm59 esm60 esm61 esm62 esm63 esm64 esm65 esm66 esm67 esm68 esm69 esm70 esm71 esm72 esm73 esm74 esm75 esm76 esm77 esm78 esm79 esm80 esm81 esm82 esm83 esm84 esm85 esm86 esm87 esm88 esm89 esm90 esm91 esm92 esm93 esm94 esm95 esm96 esm97 esm98 esm99 esm100 esm101 esm102 esm103 esm104 esm105 esm106 esm107 esm108 esm109 esm110 esm111 esm112 esm113 esm114 esm115 esm116 esm117 esm118 esm119 esm120 esm121 esm122 esm123 esm124 esm125 esm126 esm127 esm128 esm129 esm130 esm131 esm132 esm133 esm134 esm135 esm136 esm137 esm138 esm139 esm140 esm141 esm142 esm143 esm144 esm145 esm146 esm147 esm148 esm149 esm150 esm151 esm152 esm153 esm154 esm155 esm156 esm157 esm158 esm159 esm160 esm161 esm162 esm163 esm164 esm165 esm166 esm167 esm168 esm169 esm170 esm171 esm172 esm173 esm174 esm175 esm176 esm177 esm178 esm179 esm180 esm181 esm182 esm183 esm184 esm185 esm186 esm187 esm188 esm189 esm190 esm191 esm192 esm193 esm194 esm195 esm196 esm197 esm198 esm199 esm200 esm201 esm202 esm203 esm204 esm205 esm206 esm207 esm208 esm209 esm210 esm211 esm212 esm213 esm214 esm215 esm216 esm217 esm218 esm219 esm220 esm221 esm222 esm223 esm224 esm225 esm226 esm227 esm228 esm229 esm230 esm231 esm232 esm233 esm234 esm235 esm236 esm237 esm238 esm239 esm240 esm241 esm242 esm243 esm244 esm245 esm246 esm247 esm248 esm249 esm250 esm251 esm252 esm253 esm254 esm255 esm256 esm257 esm258 esm259 esm260 esm261 esm262 esm263 esm264 esm265 esm266 esm267 esm268 esm269 esm270 esm271 esm272 esm273 esm274 esm275 esm276 esm277 esm278 esm279 esm280 esm281 esm282 esm283 esm284 esm285 esm286 esm287 esm288 esm289 esm290 esm291 esm292 esm293 esm294 esm295 esm296 esm297 esm298 esm299 esm300 esm301 esm302 esm303 esm304 esm305 esm306 esm307 esm308 esm309 esm310 esm311 esm312 esm313 esm314 esm315 esm316 esm317 esm318 esm319 esm320 esm321 esm322 esm323 esm324 esm325 esm326 esm327 esm328 esm329 esm330 esm331 esm332 esm333 esm334 esm335 esm336 esm337 esm338 esm339 esm340 esm341 esm342 esm343 esm344 esm345 esm346 esm347 esm348 esm349 esm350 esm351 esm352 esm353 esm354 esm355 esm356 esm357 esm358 esm359 esm360 esm361 esm362 esm363 esm364 esm365 esm366 esm367 esm368 esm369 esm370 esm371 esm372 esm373 esm374 esm375 esm376 esm377 esm378 esm379 esm380 esm381 esm382 esm383 esm384 esm385 esm386 esm387 esm388 esm389 esm390 esm391 esm392 esm393 esm394 esm395 esm396 esm397 esm398 esm399 esm400 esm401 esm402 esm403 esm404 esm405 esm406 esm407 esm408 esm409 esm410 esm411 esm412 esm413 esm414 esm415 esm416 esm417 esm418 esm419 esm420 esm421 esm422 esm423 esm424 esm425 esm426 esm427 esm428 esm429 esm430 esm431 esm432 esm433 esm434 esm435 esm436 esm437 esm438 esm439 esm440 esm441 esm442 esm443 esm444 esm445 esm446 esm447 esm448 esm449 esm450 esm451 esm452 esm453 esm454 esm455 esm456 esm457 esm458 esm459 esm460 esm461 esm462 esm463 esm464 esm465 esm466 esm467 esm468 esm469 esm470 esm471 esm472 esm473 esm474 esm475 esm476 esm477 esm478 esm479 esm480 esm481 esm482 esm483 esm484 esm485 esm486 esm487 esm488 esm489 esm490 esm491 esm492 esm493 esm494 esm495 esm496 esm497 esm498 esm499 esm500 esm501 esm502 esm503 esm504 esm505 esm506 esm507 esm508 esm509 esm510 esm511 esm512 esm513 esm514 esm515 esm516 esm517 esm518 esm519 esm520 esm521 esm522 esm523 esm524 esm525 esm526 esm527 esm528 esm529 esm530 esm531 esm532 esm533 esm534 esm535 esm536 esm537 esm538 esm539 esm540 esm541 esm542 esm543 esm544 esm545 esm546 esm547 esm548 esm549 esm550 esm551 esm552 esm553 esm554 esm555 esm556 esm557 esm558 esm559 esm560 esm561 esm562 esm563 esm564 esm565 esm566 esm567 esm568 esm569 esm570 esm571 esm572 esm573 esm574 esm575 esm576 esm577 esm578 esm579 esm580 esm581 esm582 esm583 esm584 esm585 esm586 esm587 esm588 esm589 esm590 esm591 esm592 esm593 esm594 esm595 esm596 esm597 esm598 esm599 esm600 esm601 esm602 esm603 esm604 esm605 esm606 esm607 esm608 esm609 esm610 esm611 esm612 esm613 esm614 esm615 esm616 esm617 esm618 esm619 esm620 esm621 esm622 esm623 esm624 esm625 esm626 esm627 esm628 esm629 esm630 esm631 esm632 esm633 esm634 esm635 esm636 esm637 esm638 esm639 esm640 esm641 esm642 esm643 esm644 esm645 esm646 esm647 esm648 esm649 esm650 esm651 esm652 esm653 esm654 esm655 esm656 esm657 esm658 esm659 esm660 esm661 esm662 esm663 esm664 esm665 esm666 esm667 esm668 esm669 esm670 esm671 esm672 esm673 esm674 esm675 esm676 esm677 esm678 esm679 esm680 esm681 esm682 esm683 esm684 esm685 esm686 esm687 esm688 esm689 esm690 esm691 esm692 esm693 esm694 esm695 esm696 esm697 esm698 esm699 esm700 esm701 esm702 esm703 esm704 esm705 esm706 esm707 esm708 esm709 esm710 esm711 esm712 esm713 esm714 esm715 esm716 esm717 esm718 esm719 esm720 esm721 esm722 esm723 esm724 esm725 esm726 esm727 esm728 esm729 esm730 esm731 esm732 esm733 esm734 esm735 esm736 esm737 esm738 esm739 esm740 esm741 esm742 esm743 esm744 esm745 esm746 esm747 esm748 esm749 esm750 esm751 esm752 esm753 esm754 esm755 esm756 esm757 esm758 esm759 esm760 esm761 esm762 esm763 esm764 esm765 esm766 esm767 esm768 esm769 esm770 esm771 esm772 esm773 esm774 esm775 esm776 esm777 esm778 esm779 esm780 esm781 esm782 esm783 esm784 esm785 esm786 esm787 esm788 esm789 esm790 esm791 esm792 esm793 esm794 esm795 esm796 esm797 esm798 esm799 esm800 esm801 esm802 esm803 esm804 esm805 esm806 esm807 esm808 esm809 esm810 esm811 esm812 esm813 esm814 esm815 esm816 esm817 esm818 esm819 esm820 esm821 esm822 esm823 esm824 esm825 esm826 esm827 esm828 esm829 esm830 esm831 esm832 esm833 esm834 esm835 esm836 esm837 esm838 esm839 esm840 esm841 esm842 esm843 esm844 esm845 esm846 esm847 esm848 esm849 esm850 esm851 esm852 esm853 esm854 esm855 esm856 esm857 esm858 esm859 esm860 esm861 esm862 esm863 esm864 esm865 esm866 esm867 esm868 esm869 esm870 esm871 esm872 esm873 esm874 esm875 esm876 esm877 esm878 esm879 esm880 esm881 esm882 esm883 esm884 esm885 esm886 esm887 esm888 esm889 esm890 esm891 esm892 esm893 esm894 esm895 esm896 esm897 esm898 esm899 esm900 esm901 esm902 esm903 esm904 esm905 esm906 esm907 esm908 esm909 esm910 esm911 esm912 esm913 esm914 esm915 esm916 esm917 esm918 esm919 esm920 esm921 esm922 esm923 esm924 esm925 esm926 esm927 esm928 esm929 esm930 esm931 esm932 esm933 esm934 esm935 esm936 esm937 esm938 esm939 esm940 esm941 esm942 esm943 esm944 esm945 esm946 esm947 esm948 esm949 esm950 esm951 esm952 esm953 esm954 esm955 esm956 esm957 esm958 esm959 esm960 esm961 esm962 esm963 esm964 esm965 esm966 esm967 esm968 esm969 esm970 esm971 esm972 esm973 esm974 esm975 esm976 esm977 esm978 esm979 esm980 esm981 esm982 esm983 esm984 esm985 esm986 esm987 esm988 esm989 esm990 esm991 esm992 esm993 esm994 esm995 esm996 esm997 esm998 esm999 esm1000 esm1001 esm1002 esm1003 esm1004 esm1005 esm1006 esm1007 esm1008 esm1009 esm1010 esm1011 esm1012 esm1013 esm1014 esm1015 esm1016 esm1017 esm1018 esm1019 esm1020 esm1021 esm1022 esm1023 esm1024 esm1025 esm1026 esm1027 esm1028 esm1029 esm1030 esm1031 esm1032 esm1033 esm1034 esm1035 esm1036 esm1037 esm1038 esm1039 esm1040 esm1041 esm1042 esm1043 esm1044 esm1045 esm1046 esm1047 esm1048 esm1049 esm1050 esm1051 esm1052 esm1053 esm1054 esm1055 esm1056 esm1057 esm1058 esm1059 esm1060 esm1061 esm1062 esm1063 esm1064 esm1065 esm1066 esm1067 esm1068 esm1069 esm1070 esm1071 esm1072 esm1073 esm1074 esm1075 esm1076 esm1077 esm1078 esm1079 esm1080 esm1081 esm1082 esm1083 esm1084 esm1085 esm1086 esm1087 esm1088 esm1089 esm1090 esm1091 esm1092 esm1093 esm1094 esm1095 esm1096 esm1097 esm1098 esm1099 esm1100 esm1101 esm1102 esm1103 esm1104 esm1105 esm1106 esm1107 esm1108 esm1109 esm1110 esm1111 esm1112 esm1113 esm1114 esm1115 esm1116 esm1117 esm1118 esm1119 esm1120 esm1121 esm1122 esm1123 esm1124 esm1125 esm1126 esm1127 esm1128 esm1129 esm1130 esm1131 esm1132 esm1133 esm1134 esm1135 esm1136 esm1137 esm1138 esm1139 esm1140 esm1141 esm1142 esm1143 esm1144 esm1145 esm1146 esm1147 esm1148 esm1149 esm1150 esm1151 esm1152 esm1153 esm1154 esm1155 esm1156 esm1157 esm1158 esm1159 esm1160 esm1161 esm1162 esm1163 esm1164 esm1165 esm1166 esm1167 esm1168 esm1169 esm1170 esm1171 esm1172 esm1173 esm1174 esm1175 esm1176 esm1177 esm1178 esm1179 esm1180 esm1181 esm1182 esm1183 esm1184 esm1185 esm1186 esm1187 esm1188 esm1189 esm1190 esm1191 esm1192 esm1193 esm1194 esm1195 esm1196 esm1197 esm1198 esm1199 esm1200 esm1201 esm1202 esm1203 esm1204 esm1205 esm1206 esm1207 esm1208 esm1209 esm1210 esm1211 esm1212 esm1213 esm1214 esm1215 esm1216 esm1217 esm1218 esm1219 esm1220 esm1221 esm1222 esm1223 esm1224 esm1225 esm1226 esm1227 esm1228 esm1229 esm1230 esm1231 esm1232 esm1233 esm1234 esm1235 esm1236 esm1237 esm1238 esm1239 esm1240 esm1241 esm1242 esm1243 esm1244 esm1245 esm1246 esm1247 esm1248 esm1249 esm1250 esm1251 esm1252 esm1253 esm1254 esm1255 esm1256 esm1257 esm1258 esm1259 esm1260 esm1261 esm1262 esm1263 esm1264 esm1265 esm1266 esm1267 esm1268 esm1269 esm1270 esm1271 esm1272 esm1273 esm1274 esm1275 esm1276 esm1277 esm1278 esm1279
feature_infos=[-0.26772028207778931:0.47754648327827454] [-0.31213930249214172:0.42483317852020264] [-0.36754545569419861:0.49289083480834961] [-0.35755413770675659:0.63470327854156494] [-0.57972520589828491:0.42726340889930725] [-0.61919081211090088:0.56975358724594116] [-0.88860303163528442:0.40347638726234436] [-0.41551980376243591:0.52556151151657104] [-0.61751961708068848:0.42639955878257751] [-0.6526949405670166:0.19611729681491852] [-0.2844703197479248:0.54143840074539185] [-0.51048451662063599:1.0205940008163452] [-0.32200062274932861:0.5600464940071106] [-0.30761668086051941:0.5735505223274231] [-0.51039624214172363:0.3461972177028656] [-0.50960791110992432:0.26698479056358337] [-0.34423762559890747:1.1901582479476929] [-0.42767104506492615:0.66867595911026001] [-0.49452847242355347:1.3652355670928955] [-0.49542853236198425:0.42460057139396667] [-0.31160369515419006:0.71494472026824951] [-0.25160697102546692:0.85401308536529541] [-0.74687868356704712:0.33573803305625916] [-0.29868832230567932:0.76679331064224243] [-0.53517121076583862:0.63608700037002563] [-0.38024750351905823:0.63746076822280884] [-0.39345017075538635:0.49932608008384705] [-0.4608016312122345:0.20313982665538788] [-0.79948008060455322:0.41018795967102051] [-0.6040911078453064:0.66844207048416138] [-0.44070380926132202:0.36083245277404785] [-0.48442888259887695:0.91705459356307983] [-0.56408220529556274:0.96329593658447266] [-0.31587818264961243:0.67552143335342407] [-0.33268877863883972:0.47500702738761902] [-0.44284677505493164:0.49484539031982422] [-0.84776455163955688:0.28322738409042358] [-0.3698609471321106:0.58827513456344604] [-0.65688198804855347:0.41204002499580383] [-0.46196427941322327:0.7414252758026123] [-0.41863641142845154:0.51200675964355469] [-0.52716273069381714:0.36901375651359558] [-0.45580697059631348:0.51977372169494629] [-0.60812413692474365:0.39629060029983521] [-0.39297959208488464:0.45841926336288452] [-0.70743763446807861:0.54941016435623169] [-0.49091708660125732:0.53705400228500366] [-0.36776715517044067:0.50389134883880615] [-0.58173894882202148:0.40554356575012207] [-0.33390277624130249:0.36356028914451599] [-0.97449088096618652:0.49441996216773987] [-0.27470365166664124:0.46028989553451538] [-0.33486279845237732:0.87752020359039307] [-0.71867412328720093:0.64983707666397095] [-0.62806928157806396:0.56937313079833984] [-0.60158109664916992:0.38577359914779663] [-0.28084701299667358:0.50196903944015503] [-0.37188765406608582:0.55257350206375122] [-0.28920421004295349:0.62531781196594238] [-0.32760071754455566:0.63882958889007568] [-1.076224684715271:0.5137784481048584] [-0.42858245968818665:0.48931631445884705] [-0.64099967479705811:0.46909472346305847] [-0.50028204917907715:0.81884300708770752] [-0.32980245351791382:0.52565538883209229] [-0.79606527090072632:1.4850075244903564] [-0.25482228398323059:1.0757409334182739] [-0.72776097059249878:0.40416815876960754] [-1.0702759027481079:0.34649172425270081] [-0.87476867437362671:0.33233004808425903] [-0.29075109958648682:0.80264419317245483] [-0.22144338488578796:0.52645498514175415] [-0.3730505108833313:0.59186142683029175] [-1.6571762561798096:0.20733347535133362] [-0.37154710292816162:0.79261362552642822] [-0.32987764477729797:0.52052599191665649] [-0.61385941505432129:0.72102802991867065] [-0.52479022741317749:0.43996366858482361] [-0.5823817253112793:0.32104325294494629] [-0.41694116592407227:0.31247624754905701] [-0.680644690990448:0.37698763608932495] [-0.55414140224456787:0.63417023420333862] [-0.47985354065895081:0.35860085487365723] [-0.37100473046302795:0.64845412969589233] [-0.66959846019744873:0.40548053383827209] [-0.30150428414344788:0.57237499952316284] [-0.29559963941574097:0.56257480382919312] [-0.48510017991065979:0.29644536972045898] [-0.37949889898300171:0.52084594964981079] [-0.5248599648475647:0.3151211142539978] [-0.30124789476394653:0.6773800253868103] [-0.5584944486618042:1.0434092283248901] [-0.69213664531707764:0.5452650785446167] [-0.6202162504196167:0.25848180055618286] [-0.37288907170295715:0.43895760178565979] [-0.52739721536636353:0.32812273502349854] [-0.57616794109344482:0.50747770071029663] [-0.49460119009017944:0.4795168936252594] [-0.42285394668579102:0.45538392663002014] [-0.81265079975128174:0.47812283039093018] [-0.40340191125869751:0.63564962148666382] [-0.45700985193252563:0.5045287013053894] [-0.40717855095863342:0.51415473222732544] [-0.53726726770401001:0.3751446008682251] [-0.34339442849159241:0.4938889741897583] [-0.62343752384185791:0.33490040898323059] [-0.87775677442550659:0.55023998022079468] [-0.33419680595397949:0.59859758615493774] [-0.60994428396224976:0.65837258100509644] [-0.46989080309867859:0.60430717468261719] [-0.54094535112380981:1.0699311494827271] [-0.58875572681427002:0.4102555513381958] [-0.29117646813392639:0.52180898189544678] [-0.72208082675933838:0.54018205404281616] [-0.43184196949005127:0.59601128101348877] [-0.55659675598144531:0.63507431745529175] [-0.24280701577663422:0.50527918338775635] [-0.29944494366645813:0.70837485790252686] [-0.5455021858215332:0.9239884614944458] [-1.2670378684997559:0.42919465899467468] [-0.80389779806137085:0.6470075249671936] [-0.37366196513175964:0.60481786727905273] [-0.45053359866142273:0.42848068475723267] [-0.33598679304122925:0.61386305093765259] [-0.39446926116943359:0.94408607482910156] [-0.37373048067092896:0.84468907117843628] [-0.38241255283355713:0.55553585290908813] [-0.59020745754241943:0.35093054175376892] [-0.41540127992630005:0.41319528222084045] [-0.39450550079345703:0.39410644769668579] [-0.34139445424079895:0.37275752425193787] [-0.75648844242095947:0.71123075485229492] [-0.30591019988059998:0.44698381423950195] [-0.41219198703765869:0.75388693809509277] [-0.42778491973876953:0.59820055961608887] [-0.78146052360534668:0.37236997485160828] [-0.44935128092765808:0.97487515211105347] [-1.1251331567764282:0.27072989940643311] [-0.41704091429710388:0.60324710607528687] [-0.60373508930206299:1.3638062477111816] [-0.25770410895347595:0.40996706485748291] [-0.31804925203323364:0.47734451293945312] [-0.35892882943153381:0.34896260499954224] [-0.48837244510650635:0.46179762482643127] [-0.50482332706451416:0.40280312299728394] [-0.64987492561340332:0.3878282904624939] [-0.60358816385269165:0.48196244239807129] [-0.63675200939178467:0.60608255863189697] [-0.2643929123878479:0.44671019911766052] [-0.36783567070960999:0.5380522608757019] [-0.39683333039283752:0.45398411154747009] [-0.70569801330566406:0.32652068138122559] [-0.87366127967834473:0.35951986908912659] [-0.52094268798828125:0.52064341306686401] [-0.53757143020629883:0.46658056974411011] [-0.18832044303417206:0.49291905760765076] [-0.31272122263908386:0.42395263910293579] [-0.94663792848587036:0.55354577302932739] [-0.45047873258590698:0.34974408149719238] [-0.3919079601764679:0.53735309839248657] [-0.53513401746749878:0.94292312860488892] [-0.13065776228904724:0.63688361644744873] [-0.79101383686065674:0.48272335529327393] [-0.4519999623298645:0.41228964924812317] [-0.64139372110366821:0.71083575487136841] [-0.30211225152015686:0.69779771566390991] [-0.36043259501457214:0.54253774881362915] [-0.6231197714805603:0.42744222283363342] [-0.29230767488479614:0.47202613949775696] [-0.25572064518928528:0.99159210920333862] [-0.39641579985618591:0.54920917749404907] [-0.54264307022094727:0.81397563219070435] [-0.4395827054977417:0.60640031099319458] [-0.42038518190383911:0.81422799825668335] [-0.41077691316604614:0.66988450288772583] [-0.63399308919906616:0.35068333148956299] [-0.63467657566070557:0.30944916605949402] [-0.31795206665992737:0.86365383863449097] [-0.53907054662704468:0.61428910493850708] [-0.60447520017623901:0.59346997737884521] [-0.30699476599693298:0.33954316377639771] [-0.42036589980125427:0.44867068529129028] [-0.57640433311462402:0.3842652440071106] [-0.36113598942756653:0.70134568214416504] [-0.40119075775146484:0.6717989444732666] [-0.54676926136016846:0.36117872595787048] [-0.40484017133712769:0.67957442998886108] [-0.42940440773963928:0.52005249261856079] [-0.58449721336364746:0.57306379079818726] [-0.60555201768875122:0.60193485021591187] [-0.40144637227058411:0.65848791599273682] [-0.32842576503753662:0.729023277759552] [-0.60739636421203613:1.1540396213531494] [-0.40430858731269836:0.36681193113327026] [-0.94372177124023438:0.44842848181724548] [-0.50872910022735596:0.51611560583114624] [-0.40991351008415222:0.44153007864952087] [-0.52898436784744263:0.37777671217918396] [-0.65727740526199341:0.32316052913665771] [-0.49597245454788208:0.50616264343261719] [-0.72396063804626465:0.27820798754692078] [-0.9692080020904541:0.31721636652946472] [-0.45081281661987305:0.61261969804763794] [-0.44513425230979919:0.34067568182945251] [-0.63663274049758911:0.369386225938797] [-0.33684560656547546:0.48577001690864563] [-0.4557776153087616:0.35513046383857727] [-0.40974637866020203:0.36420223116874695] [-0.61442708969116211:0.64709895849227905] [-0.58178615570068359:0.49857136607170105] [-0.37680906057357788:0.35027891397476196] [-0.46013078093528748:0.48489713668823242] [-0.26173099875450134:0.65680098533630371] [-0.41419899463653564:0.41710788011550903] [-0.29589292407035828:0.46296066045761108] [-0.37802562117576599:0.31844413280487061] [-0.2940833568572998:0.61576610803604126] [-0.32524362206459045:0.50207668542861938] [-0.65314501523971558:0.41043210029602051] [-0.31135576963424683:0.6208006739616394] [-0.61006832122802734:0.34700882434844971] [-0.67287921905517578:0.39720338582992554] [-0.41365727782249451:0.46369892358779907] [-0.57653945684432983:0.43901461362838745] [-0.39595472812652588:0.32352656126022339] [-0.36925846338272095:0.3308941125869751] [-0.52238726615905762:0.74154049158096313] [-0.63048309087753296:0.35850927233695984] [-0.61565035581588745:0.35205119848251343] [-0.67269939184188843:0.36247515678405762] [-0.29374763369560242:0.43993785977363586] [-0.32792246341705322:0.69693917036056519] [-0.59358823299407959:0.74737876653671265] [-0.4564422070980072:1.0743595361709595] [-0.68437248468399048:1.2062509059906006] [-0.5667719841003418:0.45559972524642944] [-0.54937613010406494:0.50451141595840454] [-0.43041136860847473:0.51520651578903198] [-0.85846477746963501:0.4232650101184845] [-0.63135707378387451:0.31148272752761841] [-0.503592848777771:0.78272247314453125] [-0.42166280746459961:0.55126273632049561] [-0.32069450616836548:0.80278134346008301] [-0.47257846593856812:0.62835556268692017] [-0.32871043682098389:0.58089548349380493] [-0.35192343592643738:0.47524940967559814] [-0.29582217335700989:0.71647322177886963] [-0.33510309457778931:0.95998185873031616] [-0.39987489581108093:0.53211766481399536] [-0.43364733457565308:0.75558072328567505] [-0.54971355199813843:0.38906159996986389] [-0.37763208150863647:0.37231689691543579] [-0.53312242031097412:0.36618080735206604] [-0.48009780049324036:0.39005225896835327] [-0.42915129661560059:1.1192619800567627] [-0.71390426158905029:0.26760315895080566] [-0.51257848739624023:0.89406347274780273] [-0.63254886865615845:0.30080524086952209] [-0.44272339344024658:0.60732227563858032] [-0.56273633241653442:0.47665023803710938] [-0.39646819233894348:0.79865097999572754] [-0.42440307140350342:0.47566881775856018] [-0.45157617330551147:0.43902128934860229] [-0.44606685638427734:0.34773746132850647] [-0.29428553581237793:0.94064158201217651] [-0.37739205360412598:0.39481019973754883] [-0.33631175756454468:0.5254785418510437] [-0.55287152528762817:0.55864799022674561] [-0.36180084943771362:0.41164621710777283] [-0.51052486896514893:0.45713096857070923] [-0.63658022880554199:0.53215593099594116] [-0.7309916615486145:0.5936775803565979] [-0.44234293699264526:0.37193790078163147] [-0.42111921310424805:0.43114235997200012] [-0.50242257118225098:0.33314675092697144] [-0.76755952835083008:0.36994770169258118] [-0.5565330982208252:0.75203120708465576] [-1.0677534341812134:0.33665907382965088] [-0.85246920585632324:0.58238446712493896] [-0.48050114512443542:0.61418086290359497] [-0.49720564484596252:0.4054432213306427] [-0.2661300003528595:0.52693849802017212] [-0.44243249297142029:0.32635149359703064] [-0.72912275791168213:0.62915670871734619] [-0.66270583868026733:0.4921935498714447] [-0.48635408282279968:0.44632026553153992] [-0.73017138242721558:0.31587216258049011] [-0.57687973976135254:0.42230072617530823] [-0.55750995874404907:0.41927877068519592] [-0.34283462166786194:0.53401434421539307] [-0.59228956699371338:0.59802407026290894] [-0.52854138612747192:0.43592837452888489] [-0.46328023076057434:0.41690009832382202] [-0.38606211543083191:0.5547938346862793] [-0.47806262969970703:0.45408129692077637] [-0.34288999438285828:0.57994562387466431] [-0.33638951182365417:0.55166256427764893] [-0.78080999851226807:0.26917374134063721] [-0.45528540015220642:0.97750329971313477] [-0.27060016989707947:0.75949347019195557] [-0.57359784841537476:0.56476432085037231] [-0.46065279841423035:0.56053906679153442] [-0.40267470479011536:0.43695914745330811] [-0.41911798715591431:0.38056239485740662] [-0.49425283074378967:0.37046793103218079] [-0.52788472175598145:1.4676613807678223] [-0.53634858131408691:0.72562825679779053] [-0.4933243989944458:0.51793819665908813] [-0.87832164764404297:0.24535579979419708] [-0.4121134877204895:0.45582127571105957] [-0.42352882027626038:0.47103014588356018] [-0.41624242067337036:0.55261445045471191] [-0.5388069748878479:0.51355010271072388] [-0.56908506155014038:0.37076959013938904] [-0.35870683193206787:0.41791155934333801] [-0.7101251482963562:0.38919290900230408] [-0.66383880376815796:0.36315354704856873] [-0.60939788818359375:0.46066346764564514] [-0.30558991432189941:0.35893747210502625] [-1.3143513202667236:0.47115069627761841] [-0.97441887855529785:0.23719581961631775] [-0.33160096406936646:0.62197792530059814] [-0.47425529360771179:0.41778969764709473] [-0.6437641978263855:0.56930172443389893] [-0.84965801239013672:0.30253398418426514] [-0.69670766592025757:0.56046372652053833] [-0.16223165392875671:0.70658862590789795] [-0.52956908941268921:0.38109582662582397] [-0.6214788556098938:0.36975076794624329] [-0.3778931200504303:0.81816196441650391] [-0.26400232315063477:0.98279935121536255] [-0.61058086156845093:0.51573735475540161] [-0.60526531934738159:0.36887830495834351] [-0.60651463270187378:0.67242705821990967] [-0.40312179923057556:0.30054968595504761] [-0.43827071785926819:0.39204114675521851] [-0.53464305400848389:0.48907274007797241] [-0.37550637125968933:0.49208548665046692] [-0.54845583438873291:0.73932898044586182] [-0.44482812285423279:0.44837278127670288] [-0.59011012315750122:0.31325584650039673] [-0.59082955121994019:0.49002203345298767] [-0.548450767993927:0.86235672235488892] [-0.61155080795288086:0.52512651681900024] [-0.29008388519287109:0.59547603130340576] [-0.51621711254119873:0.38387736678123474] [-0.29098668694496155:0.58454316854476929] [-0.70502465963363647:0.53887355327606201] [-0.56363821029663086:0.40898784995079041] [-0.34891039133071899:0.59239315986633301] [-0.61036515235900879:0.41888701915740967] [-0.26999843120574951:0.83001989126205444] [-0.52853900194168091:0.49933046102523804] [-0.24806627631187439:1.3583304882049561] [-0.79971522092819214:0.38251826167106628] [-0.33255493640899658:0.50384026765823364] [-0.76596128940582275:0.43686163425445557] [-0.52267438173294067:0.82822340726852417] [-0.47945830225944519:0.48790550231933594] [-0.55184799432754517:0.80966848134994507] [-0.29715651273727417:0.6853947639465332] [-0.44263154268264771:0.4775661826133728] [-0.45811164379119873:0.30940765142440796] [-0.44151243567466736:0.49727493524551392] [-0.47215238213539124:0.59060776233673096] [-0.63295352458953857:0.46972426772117615] [-0.61281841993331909:0.57069867849349976] [-0.56581038236618042:0.24084329605102539] [-0.41866263747215271:0.39783874154090881] [-0.2583564817905426:0.67847216129302979] [-0.3141111433506012:0.46208947896957397] [-0.48844897747039795:0.54303973913192749] [-0.44704759120941162:0.54910796880722046] [-0.64589297771453857:0.44180279970169067] [-0.32033649086952209:0.53137928247451782] [-0.72565025091171265:0.54782289266586304] [-0.61478906869888306:0.61149513721466064] [-0.49111133813858032:0.49524134397506714] [-0.26679888367652893:0.73252785205841064] [-0.48465403914451599:0.27318722009658813] [-0.47095078229904175:0.64283967018127441] [-0.34250447154045105:0.61951905488967896] [-0.66693389415740967:0.36066466569900513] [-0.63518756628036499:0.27315044403076172] [-0.29810282588005066:0.69233191013336182] [-0.8502689003944397:0.37939837574958801] [-0.49876990914344788:0.58337724208831787] [-0.52580618858337402:0.7345917820930481] [-0.46673950552940369:0.57761836051940918] [-0.28864014148712158:1.0083944797515869] [-0.64846861362457275:0.52386587858200073] [-0.50807672739028931:0.80375957489013672] [-0.51944386959075928:0.66814732551574707] [-0.42455250024795532:0.59544044733047485] [-0.62296664714813232:0.47486242651939392] [-0.37078380584716797:0.40382519364356995] [-0.35573399066925049:0.63908302783966064] [-0.88881200551986694:0.46349990367889404] [-0.4706142246723175:0.35537832975387573] [-0.93734103441238403:0.35940033197402954] [-1.022403359413147:0.43015202879905701] [-0.53914093971252441:0.65541690587997437] [-0.56554162502288818:0.48692148923873901] [-0.42230218648910522:0.40467885136604309] [-0.57937926054000854:0.50064796209335327] [-0.59232532978057861:0.65092700719833374] [-0.43796944618225098:0.44488650560379028] [-0.3872171938419342:0.45179331302642822] [-0.33910483121871948:0.51840090751647949] [-0.64455997943878174:0.33626839518547058] [-0.28210172057151794:0.51909202337265015] [-0.52094435691833496:0.70908170938491821] [-0.8579145073890686:0.45225781202316284] [-0.76498812437057495:0.33181607723236084] [-0.91499871015548706:0.42660060524940491] [-0.44673809409141541:0.47955024242401123] [-0.42742976546287537:0.56944048404693604] [-0.35984063148498535:0.8269997239112854] [-0.42821332812309265:0.54592603445053101] [-0.321268230676651:0.36958023905754089] [-0.38227954506874084:0.8660922646522522] [-0.61644190549850464:0.28565299510955811] [-0.59660333395004272:0.50468099117279053] [-0.43508711457252502:0.53586387634277344] [-0.65584540367126465:0.299642413854599] [-0.84706199169158936:0.21344801783561707] [-0.8412211537361145:0.49830141663551331] [-0.27772173285484314:0.66399294137954712] [-0.61618673801422119:0.38911858201026917] [-0.3263985812664032:0.54117637872695923] [-0.58187389373779297:0.61914175748825073] [-0.46602696180343628:0.62531501054763794] [-1.0165830850601196:0.36305680871009827] [-0.48311349749565125:0.38960504531860352] [-0.38888660073280334:0.42103195190429688] [-0.46242591738700867:0.41733080148696899] [-0.50437813997268677:0.5269012451171875] [-0.44678279757499695:0.49555277824401855] [-0.47498294711112976:0.49910727143287659] [-0.45752578973770142:0.48553693294525146] [-0.17428173124790192:0.64276021718978882] [-0.64218074083328247:0.33746901154518127] [-0.38649144768714905:0.6887812614440918] [-0.66043084859848022:0.53920429944992065] [-0.43524682521820068:0.53204172849655151] [-0.32727509737014771:0.57410365343093872] [-0.78001964092254639:0.77555888891220093] [-0.62505125999450684:0.36778563261032104] [-0.30628669261932373:0.66360914707183838] [-0.36529591679573059:0.76827484369277954] [-2.3163402080535889:-0.14224308729171753] [-0.54602909088134766:0.4339384138584137] [-0.44754636287689209:0.32348170876502991] [-0.45139250159263611:0.3228493332862854] [-0.65804016590118408:0.51134276390075684] [-0.57412624359130859:0.99749630689620972] [-0.9804610013961792:0.32494872808456421] [-0.79812681674957275:0.3961026668548584] [-0.38796186447143555:0.75785446166992188] [-0.65170103311538696:0.31171751022338867] [-0.41641446948051453:0.37107175588607788] [-0.50829809904098511:0.2831076979637146] [-0.58118665218353271:0.69612216949462891] [-0.34713715314865112:0.70697629451751709] [-0.41759756207466125:0.62222015857696533] [-0.28132650256156921:0.49349451065063477] [-0.42996829748153687:0.45680120587348938] [-0.56772845983505249:0.41667273640632629] [-0.39518055319786072:0.40267306566238403] [-0.62686824798583984:0.46090701222419739] [-0.51781648397445679:0.43065419793128967] [-0.31232947111129761:0.49789217114448547] [-0.74645745754241943:0.56560540199279785] [-0.58376836776733398:0.84090560674667358] [-0.62751233577728271:0.36965844035148621] [-0.45156058669090271:0.5990670919418335] [-0.70929038524627686:0.54013031721115112] [-0.41859909892082214:0.6175006628036499] [-0.72614747285842896:0.42706960439682007] [-0.31839308142662048:0.60788202285766602] [-0.54871279001235962:0.64277797937393188] [-0.73700004816055298:0.40071189403533936] [-0.70040744543075562:0.95115864276885986] [-0.75522089004516602:0.44530385732650757] [-0.57996326684951782:0.48600468039512634] [-0.57793974876403809:0.53930723667144775] [-0.43775933980941772:0.83443140983581543] [-0.39630597829818726:0.46676737070083618] [-0.62968963384628296:0.56200969219207764] [-0.38983154296875:0.42323228716850281] [-0.27544161677360535:0.45725414156913757] [-0.66940367221832275:0.36171317100524902] [-0.3291512131690979:0.49101278185844421] [-0.6472288966178894:0.59323513507843018] [-0.31709381937980652:0.77658456563949585] [-0.48724761605262756:0.43135523796081543] [-0.30961042642593384:0.39235126972198486] [-0.45151498913764954:0.61935913562774658] [-0.45864361524581909:0.30223777890205383] [-0.61470240354537964:0.33498015999794006] [-0.56866389513015747:0.43522423505783081] [-0.53155869245529175:0.53480434417724609] [-0.32609108090400696:0.9896196722984314] [-0.41449224948883057:0.32437136769294739] [-0.48553398251533508:0.29345345497131348] [-0.62325781583786011:0.40998879075050354] [-0.5676504373550415:0.51458823680877686] [-0.32619577646255493:1.0904713869094849] [-0.34152185916900635:0.50241035223007202] [-0.74205636978149414:0.41300076246261597] [-0.59989029169082642:0.47118967771530151] [-0.39761495590209961:0.54261910915374756] [-0.59072047472000122:0.37872251868247986] [-0.39860889315605164:0.60949933528900146] [-0.41438105702400208:0.95111727714538574] [-1.0677374601364136:0.41689100861549377] [-0.56406211853027344:0.60862267017364502] [-0.42071065306663513:0.42229905724525452] [-0.67184692621231079:0.25096911191940308] [-0.89700180292129517:0.46291455626487732] [-0.47579798102378845:0.63539475202560425] [-0.4126066267490387:0.56207782030105591] [-0.31668055057525635:0.69431608915328979] [-0.62421905994415283:0.3067069947719574] [-0.46248474717140198:0.37667331099510193] [-0.28699907660484314:0.54147487878799438] [-0.36845627427101135:0.43964597582817078] [-0.43310546875:0.51580250263214111] [-0.43902850151062012:0.51218503713607788] [-0.78560155630111694:0.57954210042953491] [-0.7152247428894043:0.36478552222251892] [-0.69826161861419678:0.46421241760253906] [-0.46631336212158203:0.54916727542877197] [-0.5250517725944519:0.72397762537002563] [-0.93111610412597656:0.50757360458374023] [-0.52631193399429321:0.37771731615066528] [-0.48374763131141663:0.41573387384414673] [-0.25897893309593201:0.7711213231086731] [-0.71868020296096802:0.56983363628387451] [-0.32810840010643005:0.82851821184158325] [-0.65673601627349854:0.54732811450958252] [-0.54080897569656372:0.47325402498245239] [-0.31223788857460022:0.47612461447715759] [-0.48832908272743225:0.30465444922447205] [-0.53225481510162354:0.57013314962387085] [-0.2275482714176178:0.56750786304473877] [-0.31867846846580505:0.52335494756698608] [-0.39538541436195374:0.3899228572845459] [-0.49766778945922852:0.38176912069320679] [-0.31263446807861328:0.51857459545135498] [-0.33331006765365601:0.67588800191879272] [-0.63586825132369995:0.53817707300186157] [-0.33910369873046875:0.45204928517341614] [-0.36494198441505432:0.83163583278656006] [-0.35080081224441528:0.58809292316436768] [-0.37936672568321228:0.42457494139671326] [-0.72751021385192871:0.38213467597961426] [-0.72620803117752075:0.37712249159812927] [-0.72632318735122681:0.40869411826133728] [-0.59193766117095947:0.28524559736251831] [-0.28916677832603455:0.94354546070098877] [-0.34121313691139221:0.52315545082092285] [-0.39023849368095398:0.60924786329269409] [-0.24032516777515411:0.55929118394851685] [-0.28714942932128906:0.48011294007301331] [-0.39601016044616699:0.46090403199195862] [-0.24565380811691284:0.55612289905548096] [-0.4314981997013092:0.53241711854934692] [-0.40386515855789185:0.80948823690414429] [-0.25832059979438782:1.0520813465118408] [-0.28998306393623352:0.74561357498168945] [-0.37118309736251831:0.68630284070968628] [-0.44236618280410767:0.42964714765548706] [-0.48464080691337585:0.36836886405944824] [-0.53224927186965942:0.35729756951332092] [-0.35646989941596985:0.8096887469291687] [-0.28903332352638245:0.57466608285903931] [-0.43135270476341248:1.0456638336181641] [-0.34102028608322144:0.59242349863052368] [-0.45252290368080139:0.47016322612762451] [-1.0495035648345947:0.92922276258468628] [-0.44420722126960754:0.53909075260162354] [-0.72738116979598999:0.40763348340988159] [-0.4459330141544342:0.54133909940719604] [-0.37637346982955933:0.37727326154708862] [-0.5385364294052124:1.1064534187316895] [-0.44560560584068298:0.56024199724197388] [-1.0451234579086304:0.41136613488197327] [-0.53355985879898071:0.52976506948471069] [-0.34602662920951843:0.68355536460876465] [-0.55084758996963501:0.37414219975471497] [-0.7146381139755249:0.40896692872047424] [-0.44724595546722412:0.32466012239456177] [-0.85927480459213257:0.4578205943107605] [-0.59277117252349854:0.5479922890663147] [-0.71623349189758301:0.47500750422477722] [-0.28335171937942505:0.43198731541633606] [-0.77931374311447144:0.67804765701293945] [-0.55333453416824341:0.395550936460495] [-0.74777066707611084:0.36060029268264771] [-0.43461623787879944:0.40603214502334595] [-0.50015884637832642:0.64414668083190918] [-0.45406675338745117:0.40724435448646545] [-0.44419148564338684:0.93996012210845947] [-0.23983082175254822:0.75142675638198853] [-0.41832420229911804:0.36033341288566589] [-0.60068118572235107:0.39826700091362] [-0.40776672959327698:0.28531071543693542] [-0.49336943030357361:0.34242841601371765] [-0.32391667366027832:0.51398223638534546] [-0.37127053737640381:0.98949664831161499] [-0.75064200162887573:0.3686390221118927] [-0.50845807790756226:0.36315566301345825] [-0.42920985817909241:0.55979633331298828] [-0.80664116144180298:0.35569572448730469] [-0.84380483627319336:0.31755971908569336] [-1.0944557189941406:0.60330379009246826] [-0.24751491844654083:1.2717841863632202] [-0.54905843734741211:0.59925079345703125] [-0.50522840023040771:0.75844073295593262] [-0.72356706857681274:0.56280845403671265] [-0.41222640872001648:0.54353290796279907] [-0.39806568622589111:0.44088754057884216] [-0.34810805320739746:0.38327091932296753] [-0.64467769861221313:0.433969646692276] [-0.99053436517715454:0.30780550837516785] [-0.42619940638542175:0.48393237590789795] [-0.69344139099121094:0.6486060619354248] [-0.45467603206634521:0.38313400745391846] [-0.6748955249786377:0.75315874814987183] [-0.51351040601730347:0.30996760725975037] [-0.72615313529968262:0.3340010941028595] [-0.80862951278686523:0.28861373662948608] [-0.91062617301940918:0.40963736176490784] [-0.26373589038848877:0.55407899618148804] [-0.38028290867805481:0.65546250343322754] [-0.21147076785564423:0.82350003719329834] [-0.39989343285560608:0.35208272933959961] [-0.74415427446365356:1.1478112936019897] [-0.52454477548599243:0.46570965647697449] [-0.89056694507598877:0.24660158157348633] [-0.36850914359092712:0.84502452611923218] [-0.663379967212677:0.64560455083847046] [-0.58410340547561646:0.42870214581489563] [-0.2710379958152771:0.80476868152618408] [-0.53970307111740112:0.71644216775894165] [-1.0503319501876831:2.1445131301879883] [-0.61929869651794434:0.72225081920623779] [-1.0130211114883423:0.42927476763725281] [-0.29623121023178101:0.40747913718223572] [-0.84988272190093994:0.31696721911430359] [-0.90231931209564209:0.28832241892814636] [-0.35133984684944153:0.48436200618743896] [-0.82296246290206909:0.3932492733001709] [-0.49573147296905518:0.46068358421325684] [-0.53749895095825195:0.35989540815353394] [-0.37649780511856079:0.63718181848526001] [-0.63597887754440308:0.4264678955078125] [-0.71545529365539551:0.30765843391418457] [-18.161758422851562:13.615557670593262] [-0.55806291103363037:0.49996489286422729] [-0.36077332496643066:0.88448446989059448] [-0.53089940547943115:0.45067262649536133] [-0.55751043558120728:0.79943251609802246] [-0.5254245400428772:0.46399056911468506] [-0.34531781077384949:0.54309415817260742] [-0.62565195560455322:0.6527591347694397] [-0.47529646754264832:0.35480019450187683] [-0.65845435857772827:0.31133958697319031] [-0.28613740205764771:0.45353731513023376] [-0.38631942868232727:0.78599894046783447] [-0.18926991522312164:0.50528478622436523] [-0.52845031023025513:0.30588245391845703] [-0.40802645683288574:0.47093179821968079] [-0.44904282689094543:0.56762111186981201] [-0.38385370373725891:0.41015702486038208] [-0.36017712950706482:0.55727148056030273] [-0.28802210092544556:0.4949817955493927] [-0.43775650858879089:0.52968621253967285] [-0.56486666202545166:0.41064056754112244] [-0.56779247522354126:0.41723757982254028] [-0.9674639105796814:0.51707589626312256] [-0.57086801528930664:0.30883720517158508] [-0.73099136352539062:0.27361491322517395] [-0.70748358964920044:0.48016184568405151] [-0.63753771781921387:1.1350409984588623] [-0.2892322838306427:1.0155528783798218] [-0.70318323373794556:0.63399326801300049] [-0.37053877115249634:0.451008141040802] [-0.59272933006286621:0.45015716552734375] [-0.4799686074256897:0.3512851893901825] [-0.54790663719177246:0.42206916213035583] [-0.63094079494476318:0.3046146035194397] [-0.72285860776901245:0.41993454098701477] [-0.38145428895950317:0.49226710200309753] [-0.37744498252868652:1.0258877277374268] [-0.74988716840744019:0.3621276319026947] [-0.57594096660614014:0.51888853311538696] [-0.52472871541976929:0.52920675277709961] [-0.46412920951843262:0.35474613308906555] [-0.39041367173194885:0.52308332920074463] [-0.36620476841926575:0.51720160245895386] [-0.2578715980052948:0.68944793939590454] [-0.47617191076278687:0.51455646753311157] [-0.29188469052314758:0.94886523485183716] [-0.51309084892272949:0.34301891922950745] [-0.38032346963882446:0.7799685001373291] [-0.41460660099983215:0.46184584498405457] [-0.6718323826789856:0.59608131647109985] [-0.36173224449157715:0.48836871981620789] [-0.42554008960723877:0.3048253059387207] [-0.44975569844245911:0.97517430782318115] [-0.57445842027664185:0.4560050368309021] [-0.48361322283744812:0.66106998920440674] [-0.42755529284477234:1.2154661417007446] [-0.62006336450576782:0.51485604047775269] [-0.67743325233459473:0.38505083322525024] [-0.3044951856136322:0.88130092620849609] [-0.40717723965644836:0.47012642025947571] [-0.79941904544830322:0.57825624942779541] [-0.37483593821525574:0.4470636248588562] [-0.69262129068374634:0.59536778926849365] [-0.60293567180633545:0.44953176379203796] [-0.4047301709651947:0.38071548938751221] [-0.50317096710205078:0.32270827889442444] [-0.43576136231422424:0.60194259881973267] [-0.72478652000427246:0.99326163530349731] [-0.61437654495239258:0.42849075794219971] [-0.31971439719200134:0.92016071081161499] [-0.87262094020843506:0.34331029653549194] [-0.29101124405860901:0.55274283885955811] [-0.58322125673294067:0.28280267119407654] [-0.32019037008285522:0.57615852355957031] [-0.68724560737609863:0.34862753748893738] [-0.27531111240386963:0.6804574728012085] [-0.51941025257110596:0.81967008113861084] [-0.31847798824310303:0.6297004222869873] [-0.46456071734428406:0.58511388301849365] [-0.34467735886573792:1.0973284244537354] [-0.78400200605392456:0.36615556478500366] [-0.30738601088523865:0.39499017596244812] [-0.74008166790008545:0.31634476780891418] [-0.3617950975894928:0.44530919194221497] [-0.30533549189567566:0.36730995774269104] [-0.5238107442855835:0.51611679792404175] [-0.75275129079818726:0.22773917019367218] [-0.38971567153930664:0.68789726495742798] [-0.58093756437301636:1.1135565042495728] [-0.50647872686386108:0.3816397488117218] [-1.5205432176589966:0.29284089803695679] [-0.50569361448287964:0.62639373540878296] [-0.40771731734275818:0.37767815589904785] [-0.44289439916610718:0.38101932406425476] [-0.45862868428230286:0.5256350040435791] [-0.5827745795249939:0.40069952607154846] [-0.45907872915267944:0.47496837377548218] [-0.51979964971542358:0.53606528043746948] [-0.55860441923141479:0.54063302278518677] [-0.40663179755210876:0.72125703096389771] [-0.72979998588562012:0.47997641563415527] [-0.49161189794540405:0.37753084301948547] [-0.81388825178146362:0.25718480348587036] [-0.27846097946166992:0.59863483905792236] [-0.92600077390670776:0.47975847125053406] [-0.47480544447898865:1.0920026302337646] [-1.034192681312561:0.82173722982406616] [-0.46363988518714905:0.67649221420288086] [-0.44144192337989807:0.57735997438430786] [-0.49738010764122009:0.46864691376686096] [-0.32353323698043823:1.1841990947723389] [-1.1386219263076782:0.499034583568573] [-0.34642833471298218:0.63124668598175049] [-0.48372077941894531:0.46210688352584839] [-0.60626810789108276:0.44316419959068298] [-0.32989600300788879:0.40764880180358887] [-0.37631779909133911:0.35740593075752258] [-0.53061312437057495:0.59918272495269775] [-0.31288748979568481:0.58417481184005737] [-0.39394888281822205:0.62749117612838745] [-0.30326247215270996:0.97781485319137573] [-0.60822880268096924:1.0078920125961304] [-0.63450717926025391:0.3590206503868103] [-0.68048614263534546:0.27969112992286682] [-0.23925511538982391:0.5881575345993042] [-0.44232624769210815:0.28814712166786194] [-0.60588371753692627:0.66289854049682617] [-0.41149118542671204:0.5932127833366394] [-0.72340822219848633:0.60735851526260376] [-0.54602032899856567:0.50468742847442627] [-0.43780049681663513:0.56014442443847656] [-0.37763780355453491:0.38979807496070862] [-0.77696514129638672:0.47600847482681274] [-0.46048060059547424:0.66640359163284302] [-0.3693232536315918:0.46966552734375] [-0.61852878332138062:0.3388485312461853] [-0.34004715085029602:0.77261650562286377] [-0.82805490493774414:0.4909166693687439] [-0.63858908414840698:0.39053153991699219] [-0.48142236471176147:0.3937981128692627] [-0.47315925359725952:0.35699716210365295] [-0.51047348976135254:0.26144066452980042] [-0.52157878875732422:0.79935562610626221] [-0.3444332480430603:1.0246697664260864] [-0.3865790069103241:0.44516336917877197] [-0.58706426620483398:0.48529469966888428] [-0.40228274464607239:0.37951275706291199] [-0.56543982028961182:0.68562352657318115] [-0.88934201002120972:0.38671839237213135] [-0.68256723880767822:0.58397865295410156] [-0.40009617805480957:0.58605343103408813] [-0.61713242530822754:1.4862711429595947] [-0.47454598546028137:0.41697892546653748] [-0.45386424660682678:0.4201056957244873] [-0.68614184856414795:0.42673206329345703] [-0.30307099223136902:1.2246531248092651] [-0.25217333436012268:0.43572390079498291] [-0.43737158179283142:0.77576369047164917] [-0.65070050954818726:0.4901604950428009] [-0.27616477012634277:1.0726692676544189] [-0.45789051055908203:0.34892359375953674] [-0.61692410707473755:0.30129340291023254] [-0.47491014003753662:0.80091124773025513] [-0.3656076192855835:0.65699821710586548] [-0.26017621159553528:0.63739192485809326] [-0.21545535326004028:0.50124514102935791] [-0.54079574346542358:0.39659810066223145] [-0.87392783164978027:0.26502543687820435] [-0.49024096131324768:0.45746952295303345] [-0.29533466696739197:1.0932447910308838] [-0.50144398212432861:0.51176470518112183] [-1.0195941925048828:0.40024325251579285] [-0.58217078447341919:0.61402523517608643] [-0.67031925916671753:0.35562080144882202] [-0.29905745387077332:0.7364966869354248] [-0.38512217998504639:0.48444291949272156] [-0.80163747072219849:0.46388918161392212] [-0.66137635707855225:0.5866858959197998] [-0.44421547651290894:0.38565865159034729] [-0.52783107757568359:0.48251229524612427] [-0.62947618961334229:0.49528229236602783] [-0.48045602440834045:0.90056037902832031] [-0.42947846651077271:0.49709242582321167] [-0.42903518676757812:0.68481075763702393] [-0.52196264266967773:0.45213970541954041] [-0.76007199287414551:0.35918989777565002] [-0.70007419586181641:0.45678487420082092] [-0.29183647036552429:0.4452383816242218] [-0.48414665460586548:0.49048301577568054] [-0.3946373462677002:0.41943752765655518] [-0.51399189233779907:0.71368408203125] [-0.26908501982688904:0.50401681661605835] [-0.48031613230705261:0.743377685546875] [-0.44842326641082764:0.66115683317184448] [-0.71493649482727051:0.56652092933654785] [-0.47045791149139404:0.50320166349411011] [-0.46754047274589539:0.5339236855506897] [-0.87004345655441284:0.40976345539093018] [-0.33260107040405273:0.91672009229660034] [-0.62561112642288208:0.32017114758491516] [-0.45935064554214478:0.52361929416656494] [-0.37941333651542664:0.52513527870178223] [-0.41051250696182251:0.5126187801361084] [-0.45844724774360657:0.42293456196784973] [-0.34800192713737488:0.63565707206726074] [-0.58759063482284546:0.55526357889175415] [-0.50465786457061768:0.50073641538619995] [-0.4376780092716217:0.5581856369972229] [-0.56278711557388306:0.41988620162010193] [-0.42066624760627747:0.42471492290496826] [-0.51626884937286377:0.33146771788597107] [-0.87681078910827637:0.31221187114715576] [-0.50823211669921875:0.59649419784545898] [-0.31960928440093994:1.1485207080841064] [-0.51498633623123169:0.49419099092483521] [-0.5072442889213562:0.39076271653175354] [-0.83099371194839478:0.29175287485122681] [-0.29601186513900757:0.60445874929428101] [-0.66743278503417969:0.87551116943359375] [-1.0002920627593994:0.3102390468120575] [-0.75777769088745117:0.43245786428451538] [-0.60040855407714844:0.35388651490211487] [-0.29251465201377869:0.54337447881698608] [-0.7460702657699585:0.80959957838058472] [-0.54000067710876465:0.35179147124290466] [-0.60602998733520508:0.55843126773834229] [-0.28307658433914185:0.50815391540527344] [-0.45870831608772278:0.55569911003112793] [-0.63864332437515259:0.37528803944587708] [-0.61178767681121826:0.36949640512466431] [-0.39488086104393005:0.53367841243743896] [-0.44031435251235962:0.77803361415863037] [-0.49923393130302429:0.53658849000930786] [-0.67464888095855713:0.33408647775650024] [-0.36806690692901611:0.61029845476150513] [-0.58190697431564331:0.34550905227661133] [-0.3443085253238678:0.60514038801193237] [-0.36961257457733154:0.63218241930007935] [-0.49708342552185059:0.68956649303436279] [-0.71677184104919434:0.71114885807037354] [-0.30434837937355042:0.56034576892852783] [-0.37301275134086609:0.65568244457244873] [-0.88686943054199219:0.34856215119361877] [-0.37255764007568359:0.53516250848770142] [-1.5427145957946777:0.35585039854049683] [-0.58633792400360107:0.43066003918647766] [-0.7431831955909729:0.39280152320861816] [-0.41340652108192444:0.65065687894821167] [-0.29710811376571655:0.86152064800262451] [-1.0978548526763916:6.7958102226257324] [-0.27474033832550049:0.513519287109375] [-0.46742552518844604:0.38853076100349426] [-0.42772701382637024:0.54139596223831177] [-0.46590101718902588:0.54695773124694824] [-0.48521101474761963:0.33630916476249695] [-0.85564374923706055:0.30943694710731506] [-0.35483887791633606:0.46467748284339905] [-0.79708540439605713:0.28882613778114319] [-0.36172991991043091:0.80376350879669189] [-0.79744267463684082:0.37893560528755188] [-0.31509444117546082:0.97373932600021362] [-0.34122943878173828:0.51152050495147705] [-0.51861113309860229:0.29708698391914368] [-0.57539528608322144:0.82621872425079346] [-0.45777285099029541:0.46844363212585449] [-0.74105364084243774:0.31191593408584595] [-0.366994708776474:0.70021092891693115] [-2.4099063873291016:-0.019478898495435715] [-0.61889553070068359:0.6467551589012146] [-0.1943274587392807:1.1979818344116211] [-0.50788247585296631:0.54779773950576782] [-0.42154163122177124:0.62895005941390991] [-0.45955735445022583:0.65027469396591187] [-0.35930672287940979:0.68421155214309692] [-0.22066034376621246:0.71127158403396606] [-0.72627949714660645:0.52614754438400269] [-0.45349186658859253:0.47311145067214966] [-0.52988642454147339:0.53075295686721802] [-0.95377892255783081:0.33464786410331726] [-0.34001836180686951:0.86979788541793823] [-0.2713087797164917:0.71108829975128174] [-0.26102980971336365:0.60428506135940552] [-1.269680380821228:0.40814751386642456] [-0.27654561400413513:0.70125114917755127] [-0.67994046211242676:0.64584189653396606] [-0.48608195781707764:0.63732928037643433] [-0.36288732290267944:0.57452446222305298] [-0.46310195326805115:0.38741901516914368] [-0.64451611042022705:0.74981874227523804] [-0.57507431507110596:0.69514912366867065] [-0.43416738510131836:1.2849905490875244] [-0.41408741474151611:0.74201506376266479] [-0.57596725225448608:0.6662299633026123] [-0.51836931705474854:0.33286187052726746] [-0.55870860815048218:0.62511152029037476] [-0.3444465696811676:0.35169178247451782] [-0.49187082052230835:0.60163664817810059] [-0.23062020540237427:0.49421489238739014] [-0.47580698132514954:0.3529803454875946] [-0.47448045015335083:0.39872473478317261] [-0.97742432355880737:0.27778154611587524] [-0.40202233195304871:0.58493345975875854] [-0.33823844790458679:0.54483491182327271] [-0.82881557941436768:0.23896574974060059] [-0.57383835315704346:0.28292414546012878] [-0.10397820174694061:0.8749125599861145] [-0.22805681824684143:0.74234503507614136] [-0.42549461126327515:0.703369140625] [-0.29539597034454346:0.45826175808906555] [-0.59445631504058838:0.38997256755828857] [-0.24961189925670624:0.73130625486373901] [-0.53575813770294189:0.40613666176795959] [-0.63534736633300781:0.43755257129669189] [-0.39253851771354675:0.431141197681427] [-1.178335428237915:0.29651859402656555] [-0.3268190324306488:0.56278502941131592] [-0.3219037652015686:0.63317567110061646] [-0.34734070301055908:0.64476627111434937] [-0.4564414918422699:0.59393477439880371] [-0.67539721727371216:0.21749985218048096] [-0.89378434419631958:0.67368209362030029] [-0.28901919722557068:0.77863234281539917] [-0.43122392892837524:0.60949516296386719] [-0.48682433366775513:0.39140304923057556] [-0.72400045394897461:0.4027273952960968] [-0.44256448745727539:0.41617751121520996] [-0.37891170382499695:0.50629645586013794] [-0.31595388054847717:0.55871343612670898] [-0.41933977603912354:1.0504353046417236] [-0.43667274713516235:0.61120402812957764] [-0.76334702968597412:0.49784749746322632] [-0.63412410020828247:0.37818649411201477] [-0.21667219698429108:1.3899414539337158] [-0.25068497657775879:0.52498829364776611] [-0.51255929470062256:0.65223312377929688] [-0.42133858799934387:0.89293104410171509] [-0.24408745765686035:0.5940849781036377] [-0.32399991154670715:0.73315650224685669] [-0.53129255771636963:0.47952201962471008] [-0.46711534261703491:0.48078164458274841] [-0.29464694857597351:0.48439031839370728] [-0.47491863369941711:0.57588458061218262] [-0.71569222211837769:0.63827675580978394] [-0.49001947045326233:0.86541545391082764] [-0.72380626201629639:0.63017666339874268] [-0.53995293378829956:0.37321686744689941] [-0.35921064019203186:0.45970204472541809] [-0.49147537350654602:0.51835864782333374] [-0.50054234266281128:0.5863761305809021] [-0.45704293251037598:0.58192235231399536] [-0.45604005455970764:0.55610698461532593] [-0.24548755586147308:0.54056292772293091] [-0.61231690645217896:0.30507814884185791] [-0.71963447332382202:0.28937974572181702] [-0.70273756980895996:0.30551233887672424] [-0.32305911183357239:0.65280932188034058] [-0.33166971802711487:0.49380725622177124] [-0.37825509905815125:0.47544437646865845] [-0.4252815842628479:0.43206223845481873] [-0.41649243235588074:0.53910475969314575] [-0.28157660365104675:1.1622328758239746] [-0.69113564491271973:0.37187692523002625] [-0.40498027205467224:0.49392348527908325] [-0.3218788206577301:0.4025234580039978] [-0.50151580572128296:0.60054618120193481] [-0.33238688111305237:0.60423564910888672] [-0.21857362985610962:0.73839032649993896] [-0.43800541758537292:0.50946205854415894] [-0.50748026371002197:0.44269943237304688] [-0.30035746097564697:1.0555167198181152] [-0.50653815269470215:0.53821146488189697] [-0.43706101179122925:0.40477299690246582] [-0.51044011116027832:0.47845381498336792] [-0.51820659637451172:0.56514883041381836] [-1.0186952352523804:0.63538616895675659] [-0.75958341360092163:0.36819300055503845] [-0.42446964979171753:0.5749889612197876] [-0.32146021723747253:0.52404767274856567] [-0.46990606188774109:0.39235138893127441] [-0.60176932811737061:0.33933517336845398] [-0.50667279958724976:0.47405639290809631] [-0.50801193714141846:0.9764401912689209] [-0.49293810129165649:0.45197522640228271] [-0.43148106336593628:0.6819642186164856] [-0.42033115029335022:0.60015738010406494] [-0.45169341564178467:0.53408288955688477] [-0.38799324631690979:0.3750113844871521] [-0.26841893792152405:0.72011548280715942] [-1.1204622983932495:0.52932578325271606] [-0.30803209543228149:0.55774825811386108] [-0.49421724677085876:0.36571228504180908] [-0.32975909113883972:0.60367286205291748] [-0.70397776365280151:0.34190204739570618] [-0.27093046903610229:0.74504899978637695] [-0.71763485670089722:0.35427668690681458] [-0.48063760995864868:0.75309997797012329] [-0.85780566930770874:0.38410553336143494] [-0.5258292555809021:0.47585678100585938] [-0.38433432579040527:0.64080339670181274] [-0.28195980191230774:0.61711341142654419] [-0.52452117204666138:0.78821533918380737] [-0.50617772340774536:0.68031913042068481] [-0.39559400081634521:0.38739863038063049] [-0.27642908692359924:0.57539659738540649] [-0.62802720069885254:0.25345873832702637] [-0.5885809063911438:0.57763993740081787] [-0.53641015291213989:0.70934021472930908] [-0.76202100515365601:0.55581414699554443] [-0.27251672744750977:0.71536147594451904] [-0.41820383071899414:0.54037809371948242] [-0.36898130178451538:0.42931535840034485] [-0.43848291039466858:0.54223114252090454] [-0.36741268634796143:0.60347110033035278] [-0.35533446073532104:0.70490264892578125] [-0.93076556921005249:0.66812324523925781] [-0.70229810476303101:0.44409555196762085] [-0.2879486083984375:0.55414718389511108] [-0.51242119073867798:0.43166777491569519] [-0.26639226078987122:0.72582882642745972] [-0.58352053165435791:0.44953489303588867] [-0.35849866271018982:0.80719459056854248] [-0.37394097447395325:0.43143337965011597] [-0.85583269596099854:0.25724354386329651] [-0.55820006132125854:0.65956217050552368] [-0.37656930088996887:0.40773811936378479] [-0.43886584043502808:0.51208406686782837] [-0.85561740398406982:0.3759569525718689] [-0.24035574495792389:0.72664397954940796] [-0.3369615375995636:0.43664461374282837] [-0.32813307642936707:1.1061592102050781] [-0.98404186964035034:0.54157805442810059] [-0.34190863370895386:0.50739794969558716] [-0.31303718686103821:0.42620256543159485] [-0.72668641805648804:0.45919325947761536] [-0.64164489507675171:0.53180509805679321] [-0.19393168389797211:0.62122052907943726] [-0.57819890975952148:0.52457815408706665] [-0.68284404277801514:0.30339297652244568] [-0.41831701993942261:0.33029097318649292] [-0.56530183553695679:0.29886379837989807] [-0.39714726805686951:0.45862367749214172] [-0.34253168106079102:0.59355252981185913] [-0.66277331113815308:0.56039530038833618] [-0.32852715253829956:0.60383725166320801] [-0.49147263169288635:0.9351191520690918] [-0.62623947858810425:0.30972170829772949] [-0.73218941688537598:0.39391142129898071] [-0.81625330448150635:0.51626092195510864] [-0.5866854190826416:0.34944161772727966] [-0.3671393096446991:0.42887899279594421] [-0.95853471755981445:0.56293010711669922] [-0.89332783222198486:0.30025085806846619] [-0.63908541202545166:0.67013388872146606] [-0.92191112041473389:0.40508818626403809] [-0.43127310276031494:0.43951317667961121] [-0.35936832427978516:0.49444213509559631] [-0.3359370231628418:0.42016199231147766] [-0.35949921607971191:0.52369588613510132] [-0.52294623851776123:0.48648083209991455] [-0.55078721046447754:0.44521448016166687] [-0.42481276392936707:0.49128708243370056] [-0.84171003103256226:0.37309691309928894] [-0.83805811405181885:0.31870371103286743] [-0.40577968955039978:0.55392730236053467] [-0.30103591084480286:0.55678451061248779] [-0.36563712358474731:0.6961020827293396] [-0.37775179743766785:0.74841034412384033] [-0.6711774468421936:0.46720123291015625] [-0.43175336718559265:0.35235550999641418] [-0.85232669115066528:0.5343363881111145] [-0.38429346680641174:0.57802820205688477] [-0.21826408803462982:0.63172215223312378] [-0.23941750824451447:0.52665495872497559] [-0.4979899525642395:0.68256056308746338] [-0.47485578060150146:0.41500145196914673] [-0.93417608737945557:0.40789318084716797] [-0.33697381615638733:0.42805752158164978] [-0.40587905049324036:0.84037476778030396] [-0.48459231853485107:0.36066240072250366] [-0.51141363382339478:0.29432368278503418] [-0.41644576191902161:0.39675706624984741] [-0.46617096662521362:0.87485694885253906] [-1.0576013326644897:0.46863099932670593] [-0.89616930484771729:0.31964185833930969] [-0.4312896728515625:0.56014442443847656] [-0.38559472560882568:0.38112103939056396] [-0.39129367470741272:0.35284778475761414] [-0.26941424608230591:0.68264764547348022] [-0.75139659643173218:0.46024292707443237] [-0.51194256544113159:0.78480058908462524] [-0.37424027919769287:0.42785704135894775] [-0.4587382972240448:0.36855629086494446] [-0.57251113653182983:0.37694001197814941] [-0.29419678449630737:0.62954771518707275] [-0.48285070061683655:0.40637508034706116] [-0.31360861659049988:0.48023205995559692] [-0.70744657516479492:0.39894202351570129] [-0.86338895559310913:0.40957930684089661] [-0.39624109864234924:0.52186411619186401] [-0.47115629911422729:0.89158928394317627] [-0.37146201729774475:0.44344872236251831] [-0.3021274209022522:1.0040086507797241] [-0.67000317573547363:0.48378562927246094] [-0.30306452512741089:0.61064761877059937] [-0.81764286756515503:0.31051582098007202] [-0.55008119344711304:0.34959211945533752] [-0.6209825873374939:0.2613714337348938] [-0.37441694736480713:0.30585598945617676] [-0.61723858118057251:0.4440561830997467] [-0.75622349977493286:0.58346158266067505] [-0.97783130407333374:0.31870132684707642] [-0.59206265211105347:0.28692325949668884] [-0.47375145554542542:0.36423447728157043] [-0.54025936126708984:0.43228641152381897] [-0.74013924598693848:0.41521492600440979] [-0.71974998712539673:0.48052683472633362] [-0.90958499908447266:0.5617097020149231] [-0.35750666260719299:0.42611175775527954] [-0.41599747538566589:0.43508905172348022] [-0.79222756624221802:0.76816737651824951] [-0.44003522396087646:0.50269889831542969] [-0.41468885540962219:0.65942716598510742] [-0.88869494199752808:0.37865185737609863] [-0.454792320728302:0.40612408518791199] [-0.36826205253601074:0.55564403533935547] [-0.39357179403305054:0.66998100280761719] [-0.36202588677406311:0.61028581857681274] [-0.43010318279266357:0.38126087188720703] [-0.14260067045688629:1.8844465017318726] [-0.45951518416404724:0.41149768233299255] [-0.54612612724304199:0.43455794453620911] [-0.48157972097396851:0.57235127687454224] [-0.42900356650352478:0.43229219317436218] [-0.37139171361923218:0.30491822957992554] [-0.3928835391998291:0.54567927122116089] [-0.36524274945259094:1.0218017101287842] [-0.41325438022613525:0.50623184442520142] [-0.85748136043548584:0.33845573663711548] [-0.2790800929069519:0.64615708589553833] [-0.23936836421489716:0.81085455417633057] [-0.58419489860534668:0.35108697414398193] [-0.79875290393829346:0.46276894211769104] [-0.56157779693603516:0.55777949094772339] [-0.29759186506271362:0.69907885789871216] [-0.30256131291389465:0.6270100474357605] [-0.76570039987564087:0.32797017693519592] [-0.53236615657806396:0.4103240966796875] [-0.60139906406402588:0.47392305731773376] [-0.91653132438659668:0.46279206871986389] [-0.58662796020507812:0.36737793684005737] [-0.89672178030014038:0.35836240649223328] [-0.62628138065338135:0.67071425914764404] [-0.32762083411216736:0.36891788244247437] [-0.46817219257354736:0.60515159368515015] [-0.88283324241638184:0.58395302295684814] [-0.41346877813339233:0.51260393857955933] [-0.78336817026138306:0.47253993153572083] [-0.323853999376297:0.60660147666931152] [-0.38185411691665649:0.63775163888931274] [-0.36065083742141724:0.48090258240699768] [-0.32083505392074585:0.64930325746536255] [-0.46609243750572205:0.71977132558822632] [-0.54489433765411377:0.81364387273788452] [-1.1037119626998901:0.54962950944900513] [-0.45955383777618408:0.58965861797332764] [-0.64114576578140259:0.46932655572891235] [-0.53421509265899658:0.38333755731582642] [-0.41156566143035889:0.40171095728874207] [-0.75953608751296997:0.30136126279830933] [-0.59149354696273804:0.28957611322402954] [-0.46842765808105469:0.95556503534317017] [-0.38054439425468445:0.62571030855178833] [-0.58038842678070068:0.29412940144538879] [-0.62945961952209473:1.0442202091217041] [-0.37399044632911682:0.78760719299316406] [-0.98712426424026489:0.39301237463951111] [-0.38354742527008057:0.50470274686813354] [-0.31269028782844543:0.54804766178131104] [-0.53335130214691162:0.84031075239181519] [-0.34507837891578674:0.71162647008895874] [-0.27497172355651855:0.71802961826324463] [-0.55140995979309082:0.65869975090026855] [-0.27762630581855774:0.59414589405059814] [-0.58047318458557129:0.3013630211353302] [-0.20039331912994385:0.9857061505317688] [-0.41977968811988831:0.41570284962654114] [-0.56584590673446655:0.39326956868171692] [-0.41004571318626404:0.5163121223449707] [-0.22718361020088196:0.45800170302391052] [-0.57147914171218872:0.25025621056556702] [-0.42503190040588379:0.40523621439933777] [-0.35050255060195923:0.320974200963974] [-0.64483994245529175:0.46472755074501038] [-0.89125227928161621:0.38037815690040588] [-0.39838859438896179:0.6195451021194458] [-0.33003410696983337:0.40061190724372864] [-0.50756293535232544:0.55309569835662842] [-0.36343872547149658:0.60713064670562744] [-0.74426662921905518:0.64686399698257446] [-0.41769471764564514:0.94046288728713989] [-0.54653763771057129:0.47930285334587097] [-0.61171132326126099:0.43317323923110962] [-0.45801413059234619:0.45598393678665161] [-0.39328047633171082:0.38003647327423096] [-1.0330525636672974:0.36859217286109924] [-0.27056792378425598:0.60336577892303467] [-0.66431164741516113:0.31843990087509155] [-0.37656307220458984:0.93817788362503052] [-0.44025886058807373:0.45915988087654114] [-0.49617931246757507:0.58409661054611206] [-0.56033319234848022:0.27426853775978088] [-0.41115915775299072:0.52786833047866821] [-0.86984598636627197:0.42885348200798035] [-0.56767362356185913:0.29028317332267761] [-0.34206089377403259:0.4066174328327179] [-3.7096633911132812:0.61387878656387329] [-0.41354620456695557:0.43270733952522278] [-0.92329978942871094:0.47026240825653076] [-0.47669097781181335:0.50928217172622681] [-0.60674291849136353:0.42836147546768188] [-0.84306836128234863:0.55736654996871948]
tree_sizes=1615 1842 1862 1851 1850 1846 1855 1855 1862 1859 1862 1865 1865 1862 1862 1864 1862 1878 1870 1868 1870 1874 1869 1878 1868 1873 1868 1869 1866 1873 1864 1872 1866 1861 1868 1872 1862 1881 1878 1860 1867 1880 1880 1869 1884 1867 1875 1879 1889 1873 1876 1870 1868 1888 1879 1879 1876 1881 1878 1885 1877 1871 1873 1877 1867 1870 1875 1874 1874 1875 1875 1874 1863 1878 1878 1868 1866 1881 1870 1878 1867 1863 1869 1869 1866 1858 1860 1867 1873 1874 1863 1870 1870 1859 1875 1875 1878 1883 1871 1860 1880 1851 1860 1854 1878 1860 1864 1871 1871 1893 1877 1874 1872 1869 1867 1857 1874 1872 1872 1870 1877 1863 1856 1863 1877 1867 1863 1877 1874 1883 1874 1870 1876 1866 1869 1876 1863 1860 1862 1872 1872 1856 1885 1875 1863 1869 1872 1868 1874 1861 1864 1866 1857 1864 1877 1874 1853 1874 1867 1862 1858 1880 1863 1866 1860 1879 1881 1858 1877 1864 1874 1868 1877 1869 1872 1853 1872 1878 1874 1876 1860 1872 1858 1857 1865 1869 1870 1875 1863 1872 1878 1873 1867 1880 1866 1876 1871 1865 1872 1882 1854 1868 1873 1862 1868 1852 1871 1861 1873 1856 1865 1879 1885 1855 1862 1854 1888 1873 1866 1857 1864 1873 1883 1867 1871 1867 1860 1853 1873 1877 1877 1888 1866 1878 1858 1868 1881 1864 1865 1860 1870 1877 1866 1867 1856 1865 1872 1880 1862 1869 1859 1867 1884 1871 1853 1876 1879 1864 1863 1879 1874 1862 1868 1882 1871 1874 1866 1881 1878 1877 1889 1871 1882 1873 1870 1879 1867 1866 1878 1876 1880 1881 1864 1877 1877 1882 1869 1862 1883 1867 1870 1869 1874 1876 1873 1872 1878 1892 1884 1872 1873 1883 1869 1884 1894 1885 1885 1890 1876 1882 1880 1886 1891 1887 1885 1882 1881 1879 1874 1882 1877 1895 1873 1888 1882 1885 1887 1880 1895 1902 1870 1876 1880 1898 1882 1888 1885 1892 1907 1877 1881 1884 1901 1897 1886 1889 1888 1884 1889 1886 1883 1893 1896 1891 1887 1896 1901 1878 1886 1888 1886 1884 1901 1885 1896 1894 1889 1875 1889 1885 1877 1886 1901 1890 1897 1887 1896 1890 1891 1882

Tree=0
num_leaves=16
num_cat=0
split_feature=514 198 933 104 569 684 1025 449 677 744 412 18 62 1268 936
split_gain=2992.69 542.115 525.86 255.277 212.86 182.347 157.959 141.252 137.436 133.113 122.027 94.1539 90.6902 83.0924 73.7417
threshold=0.12767842411994937 -0.073099587112665163 0.47386138141155248 0.12022759392857553 -0.011786672752350567 0.15436776727437976 0.14755991846323016 0.042872115969657905 -0.079055976122617708 0.040926763787865646 -0.028767176903784272 -0.19249868392944333 -0.092704191803932176 0.07382573559880258 0.12207935377955438
decision_type=2 2 2 2 2 2 2 2 2 2 2 2 2 2 2
left_child=1 5 3 10 -3 -1 -4 13 -6 -7 -2 -12 -10 -5 -8
right_child=2 4 6 7 8 9 14 -9 12 -11 11 -13 -14 -15 -16
leaf_value=-0.076595744680851063 -0.035143769968051124 -0.00055096418732782375 -0.075389408099688471 -0.022608695652173914 -0.073469387755102047 -0.0443579766536965 -0.017283950617283949 0.041083521444695265 0.18061016949152542 0.13665158371040725 0.068656716417910449 -0.17093908629441626 0.092418772563176904 -0.15000000000000002 0.14040632054176072
leaf_weight=164.5 78.25 90.75 80.25 86.25 24.5 64.25 40.5 110.75 737.5 110.5 16.75 788 138.5 126 110.75
leaf_count=658 313 363 321 345 98 257 162 443 2950 442 67 3152 554 504 443
internal_value=0 0.10808 -0.100035 -0.126534 0.145422 -0.00103169 0.038013 -0.0504644 0.160133 0.0701001 -0.15436 -0.165952 0.166667 -0.0982332 0.0981818
internal_weight=0 1330.5 1437.5 1206 991.25 339.25 231.5 323 900.5 174.75 883 804.75 876 212.25 151.25
internal_count=11072 5322 5750 4824 3965 1357 926 1292 3602 699 3532 3219 3504 849 605
is_linear=0
shrinkage=0.1


Tree=1
num_leaves=16
num_cat=0
split_feature=514 1123 412 37 14 1064 1007 117 933 468 103 18 1060 443 309
split_gain=2442.74 525.806 438.643 365.968 228.155 164.28 153.064 141.597 134.416 121.448 113.664 109.345 87.8536 82.9816 72.1814
threshold=0.13537947088479999 0.17003512382507327 -0.035756979137659066 0.20944280177354815 -0.011921511031687258 0.045052859932184226 0.17707571387290957 -0.1097455397248268 0.4634037464857102 -0.025032671168446537 0.054742777720093734 -0.10978626459836958 -0.17274692654609677 0.13142098486423495 0.17763534933328631
decision_type=2 2 2 2 2 2 2 2 2 2 2 2 2 2 2
left_child=1 3 6 5 11 12 -2 9 -3 -6 -5 -4 -1 -12 -14
right_child=2 8 4 10 7 -7 -8 -9 -10 -11 13 -13 14 -15 -16
leaf_value=0.15651088152040557 -0.033171554419812309 -0.1407450950835924 0.074271344697314431 0.16034643892888761 0.12470531018919775 0.13167677431118582 0.15527871318491343 -0.15283213084769431 0.097534842327082899 -0.13848016328907634 0.12217790314121901 -0.072451578021617488 -0.087989913699960925 -0.039858936428885189 0.042289266311571122
leaf_weight=23.658177942037582 93.355560585856438 110.50681142508984 65.319951876997948 794.0117392539978 35.609588533639908 94.741641074419022 80.064425215125084 830.78611502051353 30.128746077418327 34.540439113974571 83.5807204246521 228.38570541143417 136.39791578054428 50.822840973734856 61.795427948236465
leaf_count=95 374 443 262 3197 143 381 321 3343 121 139 336 918 547 204 248
internal_value=0 0.0935867 -0.0947861 0.11429 -0.11636 0.0214461 0.053832 -0.141312 -0.0896977 -0.00488184 0.145951 -0.0398205 -0.0256279 0.0609059 -0.0473697
internal_weight=0 1385.64 1368.06 1245.01 1194.64 316.593 173.42 900.936 140.636 70.15 928.415 293.706 221.852 134.404 198.193
internal_count=11072 5572 5500 5008 4805 1271 695 3625 564 282 3737 1180 890 540 795
is_linear=0
shrinkage=0.1


Tree=2
num_leaves=16
num_cat=0
split_feature=514 933 933 226 677 687 18 1123 117 945 1036 200 637 894 897
split_gain=2009.77 401.863 400.948 267.539 188.683 162.901 156.128 141.659 129.594 95.3989 91.6938 88.4776 70.6275 65.3228 63.8983
threshold=0.12767842411994937 0.44195970892906195 0.38878950476646429 0.098313536494970336 -0.051635008305311196 -0.061936702579259865 -0.12249757349491118 0.19610701501369479 -0.062738258391618715 0.075789246708154692 -0.011134438682347534 -0.33587041497230524 0.10976653918623926 -0.097507901489734636 0.058073600754141814
decision_type=2 2 2 2 2 2 2 2 2 2 2 2 2 2 2
left_child=2 6 5 8 -4 -1 12 10 -3 -7 -6 -8 -2 -10 -13
right_child=1 3 4 -5 7 9 11 -9 13 -11 -12 14 -14 -15 -16
leaf_value=-0.10354141294547117 -0.06508739167136042 0.060254456496964627 -0.025872589004606497 0.11915184302201937 -0.0086652274131387517 -0.029594880981151886 0.025380326681754668 -0.055100028119677895 0.060499751258294279 0.125582108931244 0.14607499239623073 -0.14360294210704738 0.11684122154789463 -0.10898123493009426 -0.022305676597179427
leaf_weight=121.76016233861446 52.785600319504738 75.931082785129547 83.294189915060997 127.51473854482174 40.071382135152817 77.002441242337227 34.882064402103424 39.143710985779762 25.562079608440399 81.601467475295067 863.46545128524303 809.70839564502239 35.818878576159477 206.11421640217304 45.891198441386223
leaf_count=491 213 307 336 515 162 311 141 158 103 332 3532 3305 144 836 186
internal_value=0 -0.0825993 0.0894356 -0.00263669 0.118396 -0.0165442 -0.118136 0.131144 -0.0531226 0.0502434 0.139212 -0.130732 0.00845831 -0.0902815 -0.137097
internal_weight=0 1414.21 1306.34 435.122 1025.97 280.364 979.086 942.681 307.607 158.604 903.537 890.482 88.6045 231.676 855.6
internal_count=11072 5750 5322 1761 4188 1134 3989 3852 1246 643 3694 3632 357 939 3491
is_linear=0
shrinkage=0.1


Tree=3
num_leaves=16
num_cat=0
split_feature=514 1100 412 198 14 744 76 103 200 340 449 1123 642 723 1205
split_gain=1665.05 390.982 327.833 234.621 181.745 137.309 115.294 109.396 108.821 103.059 82.2385 80.0993 72.9285 65.4707 64.8916
threshold=0.13537947088479999 0.1411259472370148 -0.035756979137659066 -0.12094368413090704 -0.018402751535177227 0.030187514610588554 0.25464972853660589 0.038006456568837173 -0.31355799734592432 -0.0426526591181755 -0.047520354390144341 0.17789216339588168 0.25867505371570593 0.031756043434143073 0.089069213718175902
decision_type=2 2 2 2 2 2 2 2 2 2 2 2 2 2 2
left_child=1 3 6 -1 10 -3 -2 -5 14 -9 -4 -7 -10 -12 -6
right_child=2 5 4 7 8 11 -8 9 12 -11 13 -13 -14 -15 -16
leaf_value=-0.048752448850727596 -0.064170090467317073 -0.094865160800614842 -0.10325911299107822 0.14025351860532767 -0.065653987761368132 0.068350327485141291 0.10886603054856124 -0.027181499152949706 -0.1342502350782504 0.1188987040299147 -0.066876338605081354 -0.11327074698917564 0.034741821846669595 0.061718673938188695 0.15416918945409608
leaf_weight=87.144072905182838 58.457603752613068 136.05761004984379 88.302117303013802 746.18435160815716 38.171229213476181 148.49629443883896 112.82525931298733 84.266296848654747 813.16017757356167 113.13712301850319 61.825718089938164 29.029719471931458 26.36466971039772 110.08806970715523 20.717539042234421
leaf_count=353 236 553 362 3126 156 610 459 343 3397 469 252 118 107 447 84
internal_value=0 0.0784952 -0.0793208 0.108241 -0.0984105 -0.019279 0.0498101 0.12274 -0.119726 0.0565409 -0.0248186 0.038651 -0.128943 0.0154718 0.0116816
internal_weight=0 1344.32 1329.91 1030.73 1158.63 313.584 171.283 943.588 898.414 197.403 260.216 177.526 839.525 171.914 58.8888
internal_count=11072 5572 5500 4291 4805 1281 695 3938 3744 812 1061 728 3504 699 240
is_linear=0
shrinkage=0.1


Tree=4
num_leaves=16
num_cat=0
split_feature=514 933 770 400 104 18 354 933 1036 449 117 739 47 76 1046
split_gain=1384.3 322.046 310.7 209.838 172.46 126.305 123.712 112.564 109.251 74.4755 72.9436 68.8796 62.6582 61.1308 59.8605
threshold=0.12767842411994937 0.47386138141155248 -0.056179868057370179 -0.089594788849353776 0.084279950708150878 0.0059179342351853856 -0.10488711297512053 0.35795874893665319 0.10248786583542825 -0.047520354390144341 -0.051141178235411637 -0.024826075881719586 0.16624110192060473 0.25464972853660589 0.12184635549783708
decision_type=2 2 2 2 2 2 2 2 2 2 2 2 2 2 2
left_child=2 4 6 10 -2 9 11 -5 14 -6 -4 -1 -11 -8 -3
right_child=1 8 3 7 5 -7 13 -9 -10 12 -12 -13 -14 -15 -16
leaf_value=0.002383977124963103 -0.12404069080475666 -0.076583788857477533 0.086323311176295797 -0.012390488526817461 -0.093592733573934439 -0.093445266382982853 -0.018258789350420215 0.12575753221746347 0.10546871929521906 -0.020050300347396695 -0.10501094155439689 -0.14126383233604187 0.10265611119905929 0.12275422549859405 0.098630491498404277
leaf_weight=54.837008133530617 668.1321222782135 80.479795426130295 29.431085184216499 63.448973894119263 52.277878001332283 250.45358155667782 61.375002309679985 837.50030505657196 118.71717704832554 80.715460002422333 61.68989460170269 85.311253800988197 85.903575405478477 61.596046507358551 25.733098909258842
leaf_count=224 2867 331 123 261 219 1055 251 3600 490 333 253 348 350 262 105
internal_value=0 -0.0697853 0.0757799 0.101402 -0.0914053 -0.044948 -0.0208275 0.116029 0.0395482 0.0105407 -0.0432121 -0.0850575 0.0432133 0.0523745 -0.0341331
internal_weight=0 1362.41 1255.19 992.07 1137.48 469.35 263.119 900.949 224.93 218.897 91.121 140.148 166.619 122.971 106.213
internal_count=11072 5750 5322 4237 4824 1957 1085 3861 926 902 376 572 683 513 436
is_linear=0
shrinkage=0.1


Tree=5
num_leaves=16
num_cat=0
split_feature=514 1100 412 198 870 945 1007 1081 1025 744 222 1260 852 963 67
split_gain=1165.97 370.904 231.998 211.449 122.674 121.85 116.228 99.6906 92.1112 83.346 73.6274 66.0118 64.7143 60.5848 50.7458
threshold=0.15031361579895022 0.1411259472370148 -0.0210267836228013 -0.11399234458804129 0.078206397593021407 0.075789246708154692 0.20523674786090854 -0.3574362844228744 0.23633406311273578 -0.0264784712344408 0.084186289459466948 0.00991635210812092 0.067608542740345015 -0.12944613397121427 -0.17181210219860074
decision_type=2 2 2 2 2 2 2 2 2 2 2 2 2 2 2
left_child=1 3 6 14 13 7 -2 -3 10 -7 12 -6 -5 -4 -1
right_child=2 5 4 8 11 9 -8 -9 -10 -11 -12 -13 -14 -15 -16
leaf_value=0.025396194460661617 -0.029165494340484835 0.15499175322235109 -0.041993107882725089 0.06260718870365535 0.03735115910198588 -0.098642264752225456 0.13614320840794922 -0.092479805263934192 0.13300614103669239 0.087535904887355881 0.11005091824024188 -0.086499426988970743 -0.069832049529434267 -0.1221021116390137 -0.10824276430088145
leaf_weight=61.118374273180962 126.26893943548203 17.703425407409668 109.59861448407173 115.15348345041275 95.87236288189888 30.802771642804146 64.13601166009903 202.1832355260849 559.45435802638531 109.60325050354004 197.25474604964256 78.087356045842171 54.289035975933075 681.05384981632233 53.100850522518158
leaf_count=252 524 76 469 494 401 129 269 845 2509 461 860 336 226 3001 220
internal_value=0 0.0613591 -0.0743583 0.091642 -0.0942701 -0.026085 0.0265171 -0.0725555 0.107474 0.0466915 0.0685208 -0.0182431 0.0201739 -0.110998 -0.0367329
internal_weight=0 1400.66 1155.02 1040.37 964.612 360.293 190.405 219.887 926.152 140.406 366.697 173.96 169.443 790.652 114.219
internal_count=11072 6072 5000 4561 4207 1511 793 921 4089 590 1580 737 720 3470 472
is_linear=0
shrinkage=0.1


Tree=6
num_leaves=16
num_cat=0
split_feature=514 744 933 14 1108 751 677 933 945 67 1036 459 259 882 500
split_gain=975.087 334.749 207.016 164.561 164.283 105.797 96.2604 84.8678 82.9302 81.5998 62.1311 57.5379 57.3602 55.4388 45.6038
threshold=0.1054716967046261 0.087254516780376448 0.39293982088565832 -0.011921511031687258 -0.0074754380621016017 0.01785780489444733 -0.051635008305311196 0.50571629405021679 0.049364175647497184 -0.12796957045793531 0.088614661246538176 -0.056963084265589707 0.2073088809847832 0.037431566044688232 0.29299162328243261
decision_type=2 2 2 2 2 2 2 2 2 2 2 2 2 2 2
left_child=2 3 5 9 10 -1 -4 14 -7 11 -3 -2 -8 -6 -5
right_child=1 4 6 7 13 8 12 -9 -10 -11 -12 -13 -14 -15 -16
leaf_value=-0.1077527319364202 0.10096095077370099 0.001127596289342983 -0.01657705507674935 -0.11623706991755758 -0.062447486378068497 -0.047779263775363318 0.1148319488370708 0.050173243760311209 0.096931802693296543 -0.088137853420324486 0.11822510381626966 -0.018116390769438398 -0.089997382155187974 0.080579940689291751 0.07380935758054398
leaf_weight=71.941120624542236 63.833676129579544 64.330839827656746 64.654690846800804 727.1389561444521 176.93748493492603 67.021295800805092 701.12935242056847 33.336298048496246 96.795402094721794 99.474541381001472 153.26761707663536 111.38466055691242 13.943714439868925 32.001885265111923 12.849594712257383
leaf_count=301 268 277 268 3294 768 279 3239 139 424 429 665 473 59 134 55
internal_value=0 -0.0518923 0.0754455 -0.0822888 0.0227929 -0.00666586 0.100273 -0.105906 0.0377271 -0.0158018 0.0836064 0.0252646 0.110838 -0.0405409 -0.112937
internal_weight=0 1474.56 1015.49 1048.02 426.538 235.758 779.728 773.325 163.817 274.693 217.598 175.218 715.073 208.939 739.989
internal_count=11072 6502 4570 4658 1844 1004 3566 3488 703 1170 942 741 3298 902 3349
is_linear=0
shrinkage=0.1


Tree=7
num_leaves=16
num_cat=0
split_feature=514 198 933 226 744 1025 1123 354 489 196 208 642 71 139 1203
split_gain=833.914 299.242 198.949 157.185 130.847 122.034 110.372 101.248 80.2799 74.2544 73.0137 67.599 48.2157 47.6475 44.282
threshold=0.15031361579895022 -0.057397719472646706 0.43423244357109075 0.098313536494970336 -0.016822979785501953 0.24241241067647937 0.18640153855085376 -0.1733833700418472 0.043920287862420089 0.099984671920537962 0.0190920839086175 0.25867505371570593 0.21430795639753344 -0.014456355944275854 0.15574246644973758
decision_type=2 2 2 2 2 2 2 2 2 2 2 2 2 2 2
left_child=1 4 11 9 -1 7 8 -3 13 -4 -9 -2 -10 -6 -11
right_child=2 5 3 -5 6 -7 -8 10 12 14 -12 -13 -14 -15 -16
leaf_value=-0.11391821753448253 -0.1028095655750513 -0.066143925109844112 -0.078065490719853053 0.093789774995970188 0.016313666711694378 0.12229954244498978 -0.091719928234858625 -0.05864264705742761 -0.084614098798815623 -0.032930292138527946 0.090331753521803893 0.044744998804289934 0.092736658128912727 0.1087276534539363 0.12314643505202241
leaf_weight=95.347099527716637 675.67776663601398 66.509801119565964 204.49217395484447 110.69960679113865 91.688882037997246 483.61393451690674 75.865413159132004 37.879910603165627 63.280490323901176 39.249647229909897 250.18929308652878 32.543503105640411 20.229877933859825 142.49954859912395 33.860393494367599
leaf_count=411 3167 285 911 472 387 2356 328 165 268 171 1149 135 87 636 144
internal_value=0 0.0533614 -0.0644893 -0.00696367 -0.00881364 0.0896276 0.0166496 0.045066 0.0425279 -0.0471412 0.0707422 -0.0960293 -0.041652 0.072546 0.0393555
internal_weight=0 1327.1 1096.52 388.302 488.911 838.193 393.564 354.579 317.699 277.602 288.069 708.221 83.5104 234.188 73.11
internal_count=11072 6072 5000 1698 2117 3955 1706 1599 1378 1226 1314 3302 355 1023 315
is_linear=0
shrinkage=0.1


Tree=8
num_leaves=16
num_cat=0
split_feature=198 354 18 744 800 117 933 770 1100 968 870 918 933 116 790
split_gain=710.469 289.773 224.16 157.195 131.38 93.4659 88.1373 80.4514 68.3564 62.2373 62.0819 55.248 53.7723 48.5583 38.622
threshold=-0.051565174013376229 -0.091970320791006074 -0.011528648436069487 0.040926763787865646 -0.069584153592586503 0.020239127799868587 0.47386138141155248 -0.063020668923854814 0.09447240456938745 -0.10883314535021781 0.13495877385139468 0.10382505133748056 0.35795874893665319 0.064415384083986296 -0.12902568280696866
decision_type=2 2 2 2 2 2 2 2 2 2 2 2 2 2 2
left_child=2 4 3 10 5 14 9 -5 -3 -4 -1 -7 -10 -8 -2
right_child=1 8 6 7 -6 11 13 -9 12 -11 -12 -13 -14 -15 -16
leaf_value=-0.082102732317302224 -0.018886076256403952 0.12231632958670335 -0.0028759968817216332 -0.023803396836595728 -0.081534345092303395 -0.081624226805459332 -0.084112878603454191 0.088453776018621533 -0.090876423932676184 -0.10686243111709835 0.062710484873255576 0.10382438195880116 0.071094149079608884 0.059188150494961601 0.10056899675730827
leaf_weight=196.22323510050774 33.132105007767677 472.85924181342125 63.568967640399933 96.248837530612946 143.71092866361141 76.890038400888443 38.572656780481339 189.61053238809109 23.838988915085793 608.58123150467873 34.863701164722443 20.307391181588173 146.19891974329948 61.107344970107079 147.83231650292873
leaf_count=884 149 2390 291 415 658 346 166 868 103 2918 147 93 675 261 708
internal_value=0 0.0605036 -0.0498832 0.00107666 -0.00389561 0.0362161 -0.0840145 0.0506568 0.102763 -0.0970279 -0.060255 -0.0428786 0.0483862 0.00373569 0.0786984
internal_weight=0 1064.77 1288.78 516.946 421.873 278.162 771.83 285.859 642.897 672.15 231.087 97.1974 170.038 99.68 180.964
internal_count=11072 5122 5950 2314 1954 1296 3636 1283 3168 3209 1031 439 778 427 857
is_linear=0
shrinkage=0.1


Tree=9
num_leaves=16
num_cat=0
split_feature=514 1025 936 744 709 67 933 1088 1036 491 68 709 1095 662 76
split_gain=613.009 235.294 161.176 130.894 97.871 83.5345 80.3254 75.0796 72.3254 65.3702 64.5772 60.4533 56.9998 54.3615 53.4199
threshold=0.15031361579895022 0.24842899292707446 0.14399957656860354 0.082072596997022643 0.04385748319327832 -0.12796957045793531 0.44195970892906195 0.20703876763582232 0.0097561548464000242 -0.073286425322294221 -0.14659531414508817 0.16460986435413363 -0.10809716582298277 0.049329603090882308 0.26451097428798681
decision_type=2 2 2 2 2 2 2 2 2 2 2 2 2 2 2
left_child=1 3 5 4 9 10 -4 -6 -3 -1 -2 14 -8 -12 -5
right_child=2 8 6 11 7 -7 12 -9 -10 -11 13 -13 -14 -15 -16
leaf_value=-0.069641939143746653 0.045011277640244755 -0.069252186415005162 -0.049198216951756149 0.037318225695831701 -0.099499882229309736 -0.11337467502325252 -0.029131032662900049 0.078396668627655541 0.10876700018718284 0.056870682625444147 -0.10018541740960069 -0.058039073026542987 0.10079444690686568 -0.013490684534348983 0.12306406951203537
leaf_weight=56.198487639427185 63.430795237421989 23.967713326215744 133.58130924403667 173.88437421619892 176.01562941074371 386.80066089332104 50.825322449207306 27.419634535908699 477.50441731512547 149.47179919481277 183.19622315466404 39.809088855981827 100.60362190008163 119.51284021139145 124.80716136097908
leaf_count=247 284 110 625 804 784 1972 224 130 2531 666 910 182 444 541 618
internal_value=0 0.0472649 -0.0567238 0.0117184 -0.0263432 -0.0809681 0.00732511 -0.0755224 0.100259 0.0223017 -0.046733 0.0577188 0.0571865 -0.0659574 0.0731468
internal_weight=0 1249.08 1037.95 747.606 409.106 752.941 285.01 203.435 501.472 205.67 366.14 338.501 151.429 302.709 298.692
internal_count=11072 6072 5000 3431 1827 3707 1293 914 2641 913 1735 1604 668 1451 1422
is_linear=0
shrinkage=0.1


Tree=10
num_leaves=16
num_cat=0
split_feature=198 354 67 18 744 1123 1025 1088 37 660 886 677 208 933 985
split_gain=530.393 230.08 181.757 155.299 105.529 97.2155 82.5614 79.0628 74.1763 62.2117 53.2437 49.1371 42.269 39.9836 39.5895
threshold=-0.051565174013376229 -0.11610490828752516 -0.12796957045793531 0.028082608245313171 0.040926763787865646 0.10040291026234628 0.17215040326118472 0.20703876763582232 0.1935338228940964 0.16017412394285205 1.0000000180025095e-35 -0.059760330244898789 0.0190920839086175 0.35795874893665319 0.15300916880369189
decision_type=2 2 2 2 2 2 2 2 2 2 2 2 2 2 2
left_child=2 5 3 4 10 8 12 14 -2 -5 -1 -6 -3 -8 -4
right_child=1 6 7 9 11 -7 13 -9 -10 -11 -12 -13 -14 -15 -16
leaf_value=0.049182578310033642 -0.049150429635987397 -0.071157833756718261 -0.10773347367581776 -0.087982021366711113 -0.069092221017856545 -0.072457238931140228 -0.0066387764967865866 0.060285078759104861 0.08665294871195342 0.042806008596140088 -0.066089020755762437 0.080368770447372007 0.053261739748898619 0.11204638725131555 0.074260105684249664
leaf_weight=56.961078479886055 63.513794437050819 38.37850821018219 436.38715335726738 253.65561221539974 24.305878281593323 153.48357312381268 30.072931796312332 31.857211381196976 109.66692681610584 42.456873252987862 135.13086532056332 231.51316067576408 94.635569125413895 505.72763201594353 12.289365410804747
leaf_count=246 298 173 2251 1260 104 726 139 153 562 188 622 1070 453 2771 56
internal_value=0 0.0542805 -0.0440014 -0.0130397 0.0241073 -0.0145096 0.0878791 -0.0919402 0.0368472 -0.0692295 -0.0319075 0.0661682 0.017363 0.105385 -0.102749
internal_weight=0 995.479 1224.56 744.023 447.911 326.664 668.815 480.534 173.181 296.112 192.092 255.819 133.014 535.801 448.677
internal_count=11072 5122 5950 3490 2042 1586 3536 2460 860 1448 868 1174 626 2910 2307
is_linear=0
shrinkage=0.1


Tree=11
num_leaves=16
num_cat=0
split_feature=1100 198 67 1088 709 491 991 703 1158 992 1007 764 755 270 200
split_gain=475.058 189.404 173.122 137.52 114.068 94.3996 81.0903 68.548 62.4206 58.9147 55.3511 52.9875 47.089 45.264 39.5929
threshold=0.09447240456938745 -0.078885342925786958 -0.17181210219860074 0.19082780182361606 0.04385748319327832 -0.073286425322294221 0.12894377857446673 -0.0058758207596838466 0.039248557761311538 0.12118880823254587 0.20523674786090854 -0.23011946678161618 0.18548877537250522 -0.011083066463470457 -0.31355799734592432
decision_type=2 2 2 2 2 2 2 2 2 2 2 2 2 2 2
left_child=1 7 4 11 5 -2 9 10 14 -3 -1 12 -4 -5 -6
right_child=2 6 3 13 8 -7 -8 -9 -10 -11 -12 -13 -14 -15 -16
leaf_value=-0.070573702793587545 -0.058908600922121093 -0.021089148731992354 -0.10542548332625171 -0.11029171795902409 0.033215488216340211 0.074658160880657784 0.11008131906159149 0.074756487016627501 0.055138192605894858 0.092621074249656349 0.075433356441604316 -0.09440003669400425 0.15030854337917132 0.10571366997470866 -0.080255916210564299
leaf_weight=157.09112645685673 68.615893945097923 99.675282597541809 12.419134184718134 11.900589779019354 35.921615153551102 231.23613423109055 437.23676440119743 62.053794890642166 53.474540993571281 83.931842565536499 31.105605021119118 585.54157719016075 17.133573561906815 52.490935385227203 213.58531510829926
leaf_count=776 321 480 66 58 168 1102 2523 285 262 439 147 3059 80 267 1039
internal_value=0 0.0570572 -0.0386416 -0.0732505 0.000367857 0.0440937 0.0866617 -0.0163883 -0.0429064 0.0308909 -0.0464413 -0.0878062 0.0428397 0.0657924 -0.0639194
internal_weight=0 871.094 1282.32 679.486 602.833 299.852 620.844 250.251 302.981 183.607 188.197 615.094 29.5527 64.3915 249.507
internal_count=11072 4650 6422 3530 2892 1423 3442 1208 1469 919 923 3205 146 325 1207
is_linear=0
shrinkage=0.1


Tree=12
num_leaves=16
num_cat=0
split_feature=1100 449 208 897 198 660 37 1123 1274 426 660 1210 1196 709 852
split_gain=405.119 204.438 161.919 131.021 122.247 93.3685 74.9513 59.8582 57.6739 54.3678 51.8305 49.4526 48.0587 47.61 41.9363
threshold=0.073042083531618132 0.026065970771014694 0.054017495363950736 0.033110298216342933 -0.10764519497752188 0.18431380391120913 0.23414460569620135 0.18640153855085376 -0.37976418435573572 0.04156055115163327 0.18431380391120913 1.0000000180025095e-35 -0.31861875951290125 0.13572873920202258 0.030506659299135212
decision_type=2 2 2 2 2 2 2 2 2 2 2 2 2 2 2
left_child=4 3 5 10 -1 -3 11 -8 -5 -6 12 14 13 -2 -4
right_child=1 2 6 8 9 -7 7 -9 -10 -11 -12 -13 -14 -15 -16
leaf_value=-0.028171129975487014 0.027849372228988978 -0.07714939729175356 0.04806815125563383 -0.10241036554456245 0.11112428023275366 0.088490130163083838 0.097718081361066494 -0.072496092314585509 0.10142516051748603 0.046004374155571792 0.010641796889846457 0.084401006619582497 -0.10324852615623609 -0.12181197761587047 -0.066008168499240225
leaf_weight=114.86510124802589 60.280089393258095 231.11322610080242 47.324839055538177 18.009231239557266 325.67785501480103 39.907023623585701 224.28733204305172 22.756272926926613 60.554363220930099 211.44648408889771 55.072886005043983 51.167910441756248 493.69528524577618 32.833599999547005 101.00207749009132
leaf_count=558 291 1207 224 90 1953 196 1208 120 274 1151 269 218 2672 165 476
internal_value=0 -0.0295658 0.00821507 -0.0671954 0.0654647 -0.0527594 0.0452227 0.0820389 0.0546997 0.0854889 -0.0821148 -0.000368538 -0.0908201 -0.024924 -0.0296112
internal_weight=0 1438 717.559 720.445 651.989 271.02 446.538 247.044 78.5636 537.124 641.882 199.495 586.809 93.1137 148.327
internal_count=11072 7410 3649 3761 3662 1403 2246 1328 364 3104 3397 918 3128 456 700
is_linear=0
shrinkage=0.1


Tree=13
num_leaves=16
num_cat=0
split_feature=174 200 18 936 703 356 1268 343 333 933 810 491 1112 1154 828
split_gain=366.069 286.343 188.403 126.874 104.083 85.7012 66.5305 59.3844 46.5511 46.1786 36.4389 34.826 34.7832 33.8908 31.8323
threshold=1.0000000180025095e-35 -0.29523506760597223 -0.0767245478928089 0.13019078969955447 -0.070862036198377595 0.055184999480843551 0.078844025731086745 -0.012006618082523344 -0.08420346304774283 0.38438279926776892 0.066524546593427672 -0.079003177583217607 -0.066644635051488862 0.12423288449645044 0.13651664555072787
decision_type=2 2 2 2 2 2 2 2 2 2 2 2 2 2 2
left_child=4 5 7 -4 -1 10 11 13 -7 12 -2 -5 -6 -3 -9
right_child=1 2 3 6 9 8 -8 14 -10 -11 -12 -13 -14 -15 -16
leaf_value=-0.052541129918035459 -0.073484513258798359 -0.11776717548105853 -0.092929858853701364 -0.051956988760521974 0.0665969221083723 0.11848462272634804 -0.065905400554445187 0.019495661176959708 -0.053681008208957305 0.10509525673058501 0.071471482059684732 0.049710384879696951 -0.075472844873335762 0.052517317649638476 0.095403446725649502
leaf_weight=57.665722995996475 48.70414312183857 39.888504132628441 622.52573749423027 44.779066622257233 53.429812625050545 179.25435447692871 147.77419437468052 158.17922070622444 17.213041812181473 367.98464313149452 26.930809825658798 136.09465169906616 25.437940612435341 16.531760811805725 84.895637556910515
leaf_count=301 245 198 3513 225 269 991 753 753 81 2330 137 675 119 76 406
internal_value=0 -0.0243879 -0.0446144 -0.0663934 0.0738963 0.0685795 -0.0161279 0.024554 0.103401 0.0902128 -0.021871 0.0245405 0.0207739 -0.0678719 0.046007
internal_weight=0 1522.77 1250.67 951.174 504.518 272.102 328.648 299.495 196.467 446.852 75.635 180.874 78.8678 56.4203 243.075
internal_count=11072 8053 6599 5166 3019 1454 1653 1433 1072 2718 382 900 388 274 1159
is_linear=0
shrinkage=0.1


Tree=14
num_leaves=16
num_cat=0
split_feature=354 496 1025 18 117 941 933 933 882 870 1261 1036 933 985 62
split_gain=321.877 164.301 151.198 109.564 89.2525 62.8446 61.0482 59.8091 57.8711 56.8946 53.5267 47.1031 43.5624 40.4194 38.8502
threshold=-0.085614103823900209 0.033206032589077956 0.20678011327981952 0.039631238207221038 0.0076725464314222344 0.065768815577030196 0.49760870635509497 0.40435518324375158 0.018422857858240608 0.12337104231119157 0.064925253391265883 0.17235827445983889 0.36370320618152624 0.11552235111594202 -0.16135258227586743
decision_type=2 2 2 2 2 2 2 2 2 2 2 2 2 2 2
left_child=1 9 6 4 12 -6 8 -4 -2 11 -5 13 -3 -1 -15
right_child=2 3 7 10 5 -7 -8 -9 -10 -11 -12 -13 -14 14 -16
leaf_value=-0.097293596748301431 -0.051520734785200209 -0.026185777010023795 0.014194870829145943 -0.085836621358258466 0.026792525654025436 -0.089655455079273735 0.090428294268381948 0.10814047634790452 0.038712964827216791 0.028431551516035686 0.067274607170323186 0.030324419355295312 0.089291191933477482 0.17881793982979266 -0.084691928240168579
leaf_weight=450.87750419974327 185.38752453029156 39.007971912622452 84.423845157027245 153.067109182477 112.88255097717047 78.625708281993866 64.299090251326561 343.45563399791718 115.26992845535278 50.808463901281357 26.835642874240875 34.458022177219391 200.99258320778608 10.637000635266306 11.803622081875799
leaf_count=2619 961 190 465 882 565 385 329 2317 575 245 134 175 1115 48 67
internal_value=0 -0.0332552 0.049273 0.00256324 0.0298965 -0.0210164 0.00198817 0.0896043 -0.0169258 -0.072461 -0.0629974 -0.0825564 0.0705224 -0.0907742 0.0402135
internal_weight=0 1170 792.836 611.412 431.509 191.508 364.957 427.879 300.657 558.585 179.903 507.776 240.001 473.318 22.4406
internal_count=11072 6425 4647 3271 2255 950 1865 2782 1536 3154 1016 2909 1305 2734 115
is_linear=0
shrinkage=0.1


Tree=15
num_leaves=16
num_cat=0
split_feature=174 744 870 1025 1086 557 933 196 61 794 222 1158 622 251 103
split_gain=281.441 220.337 124.181 105.039 90.4745 74.8438 72.1714 49.9972 45.3286 44.1721 40.7825 35.5221 33.5804 31.5436 29.2013
threshold=-0.011448451317846773 0.087254516780376448 0.10340441390872003 0.14755991846323016 0.30249212682247167 1.0000000180025095e-35 0.45458351075649267 0.067506536841392531 0.068097654730081572 -0.074996352195739732 0.090002592653036131 0.076625365763902678 0.03629454784095288 1.0000000180025095e-35 0.087094742804765715
decision_type=2 2 2 2 2 2 2 2 2 2 2 2 2 2 2
left_child=5 2 4 13 6 -1 11 -8 -7 -4 -5 -2 -6 -3 -12
right_child=1 3 9 10 12 8 7 -9 -10 -11 14 -13 -14 -15 -16
leaf_value=-0.05099458397425051 -0.092200258071721497 -0.066887846421479866 0.070445409165285813 0.022028262983943257 -0.12042946792606356 0.10131500398827864 -0.061314362279308081 0.05466095350478517 0.0010309016130604577 -0.043889258214409366 0.10649062017973963 0.0175340881208371 0.11609523906423887 0.026761889652803912 0.002105406223951977
leaf_weight=43.777377106249332 592.37184027582407 105.02187417447567 105.29216931760311 145.3158907070756 7.1990321874618521 320.62677528709173 83.304571807384491 67.123429007828236 52.444549702107906 49.758950434625149 179.26681538671255 31.045490816235542 36.114545002579689 54.699077531695366 31.5098737180233
leaf_count=243 3565 545 499 767 33 2219 437 332 283 261 1119 161 182 266 160
internal_value=0 -0.0202653 -0.0482941 0.0325637 -0.0638621 0.0727025 -0.0717343 -0.00956428 0.0872176 0.0337532 0.062786 -0.0867356 0.0767831 -0.0348159 0.0908856
internal_weight=0 1488.02 972.21 515.814 817.159 416.849 773.845 150.428 373.071 155.051 356.093 623.417 43.3136 159.721 210.777
internal_count=11072 8327 5470 2857 4710 2745 4495 769 2502 760 2046 3726 215 811 1279
is_linear=0
shrinkage=0.1


Tree=16
num_leaves=16
num_cat=0
split_feature=852 1088 709 198 959 281 222 933 883 53 940 208 208 933 699
split_gain=255.535 199.317 127.612 95.7758 73.6639 64.5432 52.1891 43.2115 39.6193 33.5928 32.1468 31.4685 31.2694 31.0605 39.7206
threshold=0.0057356960605829963 0.20703876763582232 0.04385748319327832 -0.057397719472646706 0.014616148546338083 0.23369606584310534 -0.0078035360202193252 0.43808057904243475 0.022059733979403976 1.0000000180025095e-35 -0.058118760585784905 0.054017495363950736 0.012405444402247669 0.47386138141155248 -0.0544041059911251
decision_type=2 2 2 2 2 2 2 2 2 2 2 2 2 2 2
left_child=3 2 4 7 6 13 -2 -1 -3 -5 -8 -11 -7 -4 -15
right_child=1 8 5 9 -6 12 10 -9 -10 11 -12 -13 -14 14 -16
leaf_value=-0.031804244236885076 -0.033885870451680677 0.093190261153170306 -0.08671042935529133 0.1062166415306432 -0.075830507418157875 -0.077758588765539358 0.11665203916617316 0.052951818183521418 -0.073350776295500825 -0.030377416036037594 0.029878811612442276 0.073043173242343815 0.089548288842830115 0.038584289699867595 -0.094623607974401752
leaf_weight=146.5175701007247 90.671532921493053 145.06456918269396 534.61741027981043 235.1557712033391 87.997599102556705 16.147120624780655 63.087743446230888 102.04990993440151 15.844716504216192 39.895543217658997 132.07225450128317 112.06381757557392 36.249010525643826 48.251512132585049 41.75678850710392
leaf_count=813 453 982 3276 1743 522 94 386 504 76 214 666 703 196 234 210
internal_value=0 -0.026853 -0.0427233 0.0514327 0.00417327 -0.068618 0.0288037 0.00299254 0.076791 0.0825362 0.0579293 0.045891 0.0379887 -0.0775606 -0.0232137
internal_weight=0 1211.76 1050.85 635.683 373.829 677.022 285.832 248.567 160.909 387.115 195.16 151.959 52.3961 624.626 90.0083
internal_count=11072 7095 6037 3977 2027 4010 1505 1317 1058 2660 1052 917 290 3720 444
is_linear=0
shrinkage=0.1


Tree=17
num_leaves=16
num_cat=0
split_feature=354 1025 959 714 933 1030 933 882 222 1100 613 55 895 202 208
split_gain=225.786 125.733 119.327 73.4942 70.5055 58.427 55.8265 49.7185 48.3997 38.5585 38.2834 35.8752 33.4715 29.3834 27.3206
threshold=-0.10488711297512053 0.20678011327981952 -0.039593370631337159 0.018102834932506088 0.40786544978618627 -0.013123971875756977 0.48448446393013006 0.030887458473443988 0.090002592653036131 0.1411259472370148 0.037923196330666549 -0.022904411889612671 -0.016695905476808545 0.10939135774970056 0.024315766990184787
decision_type=2 2 2 2 2 2 2 2 2 2 2 2 2 2 2
left_child=2 6 3 8 9 11 7 14 13 -3 -5 12 -4 -1 -2
right_child=1 4 5 10 -6 -7 -8 -9 -10 -11 -12 -13 -14 -15 -16
leaf_value=-0.028107489659948089 -0.088996490232729888 0.054060189227937962 0.10941410810722128 0.020865515360700134 0.099591590583946066 -0.089036307018259264 0.065708355385235701 0.034891784307933479 0.073641199370197447 -0.069847723297334671 -0.074770349988409951 -0.079219646697961985 -0.042262121914848627 0.097165213976380518 -0.017830891112378875
leaf_weight=119.41987144947052 92.613166190683842 63.555985361337662 34.966812416911125 59.920337311923504 317.69675549119711 358.65764470398426 97.597254857420921 109.16877274960279 145.5994972512126 41.521780163049698 138.85086955875158 36.737540669739246 24.916725255548954 22.205113098025322 129.20100196450949
leaf_count=634 570 391 186 309 2463 2378 518 560 872 225 816 225 134 100 691
internal_value=0 0.0374128 -0.0336561 0.000805427 0.0761057 -0.0704427 -0.000755908 -0.0203543 0.0331556 0.00509762 -0.0459406 -0.00142315 0.0463037 -0.00846622 -0.0475444
internal_weight=0 851.355 941.274 485.996 422.775 455.279 428.58 330.983 287.224 105.078 198.771 96.6211 59.8835 141.625 221.814
internal_count=11072 5418 5654 2731 3079 2923 2339 1821 1606 616 1125 545 320 734 1261
is_linear=0
shrinkage=0.1


Tree=18
num_leaves=16
num_cat=0
split_feature=14 196 200 449 1086 1144 593 357 870 281 1088 703 115 668 1036
split_gain=203.008 173.177 85.1166 82.5796 56.4133 55.7524 51.1264 48.4986 44.6647 41.656 36.9977 32.8863 29.394 28.4393 27.35
threshold=-0.011921511031687258 0.071751423180103316 -0.2779365181922912 -0.056567804887890809 0.24412740767002108 -0.056744152680039399 -0.15590173006057736 -0.017815864644944664 0.078206397593021407 0.25717383623123174 0.10927955433726312 -0.090799655765295015 0.015719667077064518 -0.098684791475534425 0.037845849990844734
decision_type=2 2 2 2 2 2 2 2 2 2 2 2 2 2 2
left_child=3 8 14 10 7 11 -7 12 9 -2 -1 -5 -4 -8 -3
right_child=1 2 4 5 -6 6 13 -9 -10 -11 -12 -13 -14 -15 -16
