tree
version=v3
num_class=1
num_tree_per_iteration=1
label_index=0
max_feature_idx=2020
objective=binary sigmoid:1
feature_names=ssa0 ssa1 ssa2 ssa3 ssa4 ssa5 ssa6 ssa7 ssa8 ssa9 ssa10 ssa11 ssa12 ssa13 ssa14 ssa15 ssa16 ssa17 ssa18 ssa19 ssa20 ssa21 ssa22 ssa23 ssa24 ssa25 ssa26 ssa27 ssa28 ssa29 ssa30 ssa31 ssa32 ssa33 ssa34 ssa35 ssa36 ssa37 ssa38 ssa39 ssa40 ssa41 ssa42 ssa43 ssa44 ssa45 ssa46 ssa47 ssa48 ssa49 ssa50 ssa51 ssa52 ssa53 ssa54 ssa55 ssa56 ssa57 ssa58 ssa59 ssa60 ssa61 ssa62 ssa63 ssa64 ssa65 ssa66 ssa67 ssa68 ssa69 ssa70 ssa71 ssa72 ssa73 ssa74 ssa75 ssa76 ssa77 ssa78 ssa79 ssa80 ssa81 ssa82 ssa83 ssa84 ssa85 ssa86 ssa87 ssa88 ssa89 ssa90 ssa91 ssa92 ssa93 ssa94 ssa95 ssa96 ssa97 ssa98 ssa99 ssa100 ssa101 ssa102 ssa103 ssa104 ssa105 ssa106 ssa107 ssa108 ssa109 ssa110 ssa111 ssa112 ssa113 ssa114 ssa115 ssa116 ssa117 ssa118 ssa119 ssa120 unirep0 unirep1 unirep2 unirep3 unirep4 unirep5 unirep6 unirep7 unirep8 unirep9 unirep10 unirep11 unirep12 unirep13 unirep14 unirep15 unirep16 unirep17 unirep18 unirep19 unirep20 unirep21 unirep22 unirep23 unirep24 unirep25 unirep26 unirep27 unirep28 unirep29 unirep30 unirep31 unirep32 unirep33 unirep34 unirep35 unirep36 unirep37 unirep38 unirep39 unirep40 unirep41 unirep42 unirep43 unirep44 unirep45 unirep46 unirep47 unirep48 unirep49 unirep50 unirep51 unirep52 unirep53 unirep54 unirep55 unirep56 unirep57 unirep58 unirep59 unirep60 unirep61 unirep62 unirep63 unirep64 unirep65 unirep66 unirep67 unirep68 unirep69 unirep70 unirep71 unirep72 unirep73 unirep74 unirep75 unirep76 unirep77 unirep78 unirep79 unirep80 unirep81 unirep82 unirep83 unirep84 unirep85 unirep86 unirep87 unirep88 unirep89 unirep90 unirep91 unirep92 unirep93 unirep94 unirep95 unirep96 unirep97 unirep98 unirep99 unirep100 unirep101 unirep102 unirep103 unirep104 unirep105 unirep106 unirep107 unirep108 unirep109 unirep110 unirep111 unirep112 unirep113 unirep114 unirep115 unirep116 unirep117 unirep118 unirep119 unirep120 unirep121 unirep122 unirep123 unirep124 unirep125 unirep126 unirep127 unirep128 unirep129 unirep130 unirep131 unirep132 unirep133 unirep134 unirep135 unirep136 unirep137 unirep138 unirep139 unirep140 unirep141 unirep142 unirep143 unirep144 unirep145 unirep146 unirep147 unirep148 unirep149 unirep150 unirep151 unirep152 unirep153 unirep154 unirep155 unirep156 unirep157 unirep158 unirep159 unirep160 unirep161 unirep162 unirep163 unirep164 unirep165 unirep166 unirep167 unirep168 unirep169 unirep170 unirep171 unirep172 unirep173 unirep174 unirep175 unirep176 unirep177 unirep178 unirep179 unirep180 unirep181 unirep182 unirep183 unirep184 unirep185 unirep186 unirep187 unirep188 unirep189 unirep190 unirep191 unirep192 unirep193 unirep194 unirep195 unirep196 unirep197 unirep198 unirep199 unirep200 unirep201 unirep202 unirep203 unirep204 unirep205 unirep206 unirep207 unirep208 unirep209 unirep210 unirep211 unirep212 unirep213 unirep214 unirep215 unirep216 unirep217 unirep218 unirep219 unirep220 unirep221 unirep222 unirep223 unirep224 unirep225 unirep226 unirep227 unirep228 unirep229 unirep230 unirep231 unirep232 unirep233 unirep234 unirep235 unirep236 unirep237 unirep238 unirep239 unirep240 unirep241 unirep242 unirep243 unirep244 unirep245 unirep246 unirep247 unirep248 unirep249 unirep250 unirep251 unirep252 unirep253 unirep254 unirep255 unirep256 unirep257 unirep258 unirep259 unirep260 unirep261 unirep262 unirep263 unirep264 unirep265 unirep266 unirep267 unirep268 unirep269 unirep270 unirep271 unirep272 unirep273 unirep274 unirep275 unirep276 unirep277 unirep278 unirep279 unirep280 unirep281 unirep282 unirep283 unirep284 unirep285 unirep286 unirep287 unirep288 unirep289 unirep290 unirep291 unirep292 unirep293 unirep294 unirep295 unirep296 unirep297 unirep298 unirep299 unirep300 unirep301 unirep302 unirep303 unirep304 unirep305 unirep306 unirep307 unirep308 unirep309 unirep310 unirep311 unirep312 unirep313 unirep314 unirep315 unirep316 unirep317 unirep318 unirep319 unirep320 unirep321 unirep322 unirep323 unirep324 unirep325 unirep326 unirep327 unirep328 unirep329 unirep330 unirep331 unirep332 unirep333 unirep334 unirep335 unirep336 unirep337 unirep338 unirep339 unirep340 unirep341 unirep342 unirep343 unirep344 unirep345 unirep346 unirep347 unirep348 unirep349 unirep350 unirep351 unirep352 unirep353 unirep354 unirep355 unirep356 unirep357 unirep358 unirep359 unirep360 unirep361 unirep362 unirep363 unirep364 unirep365 unirep366 unirep367 unirep368 unirep369 unirep370 unirep371 unirep372 unirep373 unirep374 unirep375 unirep376 unirep377 unirep378 unirep379 unirep380 unirep381 unirep382 unirep383 unirep384 unirep385 unirep386 unirep387 unirep388 unirep389 unirep390 unirep391 unirep392 unirep393 unirep394 unirep395 unirep396 unirep397 unirep398 unirep399 unirep400 unirep401 unirep402 unirep403 unirep404 unirep405 unirep406 unirep407 unirep408 unirep409 unirep410 unirep411 unirep412 unirep413 unirep414 unirep415 unirep416 unirep417 unirep418 unirep419 unirep420 unirep421 unirep422 unirep423 unirep424 unirep425 unirep426 unirep427 unirep428 unirep429 unirep430 unirep431 unirep432 unirep433 unirep434 unirep435 unirep436 unirep437 unirep438 unirep439 unirep440 unirep441 unirep442 unirep443 unirep444 unirep445 unirep446 unirep447 unirep448 unirep449 unirep450 unirep451 unirep452 unirep453 unirep454 unirep455 unirep456 unirep457 unirep458 unirep459 unirep460 unirep461 unirep462 unirep463 unirep464 unirep465 unirep466 unirep467 unirep468 unirep469 unirep470 unirep471 unirep472 unirep473 unirep474 unirep475 unirep476 unirep477 unirep478 unirep479 unirep480 unirep481 unirep482 unirep483 unirep484 unirep485 unirep486 unirep487 unirep488 unirep489 unirep490 unirep491 unirep492 unirep493 unirep494 unirep495 unirep496 unirep497 unirep498 unirep499 unirep500 unirep501 unirep502 unirep503 unirep504 unirep505 unirep506 unirep507 unirep508 unirep509 unirep510 unirep511 unirep512 unirep513 unirep514 unirep515 unirep516 unirep517 unirep518 unirep519 unirep520 unirep521 unirep522 unirep523 unirep524 unirep525 unirep526 unirep527 unirep528 unirep529 unirep530 unirep531 unirep532 unirep533 unirep534 unirep535 unirep536 unirep537 unirep538 unirep539 unirep540 unirep541 unirep542 unirep543 unirep544 unirep545 unirep546 unirep547 unirep548 unirep549 unirep550 unirep551 unirep552 unirep553 unirep554 unirep555 unirep556 unirep557 unirep558 unirep559 unirep560 unirep561 unirep562 unirep563 unirep564 unirep565 unirep566 unirep567 unirep568 unirep569 unirep570 unirep571 unirep572 unirep573 unirep574 unirep575 unirep576 unirep577 unirep578 unirep579 unirep580 unirep581 unirep582 unirep583 unirep584 unirep585 unirep586 unirep587 unirep588 unirep589 unirep590 unirep591 unirep592 unirep593 unirep594 unirep595 unirep596 unirep597 unirep598 unirep599 unirep600 unirep601 unirep602 unirep603 unirep604 unirep605 unirep606 unirep607 unirep608 unirep609 unirep610 unirep611 unirep612 unirep613 unirep614 unirep615 unirep616 unirep617 unirep618 unirep619 unirep620 unirep621 unirep622 unirep623 unirep624 unirep625 unirep626 unirep627 unirep628 unirep629 unirep630 unirep631 unirep632 unirep633 unirep634 unirep635 unirep636 unirep637 unirep638 unirep639 unirep640 unirep641 unirep642 unirep643 unirep644 unirep645 unirep646 unirep647 unirep648 unirep649 unirep650 unirep651 unirep652 unirep653 unirep654 unirep655 unirep656 unirep657 unirep658 unirep659 unirep660 unirep661 unirep662 unirep663 unirep664 unirep665 unirep666 unirep667 unirep668 unirep669 unirep670 unirep671 unirep672 unirep673 unirep674 unirep675 unirep676 unirep677 unirep678 unirep679 unirep680 unirep681 unirep682 unirep683 unirep684 unirep685 unirep686 unirep687 unirep688 unirep689 unirep690 unirep691 unirep692 unirep693 unirep694 unirep695 unirep696 unirep697 unirep698 unirep699 unirep700 unirep701 unirep702 unirep703 unirep704 unirep705 unirep706 unirep707 unirep708 unirep709 unirep710 unirep711 unirep712 unirep713 unirep714 unirep715 unirep716 unirep717 unirep718 unirep719 unirep720 unirep721 unirep722 unirep723 unirep724 unirep725 unirep726 unirep727 unirep728 unirep729 unirep730 unirep731 unirep732 unirep733 unirep734 unirep735 unirep736 unirep737 unirep738 unirep739 unirep740 unirep741 unirep742 unirep743 unirep744 unirep745 unirep746 unirep747 unirep748 unirep749 unirep750 unirep751 unirep752 unirep753 unirep754 unirep755 unirep756 unirep757 unirep758 unirep759 unirep760 unirep761 unirep762 unirep763 unirep764 unirep765 unirep766 unirep767 unirep768 unirep769 unirep770 unirep771 unirep772 unirep773 unirep774 unirep775 unirep776 unirep777 unirep778 unirep779 unirep780 unirep781 unirep782 unirep783 unirep784 unirep785 unirep786 unirep787 unirep788 unirep789 unirep790 unirep791 unirep792 unirep793 unirep794 unirep795 unirep796 unirep797 unirep798 unirep799 unirep800 unirep801 unirep802 unirep803 unirep804 unirep805 unirep806 unirep807 unirep808 unirep809 unirep810 unirep811 unirep812 unirep813 unirep814 unirep815 unirep816 unirep817 unirep818 unirep819 unirep820 unirep821 unirep822 unirep823 unirep824 unirep825 unirep826 unirep827 unirep828 unirep829 unirep830 unirep831 unirep832 unirep833 unirep834 unirep835 unirep836 unirep837 unirep838 unirep839 unirep840 unirep841 unirep842 unirep843 unirep844 unirep845 unirep846 unirep847 unirep848 unirep849 unirep850 unirep851 unirep852 unirep853 unirep854 unirep855 unirep856 unirep857 unirep858 unirep859 unirep860 unirep861 unirep862 unirep863 unirep864 unirep865 unirep866 unirep867 unirep868 unirep869 unirep870 unirep871 unirep872 unirep873 unirep874 unirep875 unirep876 unirep877 unirep878 unirep879 unirep880 unirep881 unirep882 unirep883 unirep884 unirep885 unirep886 unirep887 unirep888 unirep889 unirep890 unirep891 unirep892 unirep893 unirep894 unirep895 unirep896 unirep897 unirep898 unirep899 unirep900 unirep901 unirep902 unirep903 unirep904 unirep905 unirep906 unirep907 unirep908 unirep909 unirep910 unirep911 unirep912 unirep913 unirep914 unirep915 unirep916 unirep917 unirep918 unirep919 unirep920 unirep921 unirep922 unirep923 unirep924 unirep925 unirep926 unirep927 unirep928 unirep929 unirep930 unirep931 unirep932 unirep933 unirep934 unirep935 unirep936 unirep937 unirep938 unirep939 unirep940 unirep941 unirep942 unirep943 unirep944 unirep945 unirep946 unirep947 unirep948 unirep949 unirep950 unirep951 unirep952 unirep953 unirep954 unirep955 unirep956 unirep957 unirep958 unirep959 unirep960 unirep961 unirep962 unirep963 unirep964 unirep965 unirep966 unirep967 unirep968 unirep969 unirep970 unirep971 unirep972 unirep973 unirep974 unirep975 unirep976 unirep977 unirep978 unirep979 unirep980 unirep981 unirep982 unirep983 unirep984 unirep985 unirep986 unirep987 unirep988 unirep989 unirep990 unirep991 unirep992 unirep993 unirep994 unirep995 unirep996 unirep997 unirep998 unirep999 unirep1000 unirep1001 unirep1002 unirep1003 unirep1004 unirep1005 unirep1006 unirep1007 unirep1008 unirep1009 unirep1010 unirep1011 unirep1012 unirep1013 unirep1014 unirep1015 unirep1016 unirep1017 unirep1018 unirep1019 unirep1020 unirep1021 unirep1022 unirep1023 unirep1024 unirep1025 unirep1026 unirep1027 unirep1028 unirep1029 unirep1030 unirep1031 unirep1032 unirep1033 unirep1034 unirep1035 unirep1036 unirep1037 unirep1038 unirep1039 unirep1040 unirep1041 unirep1042 unirep1043 unirep1044 unirep1045 unirep1046 unirep1047 unirep1048 unirep1049 unirep1050 unirep1051 unirep1052 unirep1053 unirep1054 unirep1055 unirep1056 unirep1057 unirep1058 unirep1059 unirep1060 unirep1061 unirep1062 unirep1063 unirep1064 unirep1065 unirep1066 unirep1067 unirep1068 unirep1069 unirep1070 unirep1071 unirep1072 unirep1073 unirep1074 unirep1075 unirep1076 unirep1077 unirep1078 unirep1079 unirep1080 unirep1081 unirep1082 unirep1083 unirep1084 unirep1085 unirep1086 unirep1087 unirep1088 unirep1089 unirep1090 unirep1091 unirep1092 unirep1093 unirep1094 unirep1095 unirep1096 unirep1097 unirep1098 unirep1099 unirep1100 unirep1101 unirep1102 unirep1103 unirep1104 unirep1105 unirep1106 unirep1107 unirep1108 unirep1109 unirep1110 unirep1111 unirep1112 unirep1113 unirep1114 unirep1115 unirep1116 unirep1117 unirep1118 unirep1119 unirep1120 unirep1121 unirep1122 unirep1123 unirep1124 unirep1125 unirep1126 unirep1127 unirep1128 unirep1129 unirep1130 unirep1131 unirep1132 unirep1133 unirep1134 unirep1135 unirep1136 unirep1137 unirep1138 unirep1139 unirep1140 unirep1141 unirep1142 unirep1143 unirep1144 unirep1145 unirep1146 unirep1147 unirep1148 unirep1149 unirep1150 unirep1151 unirep1152 unirep1153 unirep1154 unirep1155 unirep1156 unirep1157 unirep1158 unirep1159 unirep1160 unirep1161 unirep1162 unirep1163 unirep1164 unirep1165 unirep1166 unirep1167 unirep1168 unirep1169 unirep1170 unirep1171 unirep1172 unirep1173 unirep1174 unirep1175 unirep1176 unirep1177 unirep1178 unirep1179 unirep1180 unirep1181 unirep1182 unirep1183 unirep1184 unirep1185 unirep1186 unirep1187 unirep1188 unirep1189 unirep1190 unirep1191 unirep1192 unirep1193 unirep1194 unirep1195 unirep1196 unirep1197 unirep1198 unirep1199 unirep1200 unirep1201 unirep1202 unirep1203 unirep1204 unirep1205 unirep1206 unirep1207 unirep1208 unirep1209 unirep1210 unirep1211 unirep1212 unirep1213 unirep1214 unirep1215 unirep1216 unirep1217 unirep1218 unirep1219 unirep1220 unirep1221 unirep1222 unirep1223 unirep1224 unirep1225 unirep1226 unirep1227 unirep1228 unirep1229 unirep1230 unirep1231 unirep1232 unirep1233 unirep1234 unirep1235 unirep1236 unirep1237 unirep1238 unirep1239 unirep1240 unirep1241 unirep1242 unirep1243 unirep1244 unirep1245 unirep1246 unirep1247 unirep1248 unirep1249 unirep1250 unirep1251 unirep1252 unirep1253 unirep1254 unirep1255 unirep1256 unirep1257 unirep1258 unirep1259 unirep1260 unirep1261 unirep1262 unirep1263 unirep1264 unirep1265 unirep1266 unirep1267 unirep1268 unirep1269 unirep1270 unirep1271 unirep1272 unirep1273 unirep1274 unirep1275 unirep1276 unirep1277 unirep1278 unirep1279 unirep1280 unirep1281 unirep1282 unirep1283 unirep1284 unirep1285 unirep1286 unirep1287 unirep1288 unirep1289 unirep1290 unirep1291 unirep1292 unirep1293 unirep1294 unirep1295 unirep1296 unirep1297 unirep1298 unirep1299 unirep1300 unirep1301 unirep1302 unirep1303 unirep1304 unirep1305 unirep1306 unirep1307 unirep1308 unirep1309 unirep1310 unirep1311 unirep1312 unirep1313 unirep1314 unirep1315 unirep1316 unirep1317 unirep1318 unirep1319 unirep1320 unirep1321 unirep1322 unirep1323 unirep1324 unirep1325 unirep1326 unirep1327 unirep1328 unirep1329 unirep1330 unirep1331 unirep1332 unirep1333 unirep1334 unirep1335 unirep1336 unirep1337 unirep1338 unirep1339 unirep1340 unirep1341 unirep1342 unirep1343 unirep1344 unirep1345 unirep1346 unirep1347 unirep1348 unirep1349 unirep1350 unirep1351 unirep1352 unirep1353 unirep1354 unirep1355 unirep1356 unirep1357 unirep1358 unirep1359 unirep1360 unirep1361 unirep1362 unirep1363 unirep1364 unirep1365 unirep1366 unirep1367 unirep1368 unirep1369 unirep1370 unirep1371 unirep1372 unirep1373 unirep1374 unirep1375 unirep1376 unirep1377 unirep1378 unirep1379 unirep1380 unirep1381 unirep1382 unirep1383 unirep1384 unirep1385 unirep1386 unirep1387 unirep1388 unirep1389 unirep1390 unirep1391 unirep1392 unirep1393 unirep1394 unirep1395 unirep1396 unirep1397 unirep1398 unirep1399 unirep1400 unirep1401 unirep1402 unirep1403 unirep1404 unirep1405 unirep1406 unirep1407 unirep1408 unirep1409 unirep1410 unirep1411 unirep1412 unirep1413 unirep1414 unirep1415 unirep1416 unirep1417 unirep1418 unirep1419 unirep1420 unirep1421 unirep1422 unirep1423 unirep1424 unirep1425 unirep1426 unirep1427 unirep1428 unirep1429 unirep1430 unirep1431 unirep1432 unirep1433 unirep1434 unirep1435 unirep1436 unirep1437 unirep1438 unirep1439 unirep1440 unirep1441 unirep1442 unirep1443 unirep1444 unirep1445 unirep1446 unirep1447 unirep1448 unirep1449 unirep1450 unirep1451 unirep1452 unirep1453 unirep1454 unirep1455 unirep1456 unirep1457 unirep1458 unirep1459 unirep1460 unirep1461 unirep1462 unirep1463 unirep1464 unirep1465 unirep1466 unirep1467 unirep1468 unirep1469 unirep1470 unirep1471 unirep1472 unirep1473 unirep1474 unirep1475 unirep1476 unirep1477 unirep1478 unirep1479 unirep1480 unirep1481 unirep1482 unirep1483 unirep1484 unirep1485 unirep1486 unirep1487 unirep1488 unirep1489 unirep1490 unirep1491 unirep1492 unirep1493 unirep1494 unirep1495 unirep1496 unirep1497 unirep1498 unirep1499 unirep1500 unirep1501 unirep1502 unirep1503 unirep1504 unirep1505 unirep1506 unirep1507 unirep1508 unirep1509 unirep1510 unirep1511 unirep1512 unirep1513 unirep1514 unirep1515 unirep1516 unirep1517 unirep1518 unirep1519 unirep1520 unirep1521 unirep1522 unirep1523 unirep1524 unirep1525 unirep1526 unirep1527 unirep1528 unirep1529 unirep1530 unirep1531 unirep1532 unirep1533 unirep1534 unirep1535 unirep1536 unirep1537 unirep1538 unirep1539 unirep1540 unirep1541 unirep1542 unirep1543 unirep1544 unirep1545 unirep1546 unirep1547 unirep1548 unirep1549 unirep1550 unirep1551 unirep1552 unirep1553 unirep1554 unirep1555 unirep1556 unirep1557 unirep1558 unirep1559 unirep1560 unirep1561 unirep1562 unirep1563 unirep1564 unirep1565 unirep1566 unirep1567 unirep1568 unirep1569 unirep1570 unirep1571 unirep1572 unirep1573 unirep1574 unirep1575 unirep1576 unirep1577 unirep1578 unirep1579 unirep1580 unirep1581 unirep1582 unirep1583 unirep1584 unirep1585 unirep1586 unirep1587 unirep1588 unirep1589 unirep1590 unirep1591 unirep1592 unirep1593 unirep1594 unirep1595 unirep1596 unirep1597 unirep1598 unirep1599 unirep1600 unirep1601 unirep1602 unirep1603 unirep1604 unirep1605 unirep1606 unirep1607 unirep1608 unirep1609 unirep1610 unirep1611 unirep1612 unirep1613 unirep1614 unirep1615 unirep1616 unirep1617 unirep1618 unirep1619 unirep1620 unirep1621 unirep1622 unirep1623 unirep1624 unirep1625 unirep1626 unirep1627 unirep1628 unirep1629 unirep1630 unirep1631 unirep1632 unirep1633 unirep1634 unirep1635 unirep1636 unirep1637 unirep1638 unirep1639 unirep1640 unirep1641 unirep1642 unirep1643 unirep1644 unirep1645 unirep1646 unirep1647 unirep1648 unirep1649 unirep1650 unirep1651 unirep1652 unirep1653 unirep1654 unirep1655 unirep1656 unirep1657 unirep1658 unirep1659 unirep1660 unirep1661 unirep1662 unirep1663 unirep1664 unirep1665 unirep1666 unirep1667 unirep1668 unirep1669 unirep1670 unirep1671 unirep1672 unirep1673 unirep1674 unirep1675 unirep1676 unirep1677 unirep1678 unirep1679 unirep1680 unirep1681 unirep1682 unirep1683 unirep1684 unirep1685 unirep1686 unirep1687 unirep1688 unirep1689 unirep1690 unirep1691 unirep1692 unirep1693 unirep1694 unirep1695 unirep1696 unirep1697 unirep1698 unirep1699 unirep1700 unirep1701 unirep1702 unirep1703 unirep1704 unirep1705 unirep1706 unirep1707 unirep1708 unirep1709 unirep1710 unirep1711 unirep1712 unirep1713 unirep1714 unirep1715 unirep1716 unirep1717 unirep1718 unirep1719 unirep1720 unirep1721 unirep1722 unirep1723 unirep1724 unirep1725 unirep1726 unirep1727 unirep1728 unirep1729 unirep1730 unirep1731 unirep1732 unirep1733 unirep1734 unirep1735 unirep1736 unirep1737 unirep1738 unirep1739 unirep1740 unirep1741 unirep1742 unirep1743 unirep1744 unirep1745 unirep1746 unirep1747 unirep1748 unirep1749 unirep1750 unirep1751 unirep1752 unirep1753 unirep1754 unirep1755 unirep1756 unirep1757 unirep1758 unirep1759 unirep1760 unirep1761 unirep1762 unirep1763 unirep1764 unirep1765 unirep1766 unirep1767 unirep1768 unirep1769 unirep1770 unirep1771 unirep1772 unirep1773 unirep1774 unirep1775 unirep1776 unirep1777 unirep1778 unirep1779 unirep1780 unirep1781 unirep1782 unirep1783 unirep1784 unirep1785 unirep1786 unirep1787 unirep1788 unirep1789 unirep1790 unirep1791 unirep1792 unirep1793 unirep1794 unirep1795 unirep1796 unirep1797 unirep1798 unirep1799 unirep1800 unirep1801 unirep1802 unirep1803 unirep1804 unirep1805 unirep1806 unirep1807 unirep1808 unirep1809 unirep1810 unirep1811 unirep1812 unirep1813 unirep1814 unirep1815 unirep1816 unirep1817 unirep1818 unirep1819 unirep1820 unirep1821 unirep1822 unirep1823 unirep1824 unirep1825 unirep1826 unirep1827 unirep1828 unirep1829 unirep1830 unirep1831 unirep1832 unirep1833 unirep1834 unirep1835 unirep1836 unirep1837 unirep1838 unirep1839 unirep1840 unirep1841 unirep1842 unirep1843 unirep1844 unirep1845 unirep1846 unirep1847 unirep1848 unirep1849 unirep1850 unirep1851 unirep1852 unirep1853 unirep1854 unirep1855 unirep1856 unirep1857 unirep1858 unirep1859 unirep1860 unirep1861 unirep1862 unirep1863 unirep1864 unirep1865 unirep1866 unirep1867 unirep1868 unirep1869 unirep1870 unirep1871 unirep1872 unirep1873 unirep1874 unirep1875 unirep1876 unirep1877 unirep1878 unirep1879 unirep1880 unirep1881 unirep1882 unirep1883 unirep1884 unirep1885 unirep1886 unirep1887 unirep1888 unirep1889 unirep1890 unirep1891 unirep1892 unirep1893 unirep1894 unirep1895 unirep1896 unirep1897 unirep1898 unirep1899
feature_infos=[0:0.72000002861022949] [0:0.75] [0:0.70886075496673584] [0:0.34000000357627869] [0:0.40000000596046448] [0:0.98750001192092896] [0:0.38461539149284357] [0:0.75] [0:0.71428573131561279] [0:0.57142859697341919] [0:0.63636362552642822] [0:0.75] [0:0.25] [0:0.5] [0:0.67857140302658081] [0:0.65217393636703491] [0:0.58928573131561279] [0:0.46153846383094788] [0:0.35294118523597717] [0:0.5] none [-1.2013677358627319:3.254352331161499] [-2.390247106552124:4.4861230850219727] [-4.3094816207885742:4.4500389099121094] [-2.2519974708557129:2.716902494430542] [-1.6464941501617432:3.2289900779724121] [-2.9052722454071045:3.1385245323181152] [-4.1605844497680664:2.4116969108581543] [-3.3315846920013428:3.7242891788482666] [-3.2034735679626465:1.8313794136047363] [-1.6518226861953735:3.4193496704101558] [-2.0676686763763428:2.117100715637207] [-2.5860481262207031:1.112093448638916] [-2.6157734394073486:3.358486652374268] [-5.0456314086914062:2.958049058914185] [-4.2039303779602051:2.1660225391387939] [-2.4143509864807129:1.4045124053955078] [-3.401464462280273:4.0338253974914551] [-1.986867427825928:1.0299208164215088] [-2.464564323425293:3.2468619346618648] [-2.827046155929565:1.8148741722106931] [2.0951483249664307:6.1086893081665039] [-1.5871345996856689:2.2851285934448242] [-2.270688533782959:3.1342308521270752] [-4.2492046356201172:4.1669530868530273] [-1.1551836729049685:1.6675405502319336] [-1.5804499387741089:4.1834325790405273] [-2.267329216003418:1.6202641725540159] [-1.9753597974777224:1.5800621509552002] [-3.0271320343017578:3.4044044017791748] [-3.4197454452514648:2.3137438297271729] [-3.4856452941894531:4.0931282043457031] [-1.4514164924621582:2.7963297367095947] [-4.3230466842651367:2.7856042385101318] [-3.1696407794952397:2.3314011096954346] [-3.2553551197052002:3.2559390068054199] [-1.8271664381027224:4.0545663833618164] [-2.3137035369873047:2.2045104503631592] [-3.3085331916809082:4.2625298500061044] [-2.7214264869689941:2.8101968765258789] [-3.5013797283172607:2.2226834297180176] [-3.2535285949707031:2.5938756465911865] [-2.6769111156463623:2.8265554904937744] [-2.2631709575653081:1.7920862436294556] [-1.1622503995895386:2.4974899291992188] [-2.9772117137908936:4.1686687469482422] [-4.2371082305908203:2.9594554901123047] [-0.094733290374278994:4.7710676193237305] [-2.6465277671813965:3.2831516265869141] [-3.8302526473999023:3.2777752876281738] [-3.4198596477508545:3.1095850467681885] [-3.6914458274841309:2.5020344257354736] [-2.9340660572052002:1.9826947450637815] [-2.4635565280914307:2.502692699432373] [-1.569541335105896:2.8752481937408447] [-2.2117547988891602:2.2169370651245122] [-3.7343354225158691:4.4218649864196777] [-1.2007714509963989:1.6537719964981079] [-1.3731100559234619:1.8664282560348511] [-3.242517232894897:3.820986270904541] [-1.4926031827926636:3.0903520584106445] [-1.9662611484527588:2.8079991340637207] [-3.0195877552032471:2.9021689891815186] [-3.6576917171478271:3.7668817043304439] [-1.9599531888961792:3.04427170753479] [-1.5770163536071775:1.403528094291687] [-4.5895347595214844:4.238461971282959] [-2.8088493347167969:2.2587966918945312] [-2.596205472946167:1.5086276531219482] [-1.3536984920501709:2.1808953285217285] [-2.143092155456543:0.1862385421991348] [-2.303349494934082:4.3841381072998047] [-3.2336246967315674:3.4548130035400391] [-2.3955981731414795:1.1005921363830566] [-3.955532550811768:4.1872396469116211] [-1.105581521987915:1.5458557605743408] [-1.915582060813904:2.4161410331726074] [-3.2768528461456299:4.1798496246337891] [-3.1980242729187012:3.2230737209320068] [-2.8842661380767822:3.5112900733947754] [-3.6972808837890634:3.364081859588623] [-3.3926777839660645:3.4561173915863042] [-2.5328795909881592:2.9235453605651851] [-2.040302038192749:0.85891854763031006] [-2.0542418956756592:2.4812676906585693] [-4.1607241630554199:3.1790502071380611] [-2.9252865314483643:3.4278335571289062] [1.9795322418212891:6.1840982437133789] [-4.2420763969421387:2.978346586227417] [-3.467403650283813:5.2664055824279785] [-3.038733959197998:1.4895781278610229] [-5.0215177536010742:4.040888786315918] [-3.6366856098175049:1.7637957334518433] [-1.3504531383514404:2.7723500728607178] [-1.5374007225036621:1.6991420984268188] [-3.5366568565368648:2.8507888317108154] [-3.2642567157745361:1.7816609144210815] [-0.76469820737838745:1.3021030426025391] [-1.2463637590408323:2.6029958724975586] [-1.6041760444641111:3.0918500423431401] [-4.2814130783081055:3.9325408935546879] [-0.2072923481464386:0.1581090241670608] [-0.46541997790336609:0.39507794380187988] [-0.081066459417343098:0.47100821137428278] [-0.1128405556082725:0.099336750805377905] [-0.60595566034317017:0.32621628046035761] [-0.14156453311443329:0.40903076529502869] [-0.87504714727401733:0.21068271994590759] [-0.45331880450248718:0.188129112124443] [-0.1175132691860199:0.0041446434333920002] [-0.0615721195936203:0.66292673349380493] [-0.69315266609191895:0.7572624683380127] [-0.1430277675390243:0.12903758883476249] [-0.35855662822723389:0.35003566741943359] [-0.56554573774337769:0.82515567541122437] [-0.045377805829048101:0.10623820871114729] [-0.036533422768115997:0.0819528847932815] [8.2717444456648082e-05:0.19882889091968531] [-0.3729436993598938:0.13689619302749631] [-0.73093611001968384:0.47790622711181641] [-0.26187321543693542:0.039478562772274003] [-0.39156064391136169:0.061358366161584799] [-0.40906074643135071:0.37836840748786921] [-0.16821768879890439:0.42899364233016968] [-0.56847411394119263:0.25021272897720331] [-0.49575158953666681:0.203969195485115] [-0.50964564085006714:0.32301375269889832] [-0.2120897769927978:0.3431972861289978] [-0.076650552451610496:0.21371392905712119] [-0.24617968499660489:0.36406189203262329] [-0.30778488516807551:0.075435034930705996] [-0.4426280260086059:-0.017082436010241502] [-0.58611893653869629:0.43022572994232178] [-0.16934187710285181:0.23536606132984161] [-0.35713991522789001:0.74310898780822754] [-0.15425325930118561:0.22018133103847501] [-0.2100674510002136:0.28265306353569031] [-0.27200925350189209:0.30762985348701471] [-0.40820690989494318:0.3845040500164032] [-0.32117697596549988:0.62360692024230957] [-0.13573245704174039:0.186690554022789] [-0.2333520501852035:0.27020964026451111] [-0.28097647428512568:0.32812422513961792] [-0.43469956517219538:0.4708380401134491] [-0.1183100491762161:-0.0138455899432301] [-0.33378943800926208:0.37738671898841858] [-0.45831206440925598:0.38395673036575317] [-0.29111501574516291:0.60333943367004395] [-0.22850383818149561:0.62884336709976196] [-0.0066147665493190002:0.34063190221786499] [-0.1265760660171508:0.17925168573856351] [-0.090017803013324696:0.425822913646698] [-0.25820121169090271:0.2072608470916748] [-0.1359829753637313:0.1783827543258667] [-0.15315689146518699:0.1064231395721435] [-0.30038028955459589:0.13779693841934201] [-0.55223411321640015:0.49094974994659418] [-0.24996349215507499:0.72386014461517334] [-0.32077246904373169:0.2342653274536132] [-0.24424278736114499:0.50931620597839355] [-0.2394313961267471:0.63008952140808105] [-0.041463494300842202:0.21059504151344299] [-0.3805064857006073:0.28720194101333618] [-0.44162079691886902:0.48338693380355829] [-0.23169291019439689:0.22746266424655909] [0.18819023668766019:0.92082399129867565] [-0.23751536011695859:0.051324054598808198] [-0.085836313664913094:0.31682738661766052] [-0.24583110213279721:0.17787033319473261] [-0.58802735805511475:0.49577143788337708] [-0.28057515621185303:0.34935948252677917] [-0.14109477400779721:0.060523323714733103] [-0.35493522882461548:0.1417467445135116] [-0.72919338941574097:0.49608677625656128] [0.0051038851961492998:0.25971642136573792] [-0.30976387858390808:0.42474257946014399] [-0.33523625135421747:0.2269773334264755] [-0.37117424607276911:0.26085558533668518] [-0.2570695281028747:0.44606339931488032] [-0.2359064519405365:0.48032298684120178] [-0.2475188672542572:0.43400934338569641] [-0.1054122149944305:0.44082632660865778] [-0.68470883369445801:0.39008736610412598] [-0.28217017650604248:0.43280339241027832] [-0.35198467969894409:0.27791810035705561] [-0.40679049491882319:0.68838131427764893] [-0.4182628989219665:0.43133619427680969] [-0.13060422241687769:0.44831675291061401] [-0.48801472783088679:0.2321934700012207] [-0.62357991933822632:0.86217069625854492] [-0.20857904851436609:0.36037257313728333] [-0.63173305988311768:0.14808407425880429] [-0.76882517337799072:0.1402219086885452] [-0.097883410751819597:0.13290144503116599] [-0.21301154792308799:0.61874759197235107] [-0.45046213269233698:0.53573286533355713] [-0.15716177225112909:0.36987471580505371] [-0.11927330493927001:0.26309609413146973] [-0.049873746931552797:0.087466269731521606] [-0.39793685078620911:0.66066902875900269] [0.0110612707212567:0.30567273497581482] [0.0094338916242122008:0.1060631275177002] [-0.56136953830718994:0.29084745049476618] [-0.25896906852722168:0.24311569333076469] [-0.1454409658908844:0.077110208570957101] [-0.23390962183475489:0.14238445460796351] [-0.48716458678245539:0.70462507009506226] [-0.27450942993164062:0.30570471286773682] [-0.52897787094116211:0.066318452358245794] [-0.50684505701065063:0.32795685529708862] [-0.28380969166755671:0.38098049163818359] [-0.90514779090881359:0.016835577785968701] [-0.075223632156848894:0.25332969427108759] [-0.042785074561834301:0.044213432818651199] [-0.097590111196041093:0.14992277324199671] [-0.16887748241424561:0.35992500185966492] [-0.41689616441726679:0.42695480585098261] [-0.39617270231246948:0.16779360175132749] [-0.1075939908623695:0.33629328012466431] [-0.19504685699939719:0.4759850800037384] [-0.030449902638792901:0.2151810079813003] [-0.2088158428668975:0.33181920647621149] [-0.60765880346298218:0.29390630125999451] [-0.62055301666259766:0.43237736821174622] [-0.27704882621765131:0.88282626867294312] [-0.45127502083778381:0.27168291807174683] [-0.079296976327896104:0.1139880642294883] [-0.30412721633911127:0.2653479278087616] [-0.48757821321487421:0.18216325342655179] [-0.30854260921478271:0.29366186261177057] [-0.53996807336807251:0.8207244873046875] [-0.1506101042032241:0.23233795166015619] [-0.24798807501792899:0.34616360068321228] [-0.49701008200645441:0.60620021820068359] [0.0055650020949542002:0.1061044409871101] [-0.64645665884017944:0.524505615234375] [-0.46896412968635559:0.2467817068099975] [-0.34576833248138428:0.1861222833395004] [-0.3126115202903747:-0.0062027280218898998] [-0.3617879450321197:0.4605776965618133] [-0.19742392003536219:0.25314000248908991] [-0.50795477628707886:0.12138763070106499] [-0.45769372582435608:0.7012748122215271] [-0.35231360793113708:0.3620096743106842] [-0.49610203504562378:0.51411813497543335] [-0.030416388064622799:0.1820986270904541] [-0.18225975334644309:0.50852334499359131] [-0.22793677449226379:0.65813952684402466] [-0.32546162605285639:0.2206082195043563] [-0.2767815887928009:0.76752203702926636] [0.012579229660332199:0.38129273056983948] [-0.65718561410903931:0.44514977931976318] [-0.096340760588645893:0.8886142373085022] [-0.27523961663246149:0.3958886563777923] [-0.40639159083366388:0.28896638751029968] [-0.12830533087253571:0.29168295860290527] [-0.075016401708125999:0.1172158494591713] [-0.39171916246414179:0.36033898591995239] [-0.33263266086578369:0.50128525495529175] [-0.54615050554275513:0.52890855073928833] [-0.19463832676410669:0.31745246052741999] [-0.51336610317230225:0.74161547422409058] [-0.29629725217819208:0.42278227210044861] [-0.18851587176322929:0.16523586213588709] [-0.56373333930969238:0.3662065863609314] [-0.3708183765411377:0.17416349053382871] [-0.40059110522270203:0.22238843142986289] [-0.4793077409267425:0.1009728088974952] [-0.26927363872528071:0.19467711448669431] [-0.40333211421966553:0.4007145464420318] [-0.36811348795890808:0.38430178165435791] [-0.42607191205024719:0.43765267729759211] [-0.45787778496742249:0.3556122481822967] [-0.1479553133249282:0.21154315769672391] [-0.23259583115577689:0.2187998294830322] [-0.16258884966373441:0.5555579662322998] [-0.20322363078594199:0.39132645726203918] [-0.65479892492294312:0.0995209366083145] [-0.36845305562019348:0.55755525827407837] [-0.63563412427902222:0.61707305908203125] [-0.2237936407327652:0.44145661592483521] [-0.40154322981834412:0.37676474452018738] [-0.35040232539176941:0.4221739768981933] [-0.059175301343202501:0.1248862072825431] [-0.093706518411636297:0.20688758790493009] [-0.2412904947996139:0.53792107105255127] [-0.29050728678703308:0.27724197506904602] [-0.270091563463211:0.35262197256088251] [-0.0081042749807238006:0.097483322024345398] [-0.093660712242126395:0.29938516020774841] [-0.87006998062133789:-0.019926320761442101] [-0.31166842579841608:0.46669965982437128] [-0.39427924156188959:0.5433880090713501] [-0.30426076054573059:0.61697304248809814] [-0.69185853004455566:0.203389286994934] [-0.39343872666358948:0.32786324620246882] [-0.52133864164352417:0.59006530046463013] [-0.37810122966766357:0.078980468213558197] [-0.34855860471725458:0.79037183523178101] [-0.58378905057907104:0.68011975288391113] [-0.2452813386917114:0.3858909010887146] [-0.42141532897949219:0.43365833163261408] [-0.16464930772781369:0.42683073878288269] [-0.50128179788589478:0.1574884802103042] [-0.55317282676696777:0.88596457242965698] [-0.089967779815196894:0.37282970547676081] [-0.32634580135345459:0.32000470161437988] [-0.80141711235046387:0.70196658372879028] [-0.45883941650390619:0.46601399779319758] [-0.044803991913795402:0.16251017153263089] [-0.29439792037010187:0.42596915364265442] [-0.17819793522357941:0.49312230944633478] [0.0029473798349499:0.25582787394523621] [-0.21103256940841669:0.3141807615756988] [-0.27554655075073242:0.31558579206466669] [-0.21053431928157801:0.45284745097160339] [-0.4736887514591217:0.70371431112289429] [-0.27447706460952759:0.5710453987121582] [-0.3907646238803863:0.47449514269828791] [-0.75484359264373779:0.32297903299331659] [-0.32190367579460138:0.77878421545028687] [-0.19289737939834589:0.45919814705848688] [-0.43403777480125427:0.21902225911617279] [-0.1522183269262313:0.1580966562032699] [-0.58138811588287354:0.72665494680404663] [-0.3030163049697876:0.2013060599565506] [-0.32840347290039062:0.47840049862861628] [-0.47300353646278381:0.35000917315483088] [-0.70693010091781616:0.0209477748721838] [-0.3483206033706665:0.37327688932418818] [-0.36937025189399719:0.47232237458229059] [-0.50302213430404663:0.23603013157844541] [-0.4230800569057464:0.54883486032485962] [-0.26162955164909357:0.35098996758460999] [-0.23428972065448761:0.71621257066726685] [-0.2702390849590301:0.35765448212623591] [-0.55333667993545532:0.38818672299385071] [-0.17947830259799949:0.33275806903839111] [-0.46331626176834101:0.50983500480651855] [-0.24514941871166229:0.46448048949241638] [-0.35531660914421082:0.30337890982627869] [-0.30676990747451782:0.3285728394985199] [-0.58451384305953979:0.83922988176345825] [-0.081248156726360293:0.32747942209243769] [-0.38425743579864502:0.32992377877235413] [-0.47893711924552917:0.4103651344776153] [-0.14004425704479209:0.39583662152290339] [-0.53715169429779053:0.1975242346525192] [-0.4359646737575531:0.43662235140800471] [-0.035710036754608099:0.25813585519790649] [-0.2934116125106811:0.42641213536262512] [-0.28194707632064819:0.23561020195484161] [-0.311139166355133:0.1485574394464492] [-0.64369529485702515:0.082803919911384499] [-0.46656158566474909:0.54207015037536621] [-0.2841250598430633:0.46462413668632507] [-0.099858880043029702:0.1647663861513137] [-0.0014145392924547:0.45930817723274231] [-0.46660909056663508:0.3119102418422699] [-0.090991251170635196:0.16518053412437439] [-0.053828295320272397:0.1096724197268486] [-0.58204758167266846:0.66441589593887329] [-0.38091656565666199:0.43519321084022522] [-0.71786123514175415:0.64197206497192383] [-0.31047737598419189:0.52567809820175171] [-0.099851183593273093:0.085410706698894501] [-0.16005143523216239:0.42669218778610229] [-0.16369408369064331:0.55592018365859985] [-0.51647078990936279:0.57197040319442749] [-0.54340016841888428:0.1747231632471084] [-0.70708227157592773:0.75162190198898315] [-0.57869648933410645:0.1348017156124115] [-0.1529567539691925:0.3376430869102478] [-0.0527832843363285:0.1458480358123779] [-0.14875838160514829:0.15181729197502131] [-0.69600731134414673:0.86950051784515381] [-0.23695822060108179:0.38206800818443298] [-0.0987238809466362:0.26965534687042231] [-0.049804396927356699:0.14757169783115379] [-0.40525063872337341:0.26163709163665771] [-0.34244364500045771:0.69805294275283813] [-0.1594674289226532:0.35115024447441101] [-0.1249796897172927:0.73801690340042114] [-0.46989095211029053:0.2309748083353042] [-0.1728536784648895:0.25918087363243097] [-0.19344550371170041:0.1070379242300987] [-0.3919995129108429:0.30566373467445368] [-0.26367285847663879:0.22377410531044001] [-0.058249831199645899:0.00076670415000990001] [-0.32659989595413208:0.63836312294006348] [-0.37138646841049189:0.6825481653213501] [-0.178362026810646:0.56130033731460571] [-0.59240251779556274:0.23110528290271759] [-0.58739227056503296:0.18334755301475519] [-0.30100280046463013:0.3709206879138946] [-0.18593853712081909:0.073239766061306] [-0.17175404727458951:0.40906691551208491] [-0.0106741292402148:0.2142463475465774] [-0.61440420150756836:0.52262210845947266] [-0.2007949501276016:0.65462779998779297] [-0.33699584007263178:0.1430402845144271] [-0.017414156347513199:0.089227035641670199] [-0.072909809648990603:0.75887006521224976] [-0.4740204513072967:0.20272192358970639] [-0.076301135122776004:0.10208322107791901] [-0.29028809070587158:0.82993412017822266] [-0.20165252685546869:0.20977671444416041] [-0.49775490164756769:0.44084525108337402] [-0.46172389388084412:0.54794913530349731] [-0.8102344274520874:0.4021141529083252] [-0.25773370265960688:0.4845043420791626] [-0.3402245938777923:0.4701005220413208] [-0.52793395519256592:0.3750049471855163] [-0.65198582410812378:0.43568044900894159] [-0.12857130169868469:0.26505991816520691] [0.047789748758077601:0.86265718936920166] [-0.64906662702560425:0.135539636015892] [-0.40679645538330078:0.53586149215698242] [-0.65286469459533691:0.45905366539955139] [-0.3049716055393219:0.33304888010025019] [-0.28550213575363159:0.2792605459690094] [-0.58671307563781738:0.57611829042434692] [-0.24377526342868799:0.13221149146556849] [-0.45722982287406921:0.54279273748397827] [0.0089398743584751996:0.3748799860477447] [-0.14527742564678189:0.31896102428436279] [-0.089676849544048295:0.37722745537757868] [-0.2190485745668411:0.19377636909484861] [-0.19007356464862821:0.42428809404373169] [-0.48268681764602661:0.54176944494247437] [-0.40159741044044489:0.36530053615570068] [-0.42828992009162897:0.47619417309761047] [-0.2335131019353866:0.3134591281414032] [-0.4002530574798584:0.28512606024742121] [-0.25617104768753052:0.46291539072990417] [-0.44447222352027888:0.47493594884872431] [-0.91784805059432983:0.6172034740447998] [-0.56942057609558105:0.49467584490776062] [-0.14072515070438379:0.20311787724494931] [-0.1130729243159294:0.29722028970718378] [-0.41761833429336548:0.43292942643165588] [-0.3528124988079071:0.57568508386611938] [-0.43096238374710077:0.65983802080154419] [-0.26094433665275568:0.29999497532844538] [-0.6423066258430481:0.55972129106521606] [-0.37527066469192499:0.056263305246829903] [-0.42579391598701471:0.3325219452381134] [-0.1144754737615585:0.23996518552303309] [-0.30407080054283142:0.37073710560798639] [-0.65980416536331177:0.53437983989715576] [-0.57848632335662842:0.60332399606704712] [-0.63687407970428467:0.0168746691197156] [-0.4956876933574676:0.35739710927009583] [-0.024115031585097299:0.028736956417560501] [-0.1938696205615997:0.487028568983078] [-0.16649895906448359:0.21434639394283289] [-0.030894203111529302:0.22667777538299561] [-0.48902329802513123:0.1016930863261222] [-0.20886911451816559:0.8133467435836792] [-0.704917311668396:0.78473597764968872] [-0.28216958045959473:0.27784451842308039] [-0.2475663423538208:0.57905572652816772] [-0.28159943222999573:0.42708680033683771] [-0.12902466952800751:0.35548499226570129] [-0.0140220476314425:0.12012239545583719] [-0.28119122982025141:0.33107584714889521] [-0.1414945572614669:0.29858416318893433] [-0.33245179057121271:0.44165179133415222] [-0.38006827235221857:0.70868295431137085] [-0.61584407091140747:0.38874289393424988] [-0.15853980183601379:0.47512993216514587] [-0.29166743159294128:0.3176398873329162] [-0.34823334217071528:0.38021552562713617] [-0.34868538379669189:0.33895444869995112] [-0.48348915576934809:0.056068386882543501] [-0.2413061261177063:0.71292829513549805] [-0.2356985658407211:0.35127764940261841] [-0.58086580038070679:0.46348443627357477] [-0.29993432760238647:0.71339136362075806] [-0.32320788502693171:0.50121289491653442] [-0.22283893823623649:0.4529637992382049] [-0.27896285057067871:0.48634237051010132] [-0.21250535547733301:0.2811109721660614] [-0.69479924440383911:0.68366730213165283] [-0.091893792152404702:0.14210112392902369] [-0.32218897342681879:0.31443122029304499] [-0.76381850242614746:0.1631419211626052] [-0.72728252410888672:0.80489945411682129] [-0.3959386944770813:0.32562881708145142] [-0.61919099092483521:0.28444582223892212] [-0.0116973640397191:0.31692662835121149] [-0.61520171165466309:0.66836947202682495] [-0.1588681489229202:0.53067803382873535] [-0.58593881130218506:0.30671623349189758] [-0.43078470230102539:0.40071374177932739] [-0.53786104917526245:0.40736174583435059] [-0.3174102902412414:0.4434616863727569] [0.0029551975894718998:0.3311057984828949] [-0.29182466864585871:0.55703330039978027] [-0.71873646974563599:0.52871137857437134] [-0.15625880658626551:0.40560111403465271] [-0.2104926109313964:0.25124156475067139] [-0.23086562752723691:0.65483367443084717] [-0.33487692475318909:0.31313601136207581] [-0.49477860331535339:0.49909639358520508] [-0.31037968397140497:0.48944371938705439] [-0.027625691145658399:0.081047169864177704] [-0.47539022564888:0.48000001907348627] [-0.0027119419537484:0.42597252130508417] [-0.041168134659528698:0.1623621582984924] [-0.44659221172332758:0.53484839200973511] [-0.1752855032682418:0.13648642599582669] [-0.047367449849843903:-0.0020877965725958] [-0.16618159413337699:0.82301253080368042] [-0.0046890405938029003:0.1031247451901435] [-0.2644024789333343:0.1707124263048172] [-0.40029063820838928:0.64111638069152832] [-0.29048323631286621:0.498494952917099] [-0.31241384148597717:0.42457345128059382] [-0.34243309497833252:0.34374281764030451] [-0.086863778531551306:0.12243267148733129] [-0.55290526151657104:0.27162104845046992] [-0.52413105964660645:0.59358793497085571] [-0.34221631288528442:0.57638126611709595] [-0.3235048353672027:0.65565508604049683] [-0.32014322280883789:0.44688338041305542] [-0.46578621864318848:0.60588663816452026] [-0.39366459846496582:0.23273865878582001] [-0.0118028242141008:0.083593860268592807] [-0.29107800126075739:0.47418311238288879] [-0.37666803598403931:0.40738365054130549] [-0.1841656416654586:0.32468110322952271] [-0.20398999750614161:0.2398151606321334] [0.010820992290973599:0.23710143566131589] [-0.3261873722076416:0.16548717021942139] [-0.082567051053047097:0.112479530274868] [-0.2980827391147613:0.14148823916912079] [-0.31597176194190979:0.17074677348136899] [-0.27798795700073242:0.45769205689430231] [-0.3409028947353363:0.80876779556274414] [-0.1250384449958801:0.098920904099941198] [-0.38004246354103088:0.45609992742538452] [-0.14387974143028259:0.14733152091503141] [-0.32824990153312678:0.22265450656414029] [-0.29236388206481928:0.31376096606254578] [-0.31094706058502197:0.1042349338531494] [-0.45425277948379511:0.37274965643882751] [0.048452269285917199:0.97045892477035522] [-0.73190027475357056:0.45635399222373962] [-0.2633633017539978:0.16911435127258301] [-0.69685232639312744:0.77908766269683838] [-0.1919280737638473:0.62642741203308105] [-0.041743747889995499:0.082041189074516296] [-0.87597256898880005:0.45725917816162109] [-0.3402115106582641:0.31165230274200439] [-0.31373444199562073:0.34733840823173517] [-0.2419981062412262:0.28987130522727961] [-0.097197927534580203:0.37563627958297729] [-0.085410930216312395:0.23049585521221161] [-0.1533953994512558:0.23934496939182279] [-0.17715109884738919:0.23377732932567591] [-0.038483899086713701:0.081473372876644107] [-0.24803817272186279:0.45291909575462341] [-0.51650094985961914:0.3962580263614654] [-0.60028523206710815:0.39183267951011658] [-0.28969907760620112:0.45336398482322687] [-0.42137682437896729:0.30449104309082031] [-0.034334883093833903:0.41972213983535761] [-0.76342761516571045:0.66201144456863403] [-0.2339769154787063:0.1651709973812103] [-0.44250190258026117:0.4016384482383728] [-0.1182872727513313:0.134836345911026] [-0.45508742332458491:0.098736591637134496] [-0.44257131218910217:0.28180867433547968] [-0.1921112388372421:0.33705699443817139] [-0.40217876434326172:0.66605430841445923] [-0.2023013681173324:0.259532481431961] [-0.077417038381099701:0.22363217175006861] [-0.017015805467963201:0.36319196224212641] [-0.2709328830242157:0.46367263793945312] [-0.33659642934799189:0.098383106291294098] [-0.4643179178237915:0.47017392516136169] [-0.15646606683731079:-0.019125977531075401] [-0.66288954019546509:0.23863047361373901] [-0.18058875203132629:0.48874330520629877] [-0.80535042285919189:0.047614809125661801] [-0.1314372718334198:0.3614226877689361] [-0.11807678639888761:0.10485225915908809] [-0.1113307252526283:0.22049497067928309] [-0.46242991089820862:0.26438888907432551] [-0.068620957434177399:0.6781151294708252] [-0.56101143360137939:0.4056951105594635] [-0.36875322461128229:0.36043715476989741] [-0.38824936747550959:0.44342219829559321] [-0.40533584356307978:0.2992847859859466] [-0.67678827047348022:0.65277856588363647] [-0.43471378087997431:0.30169007182121271] [-0.091671936213970101:0.42751023173332209] [-0.30071797966957092:0.55176281929016113] [-0.36906281113624573:0.083793506026268005] [-0.54462790489196777:0.63540393114089966] [0.047934439033269799:0.43739384412765497] [-0.3047890961170196:0.27754178643226618] [-0.445147305727005:0.43903571367263788] [-0.80133736133575439:0.7542693018913269] [-0.22523288428783411:0.34208789467811579] [-0.33670935034751892:0.44421365857124329] [-0.81166309118270874:0.29371252655982971] [-0.33917012810707092:0.2756525576114654] [-0.1812073737382888:0.13762611150741569] [-0.48474565148353571:0.91258150339126598] [-0.3298670351505279:0.3665125966072082] [-0.34131255745887751:0.1876035928726196] [-0.42825660109519958:0.38126793503761292] [-0.002913616830483:0.29960471391677851] [-0.19080258905887601:0.0013191270409151001] [-0.18149463832378379:0.84667485952377319] [-0.32398033142089838:0.43555104732513428] [-0.63159090280532837:0.713725745677948] [-0.1402522921562194:0.10353810340166091] [-0.26550516486167908:0.43506896495819092] [-0.7393944263458252:0.67269772291183472] [-0.5206114649772644:0.45563587546348572] [-0.41994476318359369:0.11472631990909569] [-0.44838094711303711:0.46231347322463989] [-0.2744701206684112:0.38990074396133417] [-0.53435671329498291:0.37034314870834351] [-0.66097551584243774:0.62043023109436035] [-0.20451180636882779:0.11462400853633881] [-0.84039324522018433:-0.026908921077847401] [-0.69618731737136841:0.088465221226215293] [-0.24441945552825919:0.222005695104599] [-0.30583533644676208:0.31907626986503601] [-0.50002628564834595:0.023652268573641701] [-0.18946428596973419:0.40139758586883539] [-0.47932949662208552:0.37188124656677241] [-0.68737202882766724:0.2459155917167663] [-0.22151772677898399:0.25900891423225397] [-0.1209135130047798:0.16163326799869529] [-0.36824092268943781:0.30335643887519831] [-0.3439588844776153:0.46154314279556269] [0.0104298023506999:0.1171290352940559] [-0.68996918201446533:0.3744996190071106] [-0.55528420209884644:0.28025990724563599] [-0.23659515380859369:0.62333434820175171] [-0.78397274017333984:0.3423348069190979] [-0.43046429753303528:0.84993839263916016] [-0.67510968446731567:0.44235500693321228] [-0.46840021014213562:0.018131248652935] [-0.2502102255821228:0.42510712146759028] [-0.21261827647685999:0.063323751091956995] [-0.38503304123878479:0.016855830326676299] [-0.11528965830802911:0.62691915035247803] [-0.48910653591156:0.44001686573028559] [-0.23962931334972379:0.27142256498336792] [0.029424505308270399:0.82788419723510742] [-0.40540766716003418:0.32209387421607971] [-0.33321037888526911:0.60209375619888306] [-0.72885233163833618:0.42590835690498352] [-0.29091963171958918:0.49824917316436768] [-0.20374052226543421:0.29892617464065552] [-0.20107454061508179:0.53628730773925781] [-0.2013406306505203:0.61888116598129272] [-0.89889985322952271:0.47968742251396179] [-0.19754859805107111:0.60363125801086426] [-0.25489634275436401:0.27058717608451838] [-0.5643230676651001:0.85723429918289185] [-0.0209401566535234:0.0044128187000751001] [-0.38516858220100397:0.59712374210357666] [-0.44408109784126282:0.42028918862342829] [-0.37910830974578857:0.30243679881095881] [-0.55775940418243408:0.48907911777496338] [-0.6320222020149231:0.063441239297389901] [-0.18232528865337369:0.26245021820068359] [-0.304111897945404:0.24524487555027] [-0.2122063338756561:0.57204699516296387] [-0.47320282459259028:0.50264763832092285] [-0.44621142745018:0.41225641965866089] [-0.019469073042273501:0.3987895250320434] [-0.49253320693969721:0.34542366862297058] [-0.091116443276405307:0.53542578220367432] [-0.18818801641464231:0.27843371033668518] [-0.073085173964500399:0.72466909885406494] [-0.152456134557724:0.49894028902053827] [-0.22350257635116569:0.1937679797410965] [-0.1053720489144325:0.13570705056190491] [-0.27673941850662231:0.50958991050720215] [0.010295432060956899:0.64471602439880371] [-0.2024929523468017:0.88546103239059448] [-0.41536310315132141:0.31015455722808838] [-0.16255263984203339:0.58937036991119385] [-0.31847023963928223:0.1920323371887207] [-0.59165674448013306:0.49764138460159302] [-0.34314179420471191:0.43687108159065241] [-0.35766187310218811:0.3985911607742309] [-0.4857211709022522:0.2370217889547348] [-0.24019496142864219:0.74966377019882202] [-0.19222134351730341:0.68242645263671875] [-0.60351794958114624:0.36301884055137629] [-0.40998226404190058:0.30340096354484558] [-0.2231245934963226:0.089995175600051797] [-0.42282995581626892:0.4408901035785675] [-0.37363550066947931:0.16648982465267179] [-0.1041298508644104:0.3376038670539856] [-0.31449472904205322:0.5141226053237915] [-0.19024325907230369:0.29727932810783381] [-0.21283569931983939:0.31777986884117121] [-0.48723798990249628:0.40824294090270991] [-0.3289999365806579:0.5396263599395752] [-0.2237250208854675:0.33596295118331909] [-0.59387469291687012:0.87850219011306763] [-0.2372418791055679:0.49769163131713862] [-0.65867936611175537:0.6475180983543396] [-0.56433165073394775:0.22620484232902521] [-0.29670417308807367:0.2949776947498321] [-0.1640142947435379:0.66692489385604858] [-0.21687644720077509:0.59829652309417725] [-0.2233965247869491:0.79092180728912354] [-0.0526021905243396:0.1202969998121261] [-0.65684974193572998:0.44871455430984492] [-0.29510113596916199:0.067243374884128501] [-0.36239117383956909:0.056415975093841497] [-0.45640617609024048:0.85638618469238281] [-0.1975021809339523:0.62913227081298828] [-0.52929782867431641:0.63994097709655762] [-0.47313040494918818:0.72850131988525391] [-0.19930709898471829:0.11691507697105399] [-0.4496128261089325:0.4386454820632934] [-0.1099025979638099:0.55899333953857422] [-0.43509981036186218:0.74542355537414551] [-0.41232520341873169:0.40285253524780268] [-0.0070132394321262004:0.29603785276412958] [-0.4092448353767395:0.42381691932678223] [-0.35694050788879389:0.36228498816490168] [-0.43788436055183411:0.4628812968730926] [-0.2171061038970947:0.33473101258277888] [-0.40696260333061218:0.3675273060798645] [-0.53732210397720337:0.1001450717449188] [-0.37996184825897211:0.19659632444381711] [-0.34978100657463068:0.4419997632503509] [-0.7205359935760498:0.67686736583709717] [-0.61433827877044678:0.34940052032470698] [-0.29775971174240112:0.3466771245002746] [-0.4777016937732696:0.36073455214500427] [-0.64285117387771606:0.4890647828578949] [-0.43296468257904053:0.33561146259307861] [-0.33983585238456721:0.4323029220104217] [-0.39730367064476008:0.6136595606803894] [-0.0040498501621185996:0.1501653045415878] [-0.48055866360664368:0.4926538467407226] [-0.4266484379768371:0.4139645099639892] [-0.25640097260475159:0.57450276613235474] [-0.72564256191253662:0.51067769527435303] [-0.0021376088261604001:0.25095599889755249] [-0.1212998703122139:0.036595553159713697] [-0.073763541877269703:0.25658616423606873] [-0.72348910570144653:0.1520373672246933] [-0.22696264088153839:0.29961109161376948] [-0.042689912021160098:0.094253249466419206] [-0.3080858588218689:0.24584022164344779] [-0.51653963327407837:0.44436082243919373] [-0.67178124189376831:0.27209165692329401] [-0.53799575567245483:0.47029975056648249] [-0.35879036784172058:0.28268015384674072] [-0.50425887107849121:0.46818745136260981] [-0.25419777631759638:0.46153807640075678] [0.0042211548425256998:0.1246405094861984] [-0.20877572894096369:0.011974161490797899] [-0.25565609335899347:0.4340587854385376] [-0.2013804167509079:-0.0097226174548268006] [-0.19881570339202881:0.33787381649017328] [-0.20310370624065399:0.41205435991287231] [-0.25346383452415461:0.1505360454320907] [-0.49752938747406:0.1006271913647651] [0.008502529002726:0.38804304599761957] [-0.46295651793479919:0.14989191293716431] [-0.093880608677864005:0.026441697031259499] [-0.45133957266807551:0.25868064165115351] [-0.13140898942947379:0.10408268123865121] [-0.57606464624404907:0.50267380475997925] [-0.14485780894756309:0.0030045993626116999] [-0.43924593925476069:0.2398858517408371] [-0.34180733561515808:0.35196623206138611] [-0.0216600708663463:0.1628110408782959] [-0.57876873016357422:0.67415136098861694] [0.057250395417213398:0.68631988763809204] [-0.63205987215042114:0.64258378744125366] [-0.35511928796768188:0.59782928228378296] [-0.3674793541431427:0.42380976676940918] [-0.3914594948291778:0.57406383752822876] [-0.74770605564117432:0.53383666276931763] [-0.227315068244934:0.18165698647499079] [-0.77041608095169067:0.31158962845802302] [-0.24546690285205841:0.40824523568153381] [-0.37102314829826349:0.75024574995040894] [-0.93872314691543579:-0.075401104986667605] [-0.3687149286270141:0.31678766012191772] [-0.1843403279781341:0.51514440774917603] [-0.27120965719223022:0.090795986354351002] [-0.4114240407943725:0.024193422868847798] [-0.62014168500900269:0.68346887826919556] [-0.60820066928863525:0.68741357326507568] [-0.091504037380218506:0.49271035194396973] [-0.29150566458702087:0.0091303680092095999] [-0.44482085108757019:0.33805987238883972] [-0.41434434056282038:0.36454495787620539] [-0.674468994140625:0.57526785135269165] [-0.085325852036476094:0.1908536404371261] [-0.39208284020423889:0.59650236368179321] [-0.14620985090732569:0.078128062188625294] [-0.27794510126113892:0.50513875484466553] [-0.38989722728729248:0.30697387456893921] [-0.41797590255737299:0.49197259545326227] [-0.2777126133441925:0.1364040523767471] [-0.47416591644287109:0.47322368621826172] [-0.5512852668762207:0.56262832880020142] [-0.51051539182662964:0.50464761257171631] [-0.066101193428039495:0.090949937701225197] [-0.2020061910152435:0.21251751482486719] [-0.2003911882638931:0.1350699961185455] [0.0061945863999426001:0.1275386363267898] [-0.43716117739677429:0.44403412938117981] [-0.029575800523161801:0.38408777117729181] [-0.23499810695648191:0.6579168438911438] [-0.69474941492080688:0.51036900281906128] [-0.2290214449167251:0.1046857088804245] [-0.30970451235771179:0.24588237702846519] [-0.51951497793197632:0.071642890572547899] [-0.1247418150305748:0.14387878775596619] [-0.39487621188163757:0.34140142798423762] [-0.4316251277923584:-0.013775092549622] [-0.1882393807172775:0.31856232881546021] [-0.16297242045402521:0.1670688390731811] [-0.069992683827877003:0.31133255362510681] [-0.24912595748901359:0.49858993291854858] [-0.023174453526735299:0.11531681567430491] [-0.44682061672210688:0.17617467045783991] [-0.19803032279014579:0.70977282524108887] [-0.38200235366821289:0.54060590267181396] [-0.20608048141002649:0.77947300672531128] [-0.32992318272590632:0.53075641393661499] [-0.14727604389190671:0.61033594608306885] [-0.1127584427595138:0.60889476537704468] [-0.57565319538116455:0.17515885829925529] [-0.62009596824645996:0.51923245191574097] [-0.20829932391643519:0.4617208838462829] [-0.20289109647274009:0.084715567529201494] [-0.12924960255622861:0.33457696437835688] [-0.23474256694316861:0.16347607970237729] [-0.33165264129638672:0.4072305560111999] [-0.51974213123321533:0.45582568645477289] [-0.27421042323112488:0.1435598880052566] [-0.51831471920013428:0.4822787344455719] [-0.20957471430301661:0.092742145061492906] [-0.57332307100296021:0.6333661675453186] [-0.44398453831672668:0.49526214599609369] [-0.27704000473022461:0.080068536102771704] [-0.066957563161849906:0.20252454280853269] [-0.32666224241256708:0.74958246946334839] [-0.22125314176082611:0.132879689335823] [-0.027942705899477002:0.3376954197883606] [-0.76959037780761719:0.26652342081069941] [-0.80468481779098511:0.4231962263584137] [0.022924676537513702:0.76673156023025513] [-0.14560402929782859:0.57064342498779297] [-0.16849379241466519:0.17866531014442441] [-0.71895259618759155:0.81985586881637573] [-0.32416167855262751:0.1120551824569702] [-0.089847803115844699:0.092114701867103493] [-0.31313580274581909:0.5783994197845459] [-0.2947867214679718:0.54503268003463745] [-0.081165224313735906:0.1168690770864486] [-0.048479013144969899:0.107170782983303] [-0.27520927786827087:0.57773929834365845] [-0.30840659141540527:0.4265849888324737] [-0.5581696629524231:0.28459125757217407] [-0.72001200914382935:0.30177813768386841] [-0.34707349538803101:0.69072473049163818] [-0.2336736321449279:0.56574761867523193] [-0.2383700609207153:0.56612783670425415] [-0.18479287624359131:0.85396105051040649] [-0.27134299278259277:0.13303425908088681] [-0.045481748878955799:0.063968241214752197] [-0.55016249418258667:0.65343868732452393] [-0.1784235388040542:0.2165518105030059] [0.14228850603103629:0.96514374017715443] [-0.1740449070930481:0.23245590925216669] [-0.1142116859555244:0.52308094501495361] [-0.1269643157720565:0.20475754141807551] [-0.43671423196792603:0.33838310837745661] [-0.1548142284154892:0.17960448563098899] [-0.1185559928417205:0.29266926646232599] [-0.34427589178085322:0.44270959496498108] [-0.40282249450683588:0.34403342008590698] [-0.58268839120864868:0.43812546133995051] [-0.14430801570415491:0.24579945206642151] [-0.1310499310493469:0.80922526121139526] [-0.18006917834281921:0.1232117861509323] [-0.1818403750658035:0.1823274344205856] [-0.70103955268859863:0.60184794664382935] [-0.43012815713882441:0.53867232799530029] [0.0129252979531884:0.1048504039645195] [-0.5544009804725647:0.73797202110290527] [-0.49036350846290588:0.41453066468238831] [-0.54944765567779541:0.36939829587936401] [-0.2154177129268646:0.31680923700332642] [-0.48970076441764832:0.036852594465017298] [-0.53338795900344849:0.38975918292999268] [-0.43574005365371699:0.35648307204246521] [-0.20316751301288599:0.0886075124144554] [0.0111282644793391:0.49848905205726618] [-0.67126917839050293:0.20224927365779871] [-0.088699862360954201:0.029553897678852002] [-0.090015381574630696:0.32011479139327997] [-0.5943877100944519:0.88815271854400635] [-0.38720583915710449:0.84189409017562866] [-0.41652670502662659:0.37935790419578552] [-0.1038620769977569:0.18499006330966949] [-0.408346027135849:0.82982271909713745] [-0.36581322550773621:0.29062467813491821] [-0.1507587730884552:0.70477783679962158] [-0.2260509580373764:0.27508819103240961] [-0.48174589872360229:0.50197798013687134] [-0.6479412317276001:0.40508121252059931] [-0.43054106831550598:0.11647956073284139] [-0.6438407301902771:0.35187914967536921] [-0.45170944929122919:0.69068008661270142] [-0.1936922073364257:0.0100381784141063] [-0.17829781770706171:0.17970840632915491] [-0.25517690181732178:0.63228797912597656] [-0.28385436534881592:0.40218120813369751] [-0.36848187446594238:0.047317799180746002] [-0.58342438936233521:0.58993709087371826] [-0.097969681024551294:0.51008611917495728] [-0.1526247560977935:0.19271185994148249] [-0.27360564470291138:0.50573945045471191] [-0.34826919436454767:0.67245811223983765] [-0.57850551605224609:0.69130009412765503] [-0.16564151644706721:0.39087504148483271] [-0.3749842643737793:0.24923133850097651] [-0.60111963748931885:0.41935545206069941] [-0.45917940139770508:0.48905685544013971] [-0.62095659971237183:0.4553840160369873] [-0.1854559779167175:0.3879983127117157] [-0.2152629345655441:0.16257834434509269] [-0.38359293341636658:0.35864031314849848] [-0.67118287086486816:0.56802135705947876] [-0.28004381060600281:0.054138798266649198] [-0.56219446659088135:0.53075021505355835] [-0.32364764809608459:0.15250216424465179] [-0.53746449947357178:0.22703662514686579] [-0.15578934550285339:0.1201805993914604] [-0.54845833778381348:0.4227587878704071] [-0.27127745747566218:0.78623330593109131] [-0.36174672842025751:0.096037685871124198] [-0.30840194225311279:0.13238139450550079] [-0.20946751534938809:0.1634644269943237] [-0.19166335463523859:0.60373431444168091] [-0.56413912773132324:0.50368642807006836] [-0.28046360611915588:0.26407405734062189] [-0.24158589541912079:0.27435553073883051] [-0.60350215435028076:0.76427203416824341] [-0.42971104383468628:0.41786670684814448] [-0.2447831928730011:0.52672582864761353] [-0.66013151407241821:0.63007920980453491] [-0.4212227463722229:0.60356497764587402] [-0.12878824770450589:0.072032690048217704] [-0.46801197528839111:0.24262507259845731] [-0.57148641347885132:0.1104929372668266] [0.0007842816994525:0.12495005130767819] [0.1313472092151641:0.96900004148483276] [-0.37448215484619141:0.71324664354324341] [-0.038856852799654:0.26662373542785639] [-0.52564465999603271:0.22683164477348319] [-0.1451240181922912:0.1587875634431839] [-0.51393586397171021:0.50650286674499512] [-0.14869631826877591:0.14703431725502011] [-0.52728372812271118:0.42706167697906489] [-0.21067138016223899:0.29282516241073608] [-0.1666944473981857:0.1520407944917678] [-0.51410651206970215:0.81612890958786011] [-0.34528249502182001:0.44555500149726868] [-0.52906262874603271:0.37596830725669861] [-0.40593373775482178:0.1997221559286117] [-0.37850555777549738:0.14190573990345001] [-0.41799232363700861:0.58387380838394165] [-0.098210513591766302:0.10274429619312279] [-0.118902638554573:0.32268622517585749] [-0.39397287368774409:0.3428642749786377] [-0.25862675905227661:0.67000144720077515] [-0.11613095551729199:0.3734868168830871] [-0.68180793523788452:0.21233770251274109] [-0.38891014456748962:0.51165235042572021] [-0.75629067420959473:0.4335784912109375] [-0.1715140491724014:0.073415465652942602] [-0.078463919460773399:0.15618288516998291] [-0.0099371699616311992:0.069903858006000505] [-0.3058491051197052:0.25457006692886353] [-0.51090610027313232:0.2858052253723144] [-0.22314327955245969:0.38076800107955933] [-0.2129797488451004:0.66390281915664673] [-0.1200669482350349:0.21761409938335419] [-0.35422620177268982:0.4658220112323761] [-0.1468041837215423:0.028665894642472201] [-0.35729247331619263:0.28401881456375122] [-0.64283919334411621:0.41342470049858088] [-0.1672846227884292:0.24089232087135309] [-0.72286850214004517:0.78779751062393188] [-0.1157508641481399:0.1025499179959297] [-0.11929932236671439:0.73194777965545654] [-0.42097672820091248:0.86961770057678223] [-0.055740181356668403:0.095221526920795399] [-0.0107163237407803:0.23240704834461209] [-0.30430462956428528:0.2472747266292572] [-0.098408438265323597:0.37843254208564758] [-0.5456688404083252:0.64799284934997559] [-0.313914805650711:0.48896846175193781] [-0.065878458321094499:0.1462472975254058] [-0.28347909450531:0.37012898921966553] [-0.41495388746261591:0.27119821310043329] [-0.28121194243431091:0.73321413993835449] [0.033754803240299197:0.65361487865447998] [-0.080041505396366106:0.51314479112625122] [-0.54445803165435791:0.31994181871414179] [-0.32521829009056091:0.18882334232330319] [-0.2608681321144104:0.34137150645256042] [-0.63257497549057007:0.25159910321235651] [-0.35884851217269897:0.36221656203269958] [-0.22279122471809379:0.37151288986206049] [-0.32642900943756098:0.19066651165485379] [-0.59695392847061157:0.62647569179534912] [-0.10490665584802621:0.5989762544631958] [-0.21205408871173859:0.44352462887763971] [-0.1386883854866027:0.36374801397323608] [-0.1636104136705398:0.54712808132171631] [-0.29261413216590881:0.10398423671722409] [-0.4949923157691955:0.80813568830490112] [-0.39571818709373469:0.32559323310852051] [-0.3466525673866272:0.53165262937545776] [-0.68822437524795532:0.4409557580947876] [-0.27526587247848511:0.45014363527297968] [-0.1050740778446197:-0.0031044904608278998] [-0.38465368747711182:0.45561382174491882] [-0.039858199656009598:0.32262605428695679] [-0.59406054019927979:0.55427467823028564] [-0.34186428785324091:0.28683710098266602] [-0.3320629894733429:0.58398431539535522] [-0.85294073820114136:0.66460186243057251] [-0.11076986789703359:0.048373524099588297] [-0.43627062439918518:0.83227372169494629] [-0.37810337543487549:0.76355528831481934] [-0.13626831769943229:0.3260091245174408] [-0.75416165590286255:0.49936416745185852] [-0.26669663190841669:0.22521863877773279] [-0.49390473961830139:0.38981685042381281] [-0.030667996034026101:0.31147441267967219] [-0.52343326807022095:0.1425914466381073] [-0.31632193922996521:0.084306888282299] [-0.30880934000015259:0.25522172451019282] [-0.33351144194602961:0.238495647907257] [-0.4513765275478363:0.43845084309577942] [-0.15896973013877869:0.3465634286403656] [-0.38388228416442871:0.25837215781211847] [-0.38451096415519709:0.1376948654651641] [-0.12620346248149869:0.098969332873821203] [-0.38609492778778071:0.14777925610542289] [-0.48119735717773438:0.13023848831653589] [-0.20422837138175959:0.52162069082260132] [-0.16296489536762229:0.61182987689971924] [-0.4170079231262207:0.097332216799259103] [-0.4633205235004425:0.099703818559646606] [-0.31150147318840021:0.27583077549934382] [-0.41429096460342407:0.28574010729789728] [-0.022109171375632199:0.48455464839935303] [-0.25671869516372681:0.049724668264389003] [-0.31387308239936829:0.43408715724945068] [-0.39832127094268799:0.54285705089569092] [-0.42766872048377991:0.63759595155715942] [-0.65209752321243286:0.63727015256881714] [-0.046723224222660002:0.089260853826999595] [-0.026657743379473599:0.98745530843734741] [-0.33151713013648981:0.10967991501092909] [-0.13300333917140961:0.1540684849023819] [-0.48929378390312189:0.53500109910964966] [-0.39496353268623352:0.696830153465271] [-0.28998228907585138:0.14462955296039581] [-0.19328020513057709:0.26315140724182129] [-0.33844420313835138:0.3098111748695373] [-0.82485771179199219:0.2384759038686752] [-0.17632518708705899:0.5300871729850769] [-0.19947530329227439:0.1477531343698501] [-0.65354669094085693:0.28754359483718872] [-0.41687905788421631:0.61706972122192383] [-0.28851455450057978:0.11546265333890909] [-0.3493551611900329:0.20159630477428431] [-0.35169479250907898:0.37303516268730158] [-0.042207751423120499:0.17412653565406799] [-0.27065601944923401:0.45230874419212341] [-0.37125146389007568:0.61763215065002441] [-0.28892523050308228:0.32020637392997742] [-0.58415156602859497:0.39134657382965088] [-0.19365485012531281:0.54705750942230225] [-0.25580313801765442:0.36031264066696161] [-0.38134238123893738:0.46346613764762878] [-0.60112690925598145:0.51697909832000732] [-0.31839814782142639:0.44474795460700989] [-0.22745122015476221:0.71193462610244751] [-0.87100589275360107:0.6250872015953064] [-0.3745585680007934:0.17843560874462119] [-0.34950760006904602:0.41696548461914062] [-0.095977365970611503:0.6777464747428894] [0.011556295678019499:0.50209891796112061] [-0.23629146814346311:0.070361606776714297] [0.0040281205438076999:0.2007082253694534] [-0.36856281757354731:0.42550340294837952] [-0.53962475061416626:0.27558168768882751] [-0.37786644697189331:0.53443038463592529] [-0.37707474827766418:0.3937792181968689] [-0.21771460771560669:0.31219860911369318] [-0.4939885139465332:0.63901633024215698] [-0.071564257144927895:0.29106724262237549] [-0.35919880867004389:0.2041164487600326] [-0.50939691066741943:0.1494496017694473] [-0.27549421787261957:0.2515682578086853] [-0.2214207053184509:0.3660271167755127] [-0.28697606921195978:0.44828355312347412] [-0.14263235032558441:0.25007820129394531] [-0.30462628602981567:0.19614188373088831] [-0.56036370992660522:0.083661325275897896] [-0.35354718565940851:0.71659207344055176] [-0.64102268218994141:0.71354633569717407] [-0.39480942487716669:0.49230372905731201] [-0.48369714617729181:0.044125456362962702] [-0.18978270888328549:0.41859415173530579] [-0.37683418393135071:0.11396504938602441] [-0.0092030921950936005:0.1565393060445785] [-0.32842487096786499:0.4122714102268219] [-0.2372000515460968:0.57126474380493164] [-0.0097856791689990997:0.070662632584571797] [-0.35208958387374878:0.30429750680923462] [-0.2752732634544372:0.39170834422111511] [-0.3738571405410766:0.3203591108322143] [-0.0235235523432493:0.11356544494628899] [-0.1672909259796142:0.0675960928201675] [-0.22767418622970581:0.59259253740310669] [-0.19875404238700861:0.089528501033782903] [-0.25411483645439148:0.50327181816101074] [-0.49568164348602289:0.40898194909095759] [-0.30993679165840149:0.27926275134086609] [-0.25114104151725769:0.38820412755012512] [-0.37188693881034851:0.32626929879188538] [-0.60027772188186646:0.89977759122848511] [-0.093050740659236894:0.1193814575672149] [-0.1551928967237472:0.19839273393154139] [-0.0089819245040416006:0.078290767967700903] [-0.37246248126029968:0.59354227781295776] [-0.27786397933959961:0.75221920013427734] [-0.56666690111160278:0.49619099497795099] [-0.1591516435146331:0.2936195433139801] [-0.39776438474655151:0.30719345808029169] [-0.1419638395309448:0.70228856801986694] [-0.11335421353578561:0.14799478650093079] [-0.090723842382431003:0.34598314762115479] [-0.43302333354949951:0.51384925842285156] [-0.24247720837593079:0.082884229719638797] [-0.26394456624984741:0.36545532941818237] [-0.46271625161170959:0.38931727409362787] [-0.42005050182342529:0.38509750366210938] [-0.8502272367477417:0.71597766876220703] [-0.1893618106842041:0.21305070817470551] [-0.43606236577033991:0.38920596241950989] [-0.5138203501701355:0.18343290686607361] [-0.47176751494407648:0.61377114057540894] [-0.34600543975830078:0.56190556287765503] [-0.23111326992511749:0.30549949407577509] [-0.36879223585128779:0.63745123147964478] [-0.1390382647514343:0.037004511803388498] [-0.40234020352363581:0.38093012571334839] [-0.44411057233810419:0.52723634243011475] [-0.54157394170761108:0.56655418872833252] [-0.39310735464096069:0.1789470762014389] [-0.4960037469863891:0.2388099879026413] [-0.45410123467445368:0.0132931703701615] [-0.49027341604232788:0.65711230039596558] [0.0046954457648098:0.304025799036026] [-0.26538664102554321:0.29181084036827087] [-0.018270680680870999:0.11796212196350089] [-0.078680887818336404:0.52566629648208618] [-0.54205447435379028:0.1714256554841995] [-0.18933586776256561:0.59944981336593628] [-0.29982021450996399:0.26479998230934138] [-0.57337683439254761:0.55251061916351318] [-0.67683839797973633:0.46287080645561218] [-0.44484415650367731:0.088429406285285894] [-0.3323843777179718:0.042258314788341501] [-0.18175685405731201:0.1173184067010879] [-0.17399291694164271:0.093167036771774195] [-0.62956881523132324:0.13994729518890381] [-0.55374741554260254:0.56223857402801514] [-0.4121981263160705:0.5920865535736084] [0.017577821388840599:0.45706319808959961] [-0.13334821164607999:0.2272475510835647] [-0.19919005036354059:0.4066928625106811] [-0.086543641984462696:0.046063218265771803] [-0.66699451208114624:0.53675001859664917] [0.0129519319161772:0.45936614274978638] [-0.28228616714477539:0.50994455814361572] [-0.18805128335952759:0.57572126388549805] [-0.1797438561916351:0.25985848903656] [-0.19919063150882721:0.1005418002605438] [-0.46470046043395991:0.57005941867828369] [-0.34069347381591791:0.3892768919467926] [-0.39891624450683588:0.39173808693885798] [-0.42177307605743408:0.53454124927520752] [-0.40185204148292542:0.27800437808036799] [-0.10601382702589029:0.47095891833305359] [-0.5998985767364502:0.3747219443321228] [-0.54661095142364502:0.55674558877944946] [-0.25762709975242609:0.76673489809036255] [-0.53837639093399048:0.39774486422538757] [-0.27018916606903071:0.61098921298980713] [-0.13430751860141751:0.50850456953048706] [-0.48346647620201111:0.612548828125] [-0.13413266837596891:0.30831637978553772] [-0.48397552967071528:0.31565722823143] [-0.3194472193717956:0.29873302578926081] [-0.0082525089383124993:0.1037620976567268] [-0.063211835920810699:0.12601779401302329] [0.0149144046008586:0.64436405897140503] [-0.085323907434940297:0.1999557018280029] [-0.44805404543876648:0.42699483036994929] [-0.084443449974060003:0.34697985649108881] [-0.071681059896945898:0.41091901063919067] [-0.032637562602758401:0.1589406430721283] [-0.1205205395817756:0.12139386683702461] [-0.59620290994644165:0.78486251831054688] [-0.090276770293712602:0.19418655335903159] [-0.19778195023536679:0.1195071414113044] [-0.5563088059425354:0.45669931173324579] [-0.16689649224281311:0.22716760635375971] [-0.56037157773971558:0.26940715312957758] [-0.2067772895097732:0.49740040302276611] [-0.2242284268140792:0.2086362540721893] [-0.48215106129646301:0.33057701587677002] [-0.13587664067745209:0.40660509467124939] [-0.65514963865280151:0.77343487739562988] [-0.4283466637134552:0.1046227812767028] [-0.094890423119068104:0.28018137812614441] [-0.40284574031829828:0.45910394191741938] [-0.4218610525131225:0.54613173007965088] [-0.19279330968856809:0.2309699654579162] [-0.47305658459663391:0.53173792362213135] [-0.31471174955368042:0.40400436520576471] [-0.54352962970733643:0.37436956167221069] [-0.19980901479721069:0.30962690711021418] [-0.18678443133831019:0.84668666124343872] [-0.52757948637008667:0.8477434515953064] [-0.27358484268188471:0.41673007607460022] [-0.21112057566642761:0.4634157121181488] [-0.0051990472711622004:0.1338635981082916] [-0.038061607629060697:0.5511174201965332] [-0.19132004678249359:0.1165601387619972] [-0.5283968448638916:0.35239729285240168] [-0.1477151215076446:0.36506900191307068] [-0.77035284042358398:0.78088134527206421] [-0.048253245651721899:0.1542521715164184] [-0.33898448944091791:0.51104474067687988] [-0.5624116063117981:0.37010613083839411] [0.0093453647568821005:0.43413460254669189] [-0.34142440557479858:0.5660473108291626] [-0.26573005318641663:0.39036008715629578] [-0.11264559626579281:0.68543726205825806] [-0.1294201463460922:0.38855889439582819] [-0.26691478490829468:0.33158662915229797] [0.0030689514242111999:0.58285754919052124] [-0.35782620310783381:-0.0206349398940801] [-0.053405012935400002:0.063245080411434104] [-0.15372748672962189:0.38493254780769348] [-0.1161825433373451:0.22096623480319971] [-0.52606147527694702:0.38174980878829951] [-0.22239431738853449:0.32103359699249268] [-0.26077967882156372:0.26121336221694941] [-0.30866390466690058:0.58414614200592041] [-0.58737808465957642:0.70962393283843994] [-0.27332332730293268:0.39927944540977478] [-0.48206096887588501:0.60471689701080322] [-0.6192818284034729:0.55520612001419067] [-0.13554058969020841:0.078706249594688402] [-0.2460090965032577:0.092916816473007202] [-0.0018372271442785:0.2961172461509704] [-0.53260767459869385:0.6149057149887085] [-0.53183633089065552:0.58760333061218262] [-0.42229115962982178:0.4704060554504394] [-0.34431999921798701:0.24212181568145749] [-0.41941550374031061:0.46234223246574402] [-0.36973333358764648:0.3910096287727356] [-0.4931296706199646:0.34846174716949457] [-0.34708398580551147:0.35833808779716492] [-0.2067901790142059:0.26374480128288269] [-0.15171174705028531:0.16494385898113251] [-0.095872201025485895:0.79622739553451538] [-0.42917805910110468:0.2066607177257537] [-0.56209087371826172:0.38951864838600159] [-0.62367779016494751:0.82213598489761353] [-0.48467528820037842:0.24849709868431091] [-0.36923414468765259:0.63971644639968872] [-0.18068508803844449:0.50801825523376465] [-0.2186358571052551:0.57191371917724609] [-0.36222508549690241:0.1236587464809417] [-0.25793412327766418:0.37637081742286682] [0.051684640347957597:0.94494152069091797] [-0.33085492253303528:0.2882877886295318] [-0.13506132364273071:0.077218770980834905] [-0.36722972989082331:0.057241670787334401] [-0.1111473739147186:0.2946897149085998] [-0.039315983653068501:0.19114091992378229] [-0.54317808151245117:0.55482840538024902] [-0.60531347990036011:0.2232811748981475] [-0.0224967002868652:0.1029836684465408] [-0.38511186838150019:0.63128066062927246] [-0.39195248484611511:0.27906441688537598] [-0.35017427802085871:0.63967049121856689] [-0.0135578503832221:0.40844789147377009] [-0.59281617403030396:0.8468969464302063] [-0.2483101487159729:-0.0027584107592701001] [0.039413992315530701:0.65128666162490845] [-0.30596864223480219:0.2136881351470947] [-0.022065972909331301:0.23255655169487] [-0.096918970346450806:0.30004853010177612] [-0.30173015594482422:0.74261188507080078] [-0.074393622577190399:0.1654411703348159] [-0.21467478573322291:0.30608153343200678] [-0.76537680625915527:0.34712588787078857] [-0.6143488883972168:0.47474047541618342] [0.012937007471919001:0.1146452948451042] [-0.64950144290924072:0.22311596572399139] [-0.45487135648727411:0.3648542165756225] [-0.55673295259475708:0.70944863557815552] [-0.139031246304512:0.28061047196388239] [-0.4210008978843689:0.36819851398468018] [-0.23378458619117731:0.25622114539146418] [-0.28145736455917358:0.2830207347869873] [-0.38462486863136292:0.59439212083816528] [-0.16401006281375879:0.31026199460029602] [-0.44478851556777949:0.26895144581794739] [-0.42008742690086359:0.18350864946842191] [-0.26700916886329651:0.51719623804092407] [-0.19295461475849149:0.33221307396888727] [-0.33666530251502991:-0.0106367990374565] [-0.37241557240486139:0.5039326548576355] [-0.60015493631362915:0.15686878561973569] [-0.22328522801399231:0.14869782328605649] [-0.28605052828788757:0.61937767267227173] [-0.2487132102251052:0.2014902383089065] [0.061473570764064699:0.7672119140625] [-0.41874471306800842:0.39560544490814209] [-0.57087206840515137:0.31347194314002991] [-0.27068272233009338:0.30771812796592712] [-0.3830209076404571:0.081436268985271398] [-0.0189300123602151:0.057298235595226198] [-0.32505235075950623:0.45747214555740351] [-0.4091794490814209:0.28057479858398438] [-0.088820546865463201:0.1211502999067306] [-0.079344987869262695:0.16199265420436859] [-0.55384129285812378:0.61358606815338135] [-0.1887013167142868:0.32895761728286738] [-0.091816335916519096:0.24985620379447929] [-0.25293892621994019:0.29062739014625549] [-0.33294779062271118:0.91764545440673839] [-0.053493950515985399:0.1124187260866165] [-0.46942847967147822:0.29072162508964539] [-0.49656236171722412:0.90962600708007801] [-0.4431195855140686:0.50505584478378296] [-0.24784798920154569:0.28755566477775568] [-0.27417799830436701:0.1096488535404205] [-0.54562652111053467:0.24044220149517059] [-0.18178044259548179:0.14630551636219019] [-0.1486488729715347:0.24015241861343381] [-0.022068457677960299:0.42558354139327997] [-0.3480181097984314:0.35874161124229431] [-0.358942300081253:0.56332099437713623] [-0.35035759210586548:0.40637153387069702] [-0.33994641900062561:0.040858432650566101] [-0.1637067049741745:0.099834956228732993] [-0.55344152450561523:0.41898739337921143] [-0.65420627593994141:0.028034567832946701] [-0.3272267878055572:0.1690369099378585] [-0.060499880462884903:0.45572015643119812] [-0.26187539100646973:0.38946709036827087] [-0.15703779458999631:0.85972142219543457] [-0.1554736047983169:0.4562325775623321] [-0.50339007377624512:0.44050857424736017] [-0.176709845662117:0.36864340305328369] [-0.43131172657012939:0.39446279406547541] [-0.52515709400177002:0.42005658149719238] [-0.47222405672073359:0.5588802695274353] [-0.41039836406707758:0.45118382573127741] [-0.12217122316360469:0.24608933925628659] [-0.2936502993106842:0.1511118412017822] [-0.44829684495925898:0.36418569087982178] [-0.42759469151496882:0.69861090183258057] [-0.013215720653533901:0.15960639715194699] [-0.56755435466766357:0.1668782830238342] [-0.41460356116294861:0.3901043832302093] [-0.52118796110153198:0.35966673493385309] [-0.1482281684875488:0.59218138456344604] [-0.1794735789299011:0.29063147306442261] [-0.2715455293655395:0.49806293845176691] [-0.79451775550842285:0.47978192567825317] [-0.41052937507629389:0.33183261752128601] [-0.54446327686309814:0.1386214941740036] [-0.47411689162254328:0.74181914329528809] [-0.65936625003814697:0.46445506811141968] [-0.37620744109153748:0.086094751954078605] [-0.36600112915039062:0.74176794290542603] [-0.66989189386367798:0.74478060007095337] [-0.57121264934539795:0.35235407948493958] [-0.33842039108276362:0.5505027174949646] [-0.31123563647270203:0.46023848652839661] [-0.1757626384496688:0.22403647005558011] [-0.020556882023811299:0.38828042149543762] [-0.36834642291069031:0.23911440372467041] [-0.50239443778991699:0.47016218304634089] [-0.89768362045288086:0.27879583835601801] [-0.31144359707832331:0.3856606781482696] [-0.1367580890655517:0.1712634265422821] [-0.22825612127780909:0.56806069612503052] [-0.17626102268695831:0.54931157827377319] [-0.55268257856369019:0.54626297950744629] [-0.43301576375961298:0.35295981168746948] [-0.41092643141746521:0.5205543041229248] [-0.3812247216701507:0.28977498412132258] [-0.33327692747116089:0.3263029158115387] [-0.3591152131557464:0.103212647140026] [-0.47943031787872309:0.51271772384643555] [-0.63679653406143188:0.67482483386993408] [-0.34023785591125488:0.24066299200057981] [-0.2255116999149322:0.31877231597900391] [-0.1147516220808029:0.049312811344861901] [-0.1644718647003173:0.72351521253585815] [-0.74233460426330566:0.21811531484127039] [-0.62190812826156616:0.0703438520431518] [-0.64261507987976074:0.22774659097194669] [0.014918622560799099:0.19637645781040189] [-0.40142622590065002:0.46063622832298279] [-0.2348448634147644:0.54709607362747192] [-0.43020367622375488:0.6813165545463562] [-0.29791983962059021:0.29093864560127258] [-0.084256023168563801:0.1315972357988357] [-0.60591912269592285:0.35346907377243042] [-0.67793869972229004:0.78498387336730957] [-0.2566775381565094:0.24292603135108939] [-0.4092559814453125:0.41333827376365662] [-0.39808139204978937:0.73100787401199341] [-0.20088720321655271:0.1943423449993133] [-0.43024048209190369:0.56749093532562256] [-0.33560019731521601:0.2102957069873809] [-0.4611999094486236:0.49687620997428888] [-0.50027889013290405:0.73208796977996826] [-0.23875503242015839:0.49430271983146667] [-0.070994243025779696:0.1559672206640243] [-0.47477596998214722:0.49939346313476562] [-0.26034188270568848:0.25321197509765619] [-0.2860012948513031:0.25337541103363032] [-0.45982089638710022:0.57605969905853271] [-0.39762753248214722:0.30613753199577332] [-0.30591967701911921:0.2187346816062927] [-0.47246256470680231:0.43651777505874628] [-0.40621361136436462:0.1276957243680954] [-0.33561205863952631:0.21919295191764829] [-0.63308024406433105:0.4825774729251861] [-0.61401557922363281:0.0010772645473479999] [-0.2791169285774231:0.42702865600585938] [-0.4925384521484375:0.35987430810928339] [-0.19042891263961789:0.47996979951858521] [-0.39678511023521418:0.36960887908935541] [-0.75172078609466553:0.60865336656570435] [-0.43078383803367609:0.53272026777267456] [-0.66523462533950806:0.65445399284362793] [-0.76073557138442993:0.32780164480209351] [-0.22586660087108609:0.25874042510986328] [-0.51031655073165894:0.29871264100074768] [-0.11868280917406079:0.022182142361998499] [-0.35323226451873779:0.57788723707199097] [-0.31451776623725891:0.48616674542427057] [-0.1893035471439361:0.062811039388179696] [-0.1671928465366363:0.3366845548152923] [-0.59547603130340576:0.44751924276351929] [-0.16744774580001831:0.039355162531137397] [-0.24306157231330869:0.48216107487678528] [-0.0139045668765902:0.1061810404062271] [0.0053662988357245003:0.61424165964126587] [0.0095146829262374999:0.41009166836738581] [-0.40339389443397522:0.52214860916137695] [-0.31200817227363581:0.14529615640640259] [-0.32179734110832209:0.3846332430839538] [-0.75982493162155151:0.57941716909408569] [-0.69410353899002075:0.36122116446495051] [-0.33269867300987238:0.63268083333969116] [-0.62240004539489746:0.897938072681427] [-0.34533253312110901:0.28327834606170649] [-0.6117669939994812:0.80330115556716919] [-0.67186439037322998:0.69169503450393677] [-0.16213755309581751:0.51934957504272461] [-0.44664663076400751:0.3253326416015625] [-0.67556196451187134:0.53089302778244019] [-0.80669647455215454:0.33161255717277521] [-0.39896366000175471:0.39040374755859369] [-0.067697554826736395:0.30108198523521418] [-0.81144654750823975:0.059720698744058602] [0.0127450535073876:0.2028661221265792] [-0.058333728462457601:0.20587776601314539] [-0.1909313350915908:0.3979002833366394] [-0.21772091090679169:0.29900500178337092] [-0.35903871059417719:0.60793495178222656] [-0.4531746506690979:0.89039051532745361] [0.023678457364439898:0.8148345947265625] [-0.36513280868530268:0.63397759199142456] [-0.3887635469436645:0.35167607665061951] [-0.54344779253005981:0.45751053094863892] [-0.36255618929862971:0.30132022500038141] [-0.096841290593147195:0.72494602203369141] [-0.29890844225883478:0.59907907247543335] [-0.81534880399703979:0.32185602188110352] [-0.36433297395706171:0.53269666433334351] [-0.33201533555984492:0.36397799849510187] [-0.49570930004119867:0.40500029921531677] [-0.3481841087341308:0.26809722185134888] [-0.44944548606872559:0.19916374981403351] [-0.26952016353607178:0.1164786145091056] [-0.42117676138877869:0.57709437608718872] [-0.043086752295494003:0.2486999034881591] [-0.53296858072280884:0.42236480116844177] [-0.38586008548736572:0.37542083859443659] [-0.61943536996841431:0.69761854410171509] [-0.35042637586593628:0.17109379172325129] [-0.13341717422008509:0.062297310680150902] [-0.50928038358688354:0.65384572744369507] [-0.29789480566978449:0.280335932970047] [-0.18161731958389279:0.59391474723815918] [-0.36079716682434082:0.46226599812507629] [-0.038334298878908102:0.87815952301025391] [-0.6562497615814209:0.83075177669525146] [-0.45131596922874451:0.6651110053062439] [-0.43750885128974909:0.58410412073135376] [-0.3317905962467193:0.29869586229324341] [-0.088793173432350103:0.1287548691034317] [-0.4735846221446991:0.50645387172698975] [-0.17285388708114621:0.064778089523315402] [-0.55949676036834717:0.52932924032211304] [-0.74904292821884155:0.89660513401031494] [-0.063718914985656697:0.098386406898498494] [-0.027184318751096701:0.12617248296737671] [-0.23774139583110809:0.30870619416236877] [-0.066725417971610995:0.39365553855895991] [-0.20701169967651359:0.3622539341449737] [-0.73286932706832886:0.77478617429733276] [-0.20270660519599909:0.1215750724077224] [-0.82999587059020996:-0.53561347723007202] [-0.2971899807453155:0.52856236696243286] [-0.33999419212341309:0.37399736046791071] [-0.18151929974555969:0.63032054901123047] [-0.064259178936481406:0.33999484777450562] [-0.74823367595672607:0.39743870496749878] [-0.47882384061813349:0.2007889598608017] [-0.92753463983535755:0.3414714634418487] [-0.40963253378868097:0.36627089977264399] [-0.90512412786483765:0.45902258157730103] [-0.1174853146076202:0.253714770078659] [-0.69900608062744141:0.29557031393051147] [-0.1351063996553421:0.45691177248954767] [-0.53381085395812988:0.28036850690841669] [-0.52547389268875122:0.21174070239067069] [-0.13956531882286069:0.4536523818969726] [-0.16947375237941739:0.075279548764228807] [-0.65062820911407471:0.33584675192832941] [-0.79588723182678223:0.64133948087692261] [-0.41493594646453857:0.40150883793830872] [-0.54445862770080566:0.49334987998008728] [-0.0037851433735340001:0.29675868153572083] [-0.7220311164855957:0.4332741498947143] [-0.69503575563430786:0.54101395606994629] [-0.17032675445079801:0.2847573459148407] [-0.34937253594398499:0.66027837991714478] [-0.3657329380512237:0.2686370313167572] [-0.075216293334960896:0.1225106790661811] [-0.32214659452438349:0.4709320068359375] [-0.4263406097888946:0.52464824914932251] [-0.3972591757774353:0.80831897258758545] [-0.53541988134384155:0.15972027182579041] [-0.19555848836898801:0.406147301197052] [-0.27523672580718989:0.093027360737323705] [-0.56527423858642578:0.31688663363456721] [-0.52736032009124756:0.21859931945800781] [-0.6800040602684021:0.4473429918289184] [-0.31326106190681458:0.37962028384208679] [-0.51029694080352783:0.53619295358657837] [-0.61240410804748535:0.247007131576538] [-0.039940740913152598:0.16764330863952631] [-0.25079676508903498:0.079570323228836004] [-0.53678470849990845:0.72067034244537354] [-0.80755650997161865:0.85375785827636719] [0.026536362245678902:0.89458858966827393] [-0.65385806560516357:0.14544951915740961] [-0.1251141130924224:0.16146613657474509] [-0.15965189039707181:0.35239270329475397] [-0.20945039391517639:0.44772163033485413] [-0.7322269082069397:0.16104443371295929] [-0.26300778985023499:0.18820770084857941] [-0.1713401526212692:0.66292458772659302] [-0.1754591614007949:0.46841678023338318] [-0.76018607616424561:0.79097670316696167] [-0.37458661198616028:0.18765279650688171] [-0.38314983248710632:0.70748603343963623] [-0.16133804619312281:0.095996811985969502] [-0.0094876224175095003:0.027660651132464398] [-0.1674652099609375:0.054215155541896799] [-0.3242160975933075:0.52921527624130249] [-0.086644403636455494:0.19193196296691889] [-0.4048971533775329:0.52995264530181885] [-0.48483645915985107:0.57958865165710449] [-0.010978776961565:0.13727666437625879] [-0.59975731372833252:0.7799486517906189] [-0.29139050841331482:0.32451379299163818] [-0.1497122198343277:0.36338070034980768] [-0.33213770389556879:0.38241675496101379] [-0.36938843131065369:0.2471006959676742] [-0.25987064838409418:0.51614075899124146] [-0.5932127833366394:0.43642809987068171] [-0.23030781745910639:0.28304484486579889] [-0.38504874706268311:0.46435597538948059] [-0.33817237615585322:0.50566643476486206] [-0.1241976618766784:0.038345117121934801] [-0.37461203336715698:0.54397910833358765] [-0.73769086599349976:0.057156443595886203] [-0.18899010121822349:0.35035204887390131] [-0.32579606771469111:0.49655044078826899] [-0.57546532154083252:0.34155416488647461] [-0.3699779212474823:0.098475463688373496] [-0.83597767353057861:0.70781338214874268] [-0.20239450037479401:0.39158886671066279] [-0.205548495054245:0.2506435215473175] [-0.4951003491878509:0.51103091239929199] [-0.25126698613166809:0.14703433215618131] [-0.23140329122543329:0.40557846426963801] [-0.58858436346054077:0.75044876337051392] [-0.28099310398101801:0.096230655908584595] [-0.15451186895370481:0.23627692461013791] [0.0068882089108227998:0.46383428573608398] [-0.39928650856018061:0.3928306102752685] [-0.018480312079191201:0.2317831814289093] [0.0030510984361170998:0.12375579029321671] [-0.57531112432479858:0.52635163068771362] [-0.44295799732208252:0.19511726498603821] [-0.61358940601348877:0.3793521523475647] [-0.27372673153877258:0.24111315608024589] [-0.29672998189926147:0.51521605253219604] [-0.087503030896186801:0.0064106960780918] [-0.84348464012145996:0.26031231880187988] [-0.34159865975379938:0.14416937530040741] [-0.38580739498138428:0.7506260871887207] [-0.017229046672582599:0.069653488695621393] [-0.32286527752876282:0.51700091361999512] [-0.32227399945259089:0.29688295722007751] [-0.26743358373641968:0.036974843591451603] [-0.1110209450125694:0.20463195443153381] [-0.093358077108860002:0.124698556959629] [-0.073440127074718406:0.25998041033744812] [-0.015475776977837001:0.48840898275375361] [-0.51916438341140747:0.28962463140487671] [-0.33464080095291138:0.67168837785720825] [-0.1723920255899429:0.33308076858520508] [-0.26364505290985107:0.5672224760055542] [-0.3794164359569549:0.43767395615577698] [-0.29507049918174738:0.55446374416351318] [-0.68486052751541138:0.74373680353164673] [-0.2655548751354217:0.34519293904304499] [-0.31842568516731262:0.47019010782241821] [-0.29390031099319458:0.2040104866027832] [-0.26984703540802002:0.44621488451957703] [-0.44606339931488032:0.35762655735015869] [-0.65335333347320557:0.6215628981590271] [-0.4724595844745636:0.28210157155990601] [-0.28063815832138062:0.28357863426208491] [-0.27271443605422968:0.30913707613945007] [-0.1755130589008331:0.49936765432357788] [-0.36092621088027949:0.38076967000961298] [-0.0587476231157779:0.36821538209915161] [-0.32524886727333069:0.51489871740341187] [-0.41748708486557001:0.73197317123413086] [-0.35684636235237122:0.23615707457065579] [-0.50428509712219238:0.64654642343521118] [-0.23305773735046381:0.1361002624034881] [-0.41516277194023132:0.57324200868606567] [-0.25821855664253229:0.409941166639328] [-0.44290229678153992:0.37438970804214478] [-0.19235114753246299:0.26847139000892639] [-0.47022071480751038:0.28509008884429932] [0.090072929859161294:0.77737176418304443] [-0.2391795217990875:0.20001782476902] [-0.018923068419098799:0.42709887027740479] [-0.049388628453016198:0.48125874996185303] [-0.23828829824924469:0.27472293376922607] [-0.38143500685691828:0.2187239527702331] [-0.40501579642295837:0.37993296980857849] [-0.18823553621768949:0.38132965564727778] [-0.47034019231796259:0.18862920999526969] [-0.65000742673873901:0.14043283462524411] [-0.50576353073120117:0.31861540675163269] [-0.36985346674919128:0.26239046454429621] [-0.016455668956041301:0.026732325553894001] [0.0035838566254824001:0.087094120681285803] [-0.4552017450332641:0.72040039300918579] [-0.63562530279159546:0.31212320923805231] [-0.38713550567626948:0.38494279980659479] [-0.54140108823776245:0.75593554973602295] [-0.67772978544235229:0.35185167193412781] [-0.33563423156738281:0.31110712885856628] [-0.59724223613739014:0.29708519577980042] [-0.55905455350875854:0.19656693935394279] [-0.59102874994277954:0.12911611795425409] [-0.21823357045650479:0.26733621954917908] [-0.2226913124322891:0.5659785270690918] [-0.43077370524406428:0.67455422878265381] [-0.29134032130241388:0.28552988171577448] [-0.19833776354789731:0.18901358544826499] [-0.037303753197193097:0.0421503707766532] [-0.36752146482467651:0.35331159830093378] [-0.46577966213226318:0.4640629887580871] [-0.33618557453155518:0.25685003399848938] [-0.2039672434329986:0.38341498374938959] [-0.33763265609741211:0.073358483612537301] [0.0083825904875993:0.40981745719909668] [-0.33733054995536799:0.30388149619102478] [-0.10295629501342771:0.22934465110301969] [-0.16031840443611139:0.60769718885421753] [-0.18694864213466639:0.1020412370562553] [-0.3081703782081604:0.2221757173538208] [-0.33789917826652521:0.2497403621673584] [-0.17233267426490781:0.14809021353721619] [-0.31487637758254999:0.468985766172409] [-0.1328784972429275:0.1149739772081375] [-0.2440796345472335:0.37088841199874878] [-0.78645706176757812:0.50913947820663452] [-0.39833405613899231:0.59259438514709473] [-0.53038996458053589:0.8724358081817627] [-0.35206034779548639:0.40993380546569819] [-0.24418528378009791:0.36593645811080933] [-0.32640987634658808:0.4253129363059997] [-0.35172820091247559:0.13093489408493039] [-0.19352959096431729:0.089996702969074194] [-0.48350942134857178:0.6541745662689209] [-0.095685087144374806:0.29152396321296692] [-0.3959338366985321:0.4379743337631225] [-0.32169806957244867:0.2271171957254409] [-0.77816307544708252:0.73191630840301514] [-0.85701209306716919:0.60077255964279175] [-0.24806483089923859:0.35686632990837092] [-0.63391399383544922:0.25700408220291138] [-0.102039985358715:0.58573347330093384] [-0.26561099290847778:0.22233179211616511] [-0.18122684955596921:0.40140816569328308] [-0.61778789758682251:0.21764053404331199] [-0.44652020931243891:0.29348322749137878] [-0.25180196762084961:0.46982395648956299] [-0.95967996120452881:0.27060574293136591] [-0.35955324769020081:0.42526179552078242] [-0.40306577086448669:0.29383394122123718] [-0.63959771394729614:0.77829116582870483] [-0.16560092568397519:0.1135275736451149] [-0.16473323106765739:0.49282845854759211] [-0.24431337416172019:0.40081474184989929] [-0.49995508790016169:-0.0089348489418624999] [-0.41446408629417419:0.199872076511383] [-0.064991988241672502:0.22704686224460599] [-0.2816022634506225:0.2674510776996612] [-0.73901510238647461:0.79147624969482422] [-0.72227925062179565:0.14710599184036249] [-0.59009826183319092:0.3482837975025177] [-0.39228391647338862:0.42937913537025452] [-0.41576749086379999:0.66260188817977905] [-0.29991352558135981:0.26723355054855341] [-0.068764865398406899:0.23479452729225159] [-0.1732711046934127:-0.041005674749612801] [-0.26869180798530579:0.36033892631530762] [-0.063687384128570501:0.21195775270462031] [-0.35027864575386047:0.51792550086975098] [-0.31227570772171021:0.68426185846328735] [-0.1603245139122009:0.775809645652771] [-0.030941311269998498:0.10572384297847739] [-0.43019795417785639:-0.0053658359684049996] [-0.53209424018859863:0.64222609996795654] [0.0076265451498328998:0.091121308505535098] [-0.46658456325531:0.27752852439880371] [-0.038316577672958298:0.1022747159004211] [-0.25339680910110468:-0.050389911979436798] [-0.4427434504032135:0.2009141743183136] [-0.27853342890739441:0.50081747770309448] [-0.23780496418476099:0.62399196624755859] [-0.14987802505493161:0.1122106239199638] [-0.1191820129752159:0.19154515862464899] [-0.44678491353988647:0.41124573349952698] [-0.30961480736732477:0.2265824675559997] [-0.39049533009529108:0.44862329959869379] [-0.8572126030921936:0.3863196074962616] [-0.23052284121513361:0.23041883111000061] [-0.48348689079284668:0.2560315728187561] [-0.37016066908836359:0.2722771167755127] [-0.3492515087127685:0.35127338767051691] [-0.26341712474822998:0.0012660790234803999] [-0.24339047074317929:0.43385994434356689] [-0.34895741939544678:0.63676142692565918] [-0.45490783452987671:0.14211881160736081] [0.0011182227171957001:0.14611224830150599] [-0.37569054961204529:0.66428226232528687] [-0.56618416309356689:0.75679701566696167] [-0.32611352205276489:0.22387774288654319] [-0.67266476154327393:0.55203413963317871] [-0.019092099741101199:0.24536293745040891] [-0.23968729376792899:0.4417740106582641] [-0.52495259046554565:0.51249289512634277] [-0.1067784130573272:0.1176144406199455] [-0.24318605661392209:0.2237509489059448] [-0.029306938871741201:0.33130326867103571] [-0.39538830518722529:0.2378876805305481] [-0.167628213763237:0.19693370163440699] [-0.20283053815364829:0.73818504810333252] [-0.42699390649795532:0.44852903485298151] [-0.53112834692001343:0.63791108131408691] [-0.66344571113586426:0.71780246496200562] [-0.3102453351020813:0.55058801174163818] [-0.34777158498764038:0.30611452460289001] [-0.41939744353294373:0.038416109979152603] [-0.26777827739715571:0.3965686559677124] [0.00065706612076610002:0.72360432147979736] [-0.2830775380134582:0.7262566089630127] [-0.76053065061569214:0.39331522583961481] [-0.3125424981117248:0.2751756608486175] [-0.1190043687820434:0.1642119288444519] [0.00085136492270969995:0.36447814106941218] [-0.26010805368423462:0.62224495410919189] [-0.1206758171319961:0.67693853378295898] [-0.55131012201309204:0.49900650978088379] [-0.32203736901283259:0.74582546949386597] [-0.108098454773426:0.11045838892459869] [-0.55196285247802734:0.61156898736953735] [-0.19593982398509979:0.31316667795181269] [-0.47249194979667658:0.41976580023765558] [-0.39706453680992121:0.44879022240638727] [-0.30770495533943171:0.29894718527793879] [-0.43510249257087708:0.1890253871679306] [-0.32737851142883301:0.29347619414329529] [-0.081296853721141801:0.30823212862014771] 